FANN_FLO_2.1
num_layers=2
learning_rate=0.000000
connection_rate=1.000000
network_type=0
learning_momentum=0.000000
training_algorithm=0
train_error_function=0
train_stop_function=0
cascade_output_change_fraction=0.010000
quickprop_decay=-0.000100
quickprop_mu=1.750000
rprop_increase_factor=1.200000
rprop_decrease_factor=0.500000
rprop_delta_min=0.000000
rprop_delta_max=50.000000
rprop_delta_zero=0.100000
cascade_output_stagnation_epochs=12
cascade_candidate_change_fraction=0.010000
cascade_candidate_stagnation_epochs=12
cascade_max_out_epochs=150
cascade_min_out_epochs=50
cascade_max_cand_epochs=150
cascade_min_cand_epochs=50
cascade_num_candidate_groups=2
bit_fail_limit=3.49999994039535522461e-01
cascade_candidate_limit=1.00000000000000000000e+03
cascade_weight_multiplier=4.00000005960464477539e-01
cascade_activation_functions_count=10
cascade_activation_functions=3 5 7 8 10 11 14 15 16 17 
cascade_activation_steepnesses_count=4
cascade_activation_steepnesses=2.50000000000000000000e-01 5.00000000000000000000e-01 7.50000000000000000000e-01 1.00000000000000000000e+00 
layer_sizes=301 3 
scale_included=0
neurons (num_inputs, activation_function, activation_steepness)=(0, 0, 0.00000000000000000000e+00) (0, 0, 0.00000000000000000000e+00) (0, 0, 0.00000000000000000000e+00) (0, 0, 0.00000000000000000000e+00) (0, 0, 0.00000000000000000000e+00) (0, 0, 0.00000000000000000000e+00) (0, 0, 0.00000000000000000000e+00) (0, 0, 0.00000000000000000000e+00) (0, 0, 0.00000000000000000000e+00) (0, 0, 0.00000000000000000000e+00) (0, 0, 0.00000000000000000000e+00) (0, 0, 0.00000000000000000000e+00) (0, 0, 0.00000000000000000000e+00) (0, 0, 0.00000000000000000000e+00) (0, 0, 0.00000000000000000000e+00) (0, 0, 0.00000000000000000000e+00) (0, 0, 0.00000000000000000000e+00) (0, 0, 0.00000000000000000000e+00) (0, 0, 0.00000000000000000000e+00) (0, 0, 0.00000000000000000000e+00) (0, 0, 0.00000000000000000000e+00) (0, 0, 0.00000000000000000000e+00) (0, 0, 0.00000000000000000000e+00) (0, 0, 0.00000000000000000000e+00) (0, 0, 0.00000000000000000000e+00) (0, 0, 0.00000000000000000000e+00) (0, 0, 0.00000000000000000000e+00) (0, 0, 0.00000000000000000000e+00) (0, 0, 0.00000000000000000000e+00) (0, 0, 0.00000000000000000000e+00) (0, 0, 0.00000000000000000000e+00) (0, 0, 0.00000000000000000000e+00) (0, 0, 0.00000000000000000000e+00) (0, 0, 0.00000000000000000000e+00) (0, 0, 0.00000000000000000000e+00) (0, 0, 0.00000000000000000000e+00) (0, 0, 0.00000000000000000000e+00) (0, 0, 0.00000000000000000000e+00) (0, 0, 0.00000000000000000000e+00) (0, 0, 0.00000000000000000000e+00) (0, 0, 0.00000000000000000000e+00) (0, 0, 0.00000000000000000000e+00) (0, 0, 0.00000000000000000000e+00) (0, 0, 0.00000000000000000000e+00) (0, 0, 0.00000000000000000000e+00) (0, 0, 0.00000000000000000000e+00) (0, 0, 0.00000000000000000000e+00) (0, 0, 0.00000000000000000000e+00) (0, 0, 0.00000000000000000000e+00) (0, 0, 0.00000000000000000000e+00) (0, 0, 0.00000000000000000000e+00) (0, 0, 0.00000000000000000000e+00) (0, 0, 0.00000000000000000000e+00) (0, 0, 0.00000000000000000000e+00) (0, 0, 0.00000000000000000000e+00) (0, 0, 0.00000000000000000000e+00) (0, 0, 0.00000000000000000000e+00) (0, 0, 0.00000000000000000000e+00) (0, 0, 0.00000000000000000000e+00) (0, 0, 0.00000000000000000000e+00) (0, 0, 0.00000000000000000000e+00) (0, 0, 0.00000000000000000000e+00) (0, 0, 0.00000000000000000000e+00) (0, 0, 0.00000000000000000000e+00) (0, 0, 0.00000000000000000000e+00) (0, 0, 0.00000000000000000000e+00) (0, 0, 0.00000000000000000000e+00) (0, 0, 0.00000000000000000000e+00) (0, 0, 0.00000000000000000000e+00) (0, 0, 0.00000000000000000000e+00) (0, 0, 0.00000000000000000000e+00) (0, 0, 0.00000000000000000000e+00) (0, 0, 0.00000000000000000000e+00) (0, 0, 0.00000000000000000000e+00) (0, 0, 0.00000000000000000000e+00) (0, 0, 0.00000000000000000000e+00) (0, 0, 0.00000000000000000000e+00) (0, 0, 0.00000000000000000000e+00) (0, 0, 0.00000000000000000000e+00) (0, 0, 0.00000000000000000000e+00) (0, 0, 0.00000000000000000000e+00) (0, 0, 0.00000000000000000000e+00) (0, 0, 0.00000000000000000000e+00) (0, 0, 0.00000000000000000000e+00) (0, 0, 0.00000000000000000000e+00) (0, 0, 0.00000000000000000000e+00) (0, 0, 0.00000000000000000000e+00) (0, 0, 0.00000000000000000000e+00) (0, 0, 0.00000000000000000000e+00) (0, 0, 0.00000000000000000000e+00) (0, 0, 0.00000000000000000000e+00) (0, 0, 0.00000000000000000000e+00) (0, 0, 0.00000000000000000000e+00) (0, 0, 0.00000000000000000000e+00) (0, 0, 0.00000000000000000000e+00) (0, 0, 0.00000000000000000000e+00) (0, 0, 0.00000000000000000000e+00) (0, 0, 0.00000000000000000000e+00) (0, 0, 0.00000000000000000000e+00) (0, 0, 0.00000000000000000000e+00) (0, 0, 0.00000000000000000000e+00) (0, 0, 0.00000000000000000000e+00) (0, 0, 0.00000000000000000000e+00) (0, 0, 0.00000000000000000000e+00) (0, 0, 0.00000000000000000000e+00) (0, 0, 0.00000000000000000000e+00) (0, 0, 0.00000000000000000000e+00) (0, 0, 0.00000000000000000000e+00) (0, 0, 0.00000000000000000000e+00) (0, 0, 0.00000000000000000000e+00) (0, 0, 0.00000000000000000000e+00) (0, 0, 0.00000000000000000000e+00) (0, 0, 0.00000000000000000000e+00) (0, 0, 0.00000000000000000000e+00) (0, 0, 0.00000000000000000000e+00) (0, 0, 0.00000000000000000000e+00) (0, 0, 0.00000000000000000000e+00) (0, 0, 0.00000000000000000000e+00) (0, 0, 0.00000000000000000000e+00) (0, 0, 0.00000000000000000000e+00) (0, 0, 0.00000000000000000000e+00) (0, 0, 0.00000000000000000000e+00) (0, 0, 0.00000000000000000000e+00) (0, 0, 0.00000000000000000000e+00) (0, 0, 0.00000000000000000000e+00) (0, 0, 0.00000000000000000000e+00) (0, 0, 0.00000000000000000000e+00) (0, 0, 0.00000000000000000000e+00) (0, 0, 0.00000000000000000000e+00) (0, 0, 0.00000000000000000000e+00) (0, 0, 0.00000000000000000000e+00) (0, 0, 0.00000000000000000000e+00) (0, 0, 0.00000000000000000000e+00) (0, 0, 0.00000000000000000000e+00) (0, 0, 0.00000000000000000000e+00) (0, 0, 0.00000000000000000000e+00) (0, 0, 0.00000000000000000000e+00) (0, 0, 0.00000000000000000000e+00) (0, 0, 0.00000000000000000000e+00) (0, 0, 0.00000000000000000000e+00) (0, 0, 0.00000000000000000000e+00) (0, 0, 0.00000000000000000000e+00) (0, 0, 0.00000000000000000000e+00) (0, 0, 0.00000000000000000000e+00) (0, 0, 0.00000000000000000000e+00) (0, 0, 0.00000000000000000000e+00) (0, 0, 0.00000000000000000000e+00) (0, 0, 0.00000000000000000000e+00) (0, 0, 0.00000000000000000000e+00) (0, 0, 0.00000000000000000000e+00) (0, 0, 0.00000000000000000000e+00) (0, 0, 0.00000000000000000000e+00) (0, 0, 0.00000000000000000000e+00) (0, 0, 0.00000000000000000000e+00) (0, 0, 0.00000000000000000000e+00) (0, 0, 0.00000000000000000000e+00) (0, 0, 0.00000000000000000000e+00) (0, 0, 0.00000000000000000000e+00) (0, 0, 0.00000000000000000000e+00) (0, 0, 0.00000000000000000000e+00) (0, 0, 0.00000000000000000000e+00) (0, 0, 0.00000000000000000000e+00) (0, 0, 0.00000000000000000000e+00) (0, 0, 0.00000000000000000000e+00) (0, 0, 0.00000000000000000000e+00) (0, 0, 0.00000000000000000000e+00) (0, 0, 0.00000000000000000000e+00) (0, 0, 0.00000000000000000000e+00) (0, 0, 0.00000000000000000000e+00) (0, 0, 0.00000000000000000000e+00) (0, 0, 0.00000000000000000000e+00) (0, 0, 0.00000000000000000000e+00) (0, 0, 0.00000000000000000000e+00) (0, 0, 0.00000000000000000000e+00) (0, 0, 0.00000000000000000000e+00) (0, 0, 0.00000000000000000000e+00) (0, 0, 0.00000000000000000000e+00) (0, 0, 0.00000000000000000000e+00) (0, 0, 0.00000000000000000000e+00) (0, 0, 0.00000000000000000000e+00) (0, 0, 0.00000000000000000000e+00) (0, 0, 0.00000000000000000000e+00) (0, 0, 0.00000000000000000000e+00) (0, 0, 0.00000000000000000000e+00) (0, 0, 0.00000000000000000000e+00) (0, 0, 0.00000000000000000000e+00) (0, 0, 0.00000000000000000000e+00) (0, 0, 0.00000000000000000000e+00) (0, 0, 0.00000000000000000000e+00) (0, 0, 0.00000000000000000000e+00) (0, 0, 0.00000000000000000000e+00) (0, 0, 0.00000000000000000000e+00) (0, 0, 0.00000000000000000000e+00) (0, 0, 0.00000000000000000000e+00) (0, 0, 0.00000000000000000000e+00) (0, 0, 0.00000000000000000000e+00) (0, 0, 0.00000000000000000000e+00) (0, 0, 0.00000000000000000000e+00) (0, 0, 0.00000000000000000000e+00) (0, 0, 0.00000000000000000000e+00) (0, 0, 0.00000000000000000000e+00) (0, 0, 0.00000000000000000000e+00) (0, 0, 0.00000000000000000000e+00) (0, 0, 0.00000000000000000000e+00) (0, 0, 0.00000000000000000000e+00) (0, 0, 0.00000000000000000000e+00) (0, 0, 0.00000000000000000000e+00) (0, 0, 0.00000000000000000000e+00) (0, 0, 0.00000000000000000000e+00) (0, 0, 0.00000000000000000000e+00) (0, 0, 0.00000000000000000000e+00) (0, 0, 0.00000000000000000000e+00) (0, 0, 0.00000000000000000000e+00) (0, 0, 0.00000000000000000000e+00) (0, 0, 0.00000000000000000000e+00) (0, 0, 0.00000000000000000000e+00) (0, 0, 0.00000000000000000000e+00) (0, 0, 0.00000000000000000000e+00) (0, 0, 0.00000000000000000000e+00) (0, 0, 0.00000000000000000000e+00) (0, 0, 0.00000000000000000000e+00) (0, 0, 0.00000000000000000000e+00) (0, 0, 0.00000000000000000000e+00) (0, 0, 0.00000000000000000000e+00) (0, 0, 0.00000000000000000000e+00) (0, 0, 0.00000000000000000000e+00) (0, 0, 0.00000000000000000000e+00) (0, 0, 0.00000000000000000000e+00) (0, 0, 0.00000000000000000000e+00) (0, 0, 0.00000000000000000000e+00) (0, 0, 0.00000000000000000000e+00) (0, 0, 0.00000000000000000000e+00) (0, 0, 0.00000000000000000000e+00) (0, 0, 0.00000000000000000000e+00) (0, 0, 0.00000000000000000000e+00) (0, 0, 0.00000000000000000000e+00) (0, 0, 0.00000000000000000000e+00) (0, 0, 0.00000000000000000000e+00) (0, 0, 0.00000000000000000000e+00) (0, 0, 0.00000000000000000000e+00) (0, 0, 0.00000000000000000000e+00) (0, 0, 0.00000000000000000000e+00) (0, 0, 0.00000000000000000000e+00) (0, 0, 0.00000000000000000000e+00) (0, 0, 0.00000000000000000000e+00) (0, 0, 0.00000000000000000000e+00) (0, 0, 0.00000000000000000000e+00) (0, 0, 0.00000000000000000000e+00) (0, 0, 0.00000000000000000000e+00) (0, 0, 0.00000000000000000000e+00) (0, 0, 0.00000000000000000000e+00) (0, 0, 0.00000000000000000000e+00) (0, 0, 0.00000000000000000000e+00) (0, 0, 0.00000000000000000000e+00) (0, 0, 0.00000000000000000000e+00) (0, 0, 0.00000000000000000000e+00) (0, 0, 0.00000000000000000000e+00) (0, 0, 0.00000000000000000000e+00) (0, 0, 0.00000000000000000000e+00) (0, 0, 0.00000000000000000000e+00) (0, 0, 0.00000000000000000000e+00) (0, 0, 0.00000000000000000000e+00) (0, 0, 0.00000000000000000000e+00) (0, 0, 0.00000000000000000000e+00) (0, 0, 0.00000000000000000000e+00) (0, 0, 0.00000000000000000000e+00) (0, 0, 0.00000000000000000000e+00) (0, 0, 0.00000000000000000000e+00) (0, 0, 0.00000000000000000000e+00) (0, 0, 0.00000000000000000000e+00) (0, 0, 0.00000000000000000000e+00) (0, 0, 0.00000000000000000000e+00) (0, 0, 0.00000000000000000000e+00) (0, 0, 0.00000000000000000000e+00) (0, 0, 0.00000000000000000000e+00) (0, 0, 0.00000000000000000000e+00) (0, 0, 0.00000000000000000000e+00) (0, 0, 0.00000000000000000000e+00) (0, 0, 0.00000000000000000000e+00) (0, 0, 0.00000000000000000000e+00) (0, 0, 0.00000000000000000000e+00) (0, 0, 0.00000000000000000000e+00) (0, 0, 0.00000000000000000000e+00) (0, 0, 0.00000000000000000000e+00) (0, 0, 0.00000000000000000000e+00) (0, 0, 0.00000000000000000000e+00) (0, 0, 0.00000000000000000000e+00) (0, 0, 0.00000000000000000000e+00) (0, 0, 0.00000000000000000000e+00) (0, 0, 0.00000000000000000000e+00) (0, 0, 0.00000000000000000000e+00) (0, 0, 0.00000000000000000000e+00) (0, 0, 0.00000000000000000000e+00) (0, 0, 0.00000000000000000000e+00) (0, 0, 0.00000000000000000000e+00) (0, 0, 0.00000000000000000000e+00) (0, 0, 0.00000000000000000000e+00) (0, 0, 0.00000000000000000000e+00) (0, 0, 0.00000000000000000000e+00) (0, 0, 0.00000000000000000000e+00) (0, 0, 0.00000000000000000000e+00) (301, 5, 5.00000000000000000000e-01) (301, 5, 5.00000000000000000000e-01) (0, 5, 0.00000000000000000000e+00) 
connections (connected_to_neuron, weight)=(0, 0.00000000000000000000e+00) (1, 7.62939453125000000000e-06) (2, 0.00000000000000000000e+00) (3, -4.21006028773263096809e-04) (4, 0.00000000000000000000e+00) (5, 0.00000000000000000000e+00) (6, 0.00000000000000000000e+00) (7, 0.00000000000000000000e+00) (8, 0.00000000000000000000e+00) (9, 0.00000000000000000000e+00) (10, -9.53674316406250000000e-07) (11, 2.28634580707876011729e-05) (12, 0.00000000000000000000e+00) (13, 0.00000000000000000000e+00) (14, -4.21006028773263096809e-04) (15, 0.00000000000000000000e+00) (16, 0.00000000000000000000e+00) (17, 0.00000000000000000000e+00) (18, 0.00000000000000000000e+00) (19, 0.00000000000000000000e+00) (20, -4.71924386147293262184e-06) (21, -1.90734863281250000000e-06) (22, 0.00000000000000000000e+00) (23, 0.00000000000000000000e+00) (24, 0.00000000000000000000e+00) (25, -4.21006028773263096809e-04) (26, 0.00000000000000000000e+00) (27, 0.00000000000000000000e+00) (28, 0.00000000000000000000e+00) (29, 0.00000000000000000000e+00) (30, 1.90734863281250000000e-06) (31, -5.30392844666494056582e-06) (32, 0.00000000000000000000e+00) (33, 0.00000000000000000000e+00) (34, 0.00000000000000000000e+00) (35, 0.00000000000000000000e+00) (36, -4.21006028773263096809e-04) (37, 0.00000000000000000000e+00) (38, 0.00000000000000000000e+00) (39, 0.00000000000000000000e+00) (40, 5.23959124620887450874e-06) (41, 1.52587890625000000000e-05) (42, 0.00000000000000000000e+00) (43, 0.00000000000000000000e+00) (44, 0.00000000000000000000e+00) (45, 0.00000000000000000000e+00) (46, 0.00000000000000000000e+00) (47, -4.21006028773263096809e-04) (48, 0.00000000000000000000e+00) (49, 0.00000000000000000000e+00) (50, 0.00000000000000000000e+00) (51, 0.00000000000000000000e+00) (52, -4.21006028773263096809e-04) (53, 0.00000000000000000000e+00) (54, 0.00000000000000000000e+00) (55, 0.00000000000000000000e+00) (56, 0.00000000000000000000e+00) (57, 0.00000000000000000000e+00) (58, -4.21006028773263096809e-04) (59, 0.00000000000000000000e+00) (60, 0.00000000000000000000e+00) (61, 0.00000000000000000000e+00) (62, -4.21006028773263096809e-04) (63, 0.00000000000000000000e+00) (64, 0.00000000000000000000e+00) (65, 0.00000000000000000000e+00) (66, 0.00000000000000000000e+00) (67, 0.00000000000000000000e+00) (68, 0.00000000000000000000e+00) (69, -4.21006028773263096809e-04) (70, -6.05829018240910954773e-06) (71, -1.43831385912562836893e-07) (72, 0.00000000000000000000e+00) (73, -4.21006028773263096809e-04) (74, 0.00000000000000000000e+00) (75, 0.00000000000000000000e+00) (76, 0.00000000000000000000e+00) (77, 0.00000000000000000000e+00) (78, 0.00000000000000000000e+00) (79, 0.00000000000000000000e+00) (80, 0.00000000000000000000e+00) (81, 9.59992030402645468712e-06) (82, 0.00000000000000000000e+00) (83, 0.00000000000000000000e+00) (84, -4.21006028773263096809e-04) (85, 0.00000000000000000000e+00) (86, 0.00000000000000000000e+00) (87, 0.00000000000000000000e+00) (88, 0.00000000000000000000e+00) (89, 0.00000000000000000000e+00) (90, 0.00000000000000000000e+00) (91, 0.00000000000000000000e+00) (92, -4.21006028773263096809e-04) (93, 0.00000000000000000000e+00) (94, 0.00000000000000000000e+00) (95, -4.21006028773263096809e-04) (96, 0.00000000000000000000e+00) (97, 0.00000000000000000000e+00) (98, 0.00000000000000000000e+00) (99, 0.00000000000000000000e+00) (100, -1.27831599456840194762e-05) (101, -3.86844158128951676190e-06) (102, 0.00000000000000000000e+00) (103, 0.00000000000000000000e+00) (104, 0.00000000000000000000e+00) (105, 0.00000000000000000000e+00) (106, -4.21006028773263096809e-04) (107, 0.00000000000000000000e+00) (108, 0.00000000000000000000e+00) (109, 0.00000000000000000000e+00) (110, -5.38129779670271091163e-06) (111, -1.90734863281250000000e-06) (112, 0.00000000000000000000e+00) (113, 0.00000000000000000000e+00) (114, 0.00000000000000000000e+00) (115, 0.00000000000000000000e+00) (116, 0.00000000000000000000e+00) (117, -4.21006028773263096809e-04) (118, 0.00000000000000000000e+00) (119, 0.00000000000000000000e+00) (120, 0.00000000000000000000e+00) (121, 0.00000000000000000000e+00) (122, -4.21006028773263096809e-04) (123, 0.00000000000000000000e+00) (124, 0.00000000000000000000e+00) (125, 0.00000000000000000000e+00) (126, 0.00000000000000000000e+00) (127, 0.00000000000000000000e+00) (128, -4.21006028773263096809e-04) (129, 0.00000000000000000000e+00) (130, 0.00000000000000000000e+00) (131, 0.00000000000000000000e+00) (132, -4.21006028773263096809e-04) (133, 0.00000000000000000000e+00) (134, 0.00000000000000000000e+00) (135, 0.00000000000000000000e+00) (136, 0.00000000000000000000e+00) (137, 0.00000000000000000000e+00) (138, 0.00000000000000000000e+00) (139, -4.21006028773263096809e-04) (140, 4.71183011541143059731e-06) (141, 1.90734863281250000000e-06) (142, 0.00000000000000000000e+00) (143, -4.21006028773263096809e-04) (144, 0.00000000000000000000e+00) (145, 0.00000000000000000000e+00) (146, 0.00000000000000000000e+00) (147, 0.00000000000000000000e+00) (148, 0.00000000000000000000e+00) (149, 0.00000000000000000000e+00) (150, 3.75656298956528189592e-07) (151, 3.51924427377525717020e-07) (152, 0.00000000000000000000e+00) (153, 0.00000000000000000000e+00) (154, -4.21006028773263096809e-04) (155, 0.00000000000000000000e+00) (156, 0.00000000000000000000e+00) (157, 0.00000000000000000000e+00) (158, 0.00000000000000000000e+00) (159, 0.00000000000000000000e+00) (160, 2.06502818400622345507e-06) (161, -6.09408243690268136561e-06) (162, 0.00000000000000000000e+00) (163, 0.00000000000000000000e+00) (164, 0.00000000000000000000e+00) (165, -4.21006028773263096809e-04) (166, 0.00000000000000000000e+00) (167, 0.00000000000000000000e+00) (168, 0.00000000000000000000e+00) (169, 0.00000000000000000000e+00) (170, -1.90734863281250000000e-06) (171, -9.53674316406250000000e-07) (172, 0.00000000000000000000e+00) (173, 0.00000000000000000000e+00) (174, 0.00000000000000000000e+00) (175, 0.00000000000000000000e+00) (176, -4.21006028773263096809e-04) (177, 0.00000000000000000000e+00) (178, 0.00000000000000000000e+00) (179, 0.00000000000000000000e+00) (180, -2.81728011941595468670e-06) (181, 2.34717549574270378798e-06) (182, 0.00000000000000000000e+00) (183, 0.00000000000000000000e+00) (184, 0.00000000000000000000e+00) (185, 0.00000000000000000000e+00) (186, 0.00000000000000000000e+00) (187, -4.21006028773263096809e-04) (188, 0.00000000000000000000e+00) (189, 0.00000000000000000000e+00) (190, 0.00000000000000000000e+00) (191, 0.00000000000000000000e+00) (192, -4.21006028773263096809e-04) (193, 0.00000000000000000000e+00) (194, 0.00000000000000000000e+00) (195, 0.00000000000000000000e+00) (196, 0.00000000000000000000e+00) (197, 0.00000000000000000000e+00) (198, -4.21006028773263096809e-04) (199, 0.00000000000000000000e+00) (200, 0.00000000000000000000e+00) (201, 0.00000000000000000000e+00) (202, -4.21006028773263096809e-04) (203, 0.00000000000000000000e+00) (204, 0.00000000000000000000e+00) (205, 0.00000000000000000000e+00) (206, 0.00000000000000000000e+00) (207, 0.00000000000000000000e+00) (208, 0.00000000000000000000e+00) (209, -4.21006028773263096809e-04) (210, 0.00000000000000000000e+00) (211, 4.76837158203125000000e-07) (212, 0.00000000000000000000e+00) (213, -4.21006028773263096809e-04) (214, 0.00000000000000000000e+00) (215, 0.00000000000000000000e+00) (216, 0.00000000000000000000e+00) (217, 0.00000000000000000000e+00) (218, 0.00000000000000000000e+00) (219, 0.00000000000000000000e+00) (220, 2.78126299235736951232e-06) (221, 1.00679708339157514274e-05) (222, 0.00000000000000000000e+00) (223, 0.00000000000000000000e+00) (224, -4.21006028773263096809e-04) (225, 0.00000000000000000000e+00) (226, 0.00000000000000000000e+00) (227, 0.00000000000000000000e+00) (228, 0.00000000000000000000e+00) (229, 0.00000000000000000000e+00) (230, 7.62939453125000000000e-06) (231, -3.08264611703634727746e-06) (232, 0.00000000000000000000e+00) (233, 0.00000000000000000000e+00) (234, 0.00000000000000000000e+00) (235, -4.21006028773263096809e-04) (236, 0.00000000000000000000e+00) (237, 0.00000000000000000000e+00) (238, 0.00000000000000000000e+00) (239, 0.00000000000000000000e+00) (240, -2.15891964217007625848e-06) (241, -3.81469726562500000000e-06) (242, 0.00000000000000000000e+00) (243, 0.00000000000000000000e+00) (244, 0.00000000000000000000e+00) (245, 0.00000000000000000000e+00) (246, -4.21006028773263096809e-04) (247, 0.00000000000000000000e+00) (248, 0.00000000000000000000e+00) (249, 0.00000000000000000000e+00) (250, -6.92028322646365268156e-07) (251, 4.98025838169269263744e-06) (252, 0.00000000000000000000e+00) (253, 0.00000000000000000000e+00) (254, 0.00000000000000000000e+00) (255, 0.00000000000000000000e+00) (256, 0.00000000000000000000e+00) (257, -4.21006028773263096809e-04) (258, 0.00000000000000000000e+00) (259, 0.00000000000000000000e+00) (260, 0.00000000000000000000e+00) (261, 0.00000000000000000000e+00) (262, -4.21006028773263096809e-04) (263, 0.00000000000000000000e+00) (264, 0.00000000000000000000e+00) (265, 0.00000000000000000000e+00) (266, 0.00000000000000000000e+00) (267, 0.00000000000000000000e+00) (268, -4.21006028773263096809e-04) (269, 0.00000000000000000000e+00) (270, 0.00000000000000000000e+00) (271, 0.00000000000000000000e+00) (272, -4.21006028773263096809e-04) (273, 0.00000000000000000000e+00) (274, 0.00000000000000000000e+00) (275, 0.00000000000000000000e+00) (276, 0.00000000000000000000e+00) (277, 0.00000000000000000000e+00) (278, 0.00000000000000000000e+00) (279, -4.21006028773263096809e-04) (280, -4.35190167991095222533e-06) (281, -2.82403493656602222472e-06) (282, 0.00000000000000000000e+00) (283, -4.21006028773263096809e-04) (284, 0.00000000000000000000e+00) (285, 0.00000000000000000000e+00) (286, 0.00000000000000000000e+00) (287, 0.00000000000000000000e+00) (288, 0.00000000000000000000e+00) (289, 0.00000000000000000000e+00) (290, 2.11284987017279490829e-06) (291, 5.69466783417738042772e-06) (292, 0.00000000000000000000e+00) (293, 0.00000000000000000000e+00) (294, -4.21006028773263096809e-04) (295, 0.00000000000000000000e+00) (296, 0.00000000000000000000e+00) (297, 0.00000000000000000000e+00) (298, 0.00000000000000000000e+00) (299, 0.00000000000000000000e+00) (300, -4.21006028773263096809e-04) (0, 0.00000000000000000000e+00) (1, 1.52587890625000000000e-05) (2, 0.00000000000000000000e+00) (3, -8.90218710992485284805e-04) (4, 0.00000000000000000000e+00) (5, 0.00000000000000000000e+00) (6, 0.00000000000000000000e+00) (7, 0.00000000000000000000e+00) (8, 0.00000000000000000000e+00) (9, 0.00000000000000000000e+00) (10, -1.90734863281250000000e-06) (11, 4.84972988488152623177e-05) (12, 0.00000000000000000000e+00) (13, 0.00000000000000000000e+00) (14, -8.90218710992485284805e-04) (15, 0.00000000000000000000e+00) (16, 0.00000000000000000000e+00) (17, 0.00000000000000000000e+00) (18, 0.00000000000000000000e+00) (19, 0.00000000000000000000e+00) (20, -9.90071657724911347032e-06) (21, -4.09412223234539851546e-06) (22, 0.00000000000000000000e+00) (23, 0.00000000000000000000e+00) (24, 0.00000000000000000000e+00) (25, -8.90218710992485284805e-04) (26, 0.00000000000000000000e+00) (27, 0.00000000000000000000e+00) (28, 0.00000000000000000000e+00) (29, 0.00000000000000000000e+00) (30, 4.05748869525268673897e-06) (31, -1.11492990981787443161e-05) (32, 0.00000000000000000000e+00) (33, 0.00000000000000000000e+00) (34, 0.00000000000000000000e+00) (35, 0.00000000000000000000e+00) (36, -8.90218710992485284805e-04) (37, 0.00000000000000000000e+00) (38, 0.00000000000000000000e+00) (39, 0.00000000000000000000e+00) (40, 1.10207984107546508312e-05) (41, 3.05258363368920981884e-05) (42, 0.00000000000000000000e+00) (43, 0.00000000000000000000e+00) (44, 0.00000000000000000000e+00) (45, 0.00000000000000000000e+00) (46, 0.00000000000000000000e+00) (47, -8.90218710992485284805e-04) (48, 0.00000000000000000000e+00) (49, 0.00000000000000000000e+00) (50, 0.00000000000000000000e+00) (51, 0.00000000000000000000e+00) (52, -8.90218710992485284805e-04) (53, 0.00000000000000000000e+00) (54, 0.00000000000000000000e+00) (55, 0.00000000000000000000e+00) (56, 0.00000000000000000000e+00) (57, 0.00000000000000000000e+00) (58, -8.90218710992485284805e-04) (59, 0.00000000000000000000e+00) (60, 0.00000000000000000000e+00) (61, 0.00000000000000000000e+00) (62, -8.90218710992485284805e-04) (63, 0.00000000000000000000e+00) (64, 0.00000000000000000000e+00) (65, 0.00000000000000000000e+00) (66, 0.00000000000000000000e+00) (67, 0.00000000000000000000e+00) (68, 0.00000000000000000000e+00) (69, -8.90218710992485284805e-04) (70, -1.27501643873983994126e-05) (71, -2.99341792242557858117e-07) (72, 0.00000000000000000000e+00) (73, -8.90218710992485284805e-04) (74, 0.00000000000000000000e+00) (75, 0.00000000000000000000e+00) (76, 0.00000000000000000000e+00) (77, 0.00000000000000000000e+00) (78, 0.00000000000000000000e+00) (79, 0.00000000000000000000e+00) (80, 0.00000000000000000000e+00) (81, 2.05174819711828604341e-05) (82, 0.00000000000000000000e+00) (83, 0.00000000000000000000e+00) (84, -8.90218710992485284805e-04) (85, 0.00000000000000000000e+00) (86, 0.00000000000000000000e+00) (87, 0.00000000000000000000e+00) (88, 0.00000000000000000000e+00) (89, 0.00000000000000000000e+00) (90, 0.00000000000000000000e+00) (91, 0.00000000000000000000e+00) (92, -8.90218710992485284805e-04) (93, 0.00000000000000000000e+00) (94, 0.00000000000000000000e+00) (95, -8.90218710992485284805e-04) (96, 0.00000000000000000000e+00) (97, 0.00000000000000000000e+00) (98, 0.00000000000000000000e+00) (99, 0.00000000000000000000e+00) (100, -2.68787043751217424870e-05) (101, -8.47720093588577583432e-06) (102, 0.00000000000000000000e+00) (103, 0.00000000000000000000e+00) (104, 0.00000000000000000000e+00) (105, 0.00000000000000000000e+00) (106, -8.90218710992485284805e-04) (107, 0.00000000000000000000e+00) (108, 0.00000000000000000000e+00) (109, 0.00000000000000000000e+00) (110, -1.12785828605410642922e-05) (111, -3.83594897357397712767e-06) (112, 0.00000000000000000000e+00) (113, 0.00000000000000000000e+00) (114, 0.00000000000000000000e+00) (115, 0.00000000000000000000e+00) (116, 0.00000000000000000000e+00) (117, -8.90218710992485284805e-04) (118, 0.00000000000000000000e+00) (119, 0.00000000000000000000e+00) (120, 0.00000000000000000000e+00) (121, 0.00000000000000000000e+00) (122, -8.90218710992485284805e-04) (123, 0.00000000000000000000e+00) (124, 0.00000000000000000000e+00) (125, 0.00000000000000000000e+00) (126, 0.00000000000000000000e+00) (127, 0.00000000000000000000e+00) (128, -8.90218710992485284805e-04) (129, 0.00000000000000000000e+00) (130, 0.00000000000000000000e+00) (131, 0.00000000000000000000e+00) (132, -8.90218710992485284805e-04) (133, 0.00000000000000000000e+00) (134, 0.00000000000000000000e+00) (135, 0.00000000000000000000e+00) (136, 0.00000000000000000000e+00) (137, 0.00000000000000000000e+00) (138, 0.00000000000000000000e+00) (139, -8.90218710992485284805e-04) (140, 9.87042949418537318707e-06) (141, 3.81469726562500000000e-06) (142, 0.00000000000000000000e+00) (143, -8.90218710992485284805e-04) (144, 0.00000000000000000000e+00) (145, 0.00000000000000000000e+00) (146, 0.00000000000000000000e+00) (147, 0.00000000000000000000e+00) (148, 0.00000000000000000000e+00) (149, 0.00000000000000000000e+00) (150, 7.90426724961434956640e-07) (151, 7.43755492749187396839e-07) (152, 0.00000000000000000000e+00) (153, 0.00000000000000000000e+00) (154, -8.90218710992485284805e-04) (155, 0.00000000000000000000e+00) (156, 0.00000000000000000000e+00) (157, 0.00000000000000000000e+00) (158, 0.00000000000000000000e+00) (159, 0.00000000000000000000e+00) (160, 4.38121469414909370244e-06) (161, -1.28268684420618228614e-05) (162, 0.00000000000000000000e+00) (163, 0.00000000000000000000e+00) (164, 0.00000000000000000000e+00) (165, -8.90218710992485284805e-04) (166, 0.00000000000000000000e+00) (167, 0.00000000000000000000e+00) (168, 0.00000000000000000000e+00) (169, 0.00000000000000000000e+00) (170, -3.86741930924472399056e-06) (171, -1.90734863281250000000e-06) (172, 0.00000000000000000000e+00) (173, 0.00000000000000000000e+00) (174, 0.00000000000000000000e+00) (175, 0.00000000000000000000e+00) (176, -8.90218710992485284805e-04) (177, 0.00000000000000000000e+00) (178, 0.00000000000000000000e+00) (179, 0.00000000000000000000e+00) (180, -5.95669280301081016660e-06) (181, 4.90181719214888289571e-06) (182, 0.00000000000000000000e+00) (183, 0.00000000000000000000e+00) (184, 0.00000000000000000000e+00) (185, 0.00000000000000000000e+00) (186, 0.00000000000000000000e+00) (187, -8.90218710992485284805e-04) (188, 0.00000000000000000000e+00) (189, 0.00000000000000000000e+00) (190, 0.00000000000000000000e+00) (191, 0.00000000000000000000e+00) (192, -8.90218710992485284805e-04) (193, 0.00000000000000000000e+00) (194, 0.00000000000000000000e+00) (195, 0.00000000000000000000e+00) (196, 0.00000000000000000000e+00) (197, 0.00000000000000000000e+00) (198, -8.90218710992485284805e-04) (199, 0.00000000000000000000e+00) (200, 0.00000000000000000000e+00) (201, 0.00000000000000000000e+00) (202, -8.90218710992485284805e-04) (203, 0.00000000000000000000e+00) (204, 0.00000000000000000000e+00) (205, 0.00000000000000000000e+00) (206, 0.00000000000000000000e+00) (207, 0.00000000000000000000e+00) (208, 0.00000000000000000000e+00) (209, -8.90218710992485284805e-04) (210, 0.00000000000000000000e+00) (211, 9.53674316406250000000e-07) (212, 0.00000000000000000000e+00) (213, -8.90218710992485284805e-04) (214, 0.00000000000000000000e+00) (215, 0.00000000000000000000e+00) (216, 0.00000000000000000000e+00) (217, 0.00000000000000000000e+00) (218, 0.00000000000000000000e+00) (219, 0.00000000000000000000e+00) (220, 5.83958626521052792668e-06) (221, 2.12873983400641009212e-05) (222, 0.00000000000000000000e+00) (223, 0.00000000000000000000e+00) (224, -8.90218710992485284805e-04) (225, 0.00000000000000000000e+00) (226, 0.00000000000000000000e+00) (227, 0.00000000000000000000e+00) (228, 0.00000000000000000000e+00) (229, 0.00000000000000000000e+00) (230, 1.59755436470732092857e-05) (231, -6.47853357804706320167e-06) (232, 0.00000000000000000000e+00) (233, 0.00000000000000000000e+00) (234, 0.00000000000000000000e+00) (235, -8.90218710992485284805e-04) (236, 0.00000000000000000000e+00) (237, 0.00000000000000000000e+00) (238, 0.00000000000000000000e+00) (239, 0.00000000000000000000e+00) (240, -4.54118708148598670959e-06) (241, -7.62939453125000000000e-06) (242, 0.00000000000000000000e+00) (243, 0.00000000000000000000e+00) (244, 0.00000000000000000000e+00) (245, 0.00000000000000000000e+00) (246, -8.90218710992485284805e-04) (247, 0.00000000000000000000e+00) (248, 0.00000000000000000000e+00) (249, 0.00000000000000000000e+00) (250, -1.45052604239026550204e-06) (251, 1.05604185591801069677e-05) (252, 0.00000000000000000000e+00) (253, 0.00000000000000000000e+00) (254, 0.00000000000000000000e+00) (255, 0.00000000000000000000e+00) (256, 0.00000000000000000000e+00) (257, -8.90218710992485284805e-04) (258, 0.00000000000000000000e+00) (259, 0.00000000000000000000e+00) (260, 0.00000000000000000000e+00) (261, 0.00000000000000000000e+00) (262, -8.90218710992485284805e-04) (263, 0.00000000000000000000e+00) (264, 0.00000000000000000000e+00) (265, 0.00000000000000000000e+00) (266, 0.00000000000000000000e+00) (267, 0.00000000000000000000e+00) (268, -8.90218710992485284805e-04) (269, 0.00000000000000000000e+00) (270, 0.00000000000000000000e+00) (271, 0.00000000000000000000e+00) (272, -8.90218710992485284805e-04) (273, 0.00000000000000000000e+00) (274, 0.00000000000000000000e+00) (275, 0.00000000000000000000e+00) (276, 0.00000000000000000000e+00) (277, 0.00000000000000000000e+00) (278, 0.00000000000000000000e+00) (279, -8.90218710992485284805e-04) (280, -9.14873999136034399271e-06) (281, -5.97830376136698760092e-06) (282, 0.00000000000000000000e+00) (283, -8.90218710992485284805e-04) (284, 0.00000000000000000000e+00) (285, 0.00000000000000000000e+00) (286, 0.00000000000000000000e+00) (287, 0.00000000000000000000e+00) (288, 0.00000000000000000000e+00) (289, 0.00000000000000000000e+00) (290, 4.45297246187692508101e-06) (291, 1.20878185043693520129e-05) (292, 0.00000000000000000000e+00) (293, 0.00000000000000000000e+00) (294, -8.90218710992485284805e-04) (295, 0.00000000000000000000e+00) (296, 0.00000000000000000000e+00) (297, 0.00000000000000000000e+00) (298, 0.00000000000000000000e+00) (299, 0.00000000000000000000e+00) (300, -8.90218710992485284805e-04) 
