FANN_FLO_2.1
num_layers=2
learning_rate=0.700000
connection_rate=1.000000
network_type=0
learning_momentum=0.000000
training_algorithm=2
train_error_function=0
train_stop_function=0
cascade_output_change_fraction=0.010000
quickprop_decay=-0.000100
quickprop_mu=1.750000
rprop_increase_factor=1.200000
rprop_decrease_factor=0.500000
rprop_delta_min=0.000000
rprop_delta_max=50.000000
rprop_delta_zero=0.100000
cascade_output_stagnation_epochs=12
cascade_candidate_change_fraction=0.010000
cascade_candidate_stagnation_epochs=12
cascade_max_out_epochs=150
cascade_min_out_epochs=50
cascade_max_cand_epochs=150
cascade_min_cand_epochs=50
cascade_num_candidate_groups=2
bit_fail_limit=3.49999994039535522461e-01
cascade_candidate_limit=1.00000000000000000000e+03
cascade_weight_multiplier=4.00000005960464477539e-01
cascade_activation_functions_count=10
cascade_activation_functions=3 5 7 8 10 11 14 15 16 17 
cascade_activation_steepnesses_count=4
cascade_activation_steepnesses=2.50000000000000000000e-01 5.00000000000000000000e-01 7.50000000000000000000e-01 1.00000000000000000000e+00 
layer_sizes=301 3 
scale_included=0
neurons (num_inputs, activation_function, activation_steepness)=(0, 0, 0.00000000000000000000e+00) (0, 0, 0.00000000000000000000e+00) (0, 0, 0.00000000000000000000e+00) (0, 0, 0.00000000000000000000e+00) (0, 0, 0.00000000000000000000e+00) (0, 0, 0.00000000000000000000e+00) (0, 0, 0.00000000000000000000e+00) (0, 0, 0.00000000000000000000e+00) (0, 0, 0.00000000000000000000e+00) (0, 0, 0.00000000000000000000e+00) (0, 0, 0.00000000000000000000e+00) (0, 0, 0.00000000000000000000e+00) (0, 0, 0.00000000000000000000e+00) (0, 0, 0.00000000000000000000e+00) (0, 0, 0.00000000000000000000e+00) (0, 0, 0.00000000000000000000e+00) (0, 0, 0.00000000000000000000e+00) (0, 0, 0.00000000000000000000e+00) (0, 0, 0.00000000000000000000e+00) (0, 0, 0.00000000000000000000e+00) (0, 0, 0.00000000000000000000e+00) (0, 0, 0.00000000000000000000e+00) (0, 0, 0.00000000000000000000e+00) (0, 0, 0.00000000000000000000e+00) (0, 0, 0.00000000000000000000e+00) (0, 0, 0.00000000000000000000e+00) (0, 0, 0.00000000000000000000e+00) (0, 0, 0.00000000000000000000e+00) (0, 0, 0.00000000000000000000e+00) (0, 0, 0.00000000000000000000e+00) (0, 0, 0.00000000000000000000e+00) (0, 0, 0.00000000000000000000e+00) (0, 0, 0.00000000000000000000e+00) (0, 0, 0.00000000000000000000e+00) (0, 0, 0.00000000000000000000e+00) (0, 0, 0.00000000000000000000e+00) (0, 0, 0.00000000000000000000e+00) (0, 0, 0.00000000000000000000e+00) (0, 0, 0.00000000000000000000e+00) (0, 0, 0.00000000000000000000e+00) (0, 0, 0.00000000000000000000e+00) (0, 0, 0.00000000000000000000e+00) (0, 0, 0.00000000000000000000e+00) (0, 0, 0.00000000000000000000e+00) (0, 0, 0.00000000000000000000e+00) (0, 0, 0.00000000000000000000e+00) (0, 0, 0.00000000000000000000e+00) (0, 0, 0.00000000000000000000e+00) (0, 0, 0.00000000000000000000e+00) (0, 0, 0.00000000000000000000e+00) (0, 0, 0.00000000000000000000e+00) (0, 0, 0.00000000000000000000e+00) (0, 0, 0.00000000000000000000e+00) (0, 0, 0.00000000000000000000e+00) (0, 0, 0.00000000000000000000e+00) (0, 0, 0.00000000000000000000e+00) (0, 0, 0.00000000000000000000e+00) (0, 0, 0.00000000000000000000e+00) (0, 0, 0.00000000000000000000e+00) (0, 0, 0.00000000000000000000e+00) (0, 0, 0.00000000000000000000e+00) (0, 0, 0.00000000000000000000e+00) (0, 0, 0.00000000000000000000e+00) (0, 0, 0.00000000000000000000e+00) (0, 0, 0.00000000000000000000e+00) (0, 0, 0.00000000000000000000e+00) (0, 0, 0.00000000000000000000e+00) (0, 0, 0.00000000000000000000e+00) (0, 0, 0.00000000000000000000e+00) (0, 0, 0.00000000000000000000e+00) (0, 0, 0.00000000000000000000e+00) (0, 0, 0.00000000000000000000e+00) (0, 0, 0.00000000000000000000e+00) (0, 0, 0.00000000000000000000e+00) (0, 0, 0.00000000000000000000e+00) (0, 0, 0.00000000000000000000e+00) (0, 0, 0.00000000000000000000e+00) (0, 0, 0.00000000000000000000e+00) (0, 0, 0.00000000000000000000e+00) (0, 0, 0.00000000000000000000e+00) (0, 0, 0.00000000000000000000e+00) (0, 0, 0.00000000000000000000e+00) (0, 0, 0.00000000000000000000e+00) (0, 0, 0.00000000000000000000e+00) (0, 0, 0.00000000000000000000e+00) (0, 0, 0.00000000000000000000e+00) (0, 0, 0.00000000000000000000e+00) (0, 0, 0.00000000000000000000e+00) (0, 0, 0.00000000000000000000e+00) (0, 0, 0.00000000000000000000e+00) (0, 0, 0.00000000000000000000e+00) (0, 0, 0.00000000000000000000e+00) (0, 0, 0.00000000000000000000e+00) (0, 0, 0.00000000000000000000e+00) (0, 0, 0.00000000000000000000e+00) (0, 0, 0.00000000000000000000e+00) (0, 0, 0.00000000000000000000e+00) (0, 0, 0.00000000000000000000e+00) (0, 0, 0.00000000000000000000e+00) (0, 0, 0.00000000000000000000e+00) (0, 0, 0.00000000000000000000e+00) (0, 0, 0.00000000000000000000e+00) (0, 0, 0.00000000000000000000e+00) (0, 0, 0.00000000000000000000e+00) (0, 0, 0.00000000000000000000e+00) (0, 0, 0.00000000000000000000e+00) (0, 0, 0.00000000000000000000e+00) (0, 0, 0.00000000000000000000e+00) (0, 0, 0.00000000000000000000e+00) (0, 0, 0.00000000000000000000e+00) (0, 0, 0.00000000000000000000e+00) (0, 0, 0.00000000000000000000e+00) (0, 0, 0.00000000000000000000e+00) (0, 0, 0.00000000000000000000e+00) (0, 0, 0.00000000000000000000e+00) (0, 0, 0.00000000000000000000e+00) (0, 0, 0.00000000000000000000e+00) (0, 0, 0.00000000000000000000e+00) (0, 0, 0.00000000000000000000e+00) (0, 0, 0.00000000000000000000e+00) (0, 0, 0.00000000000000000000e+00) (0, 0, 0.00000000000000000000e+00) (0, 0, 0.00000000000000000000e+00) (0, 0, 0.00000000000000000000e+00) (0, 0, 0.00000000000000000000e+00) (0, 0, 0.00000000000000000000e+00) (0, 0, 0.00000000000000000000e+00) (0, 0, 0.00000000000000000000e+00) (0, 0, 0.00000000000000000000e+00) (0, 0, 0.00000000000000000000e+00) (0, 0, 0.00000000000000000000e+00) (0, 0, 0.00000000000000000000e+00) (0, 0, 0.00000000000000000000e+00) (0, 0, 0.00000000000000000000e+00) (0, 0, 0.00000000000000000000e+00) (0, 0, 0.00000000000000000000e+00) (0, 0, 0.00000000000000000000e+00) (0, 0, 0.00000000000000000000e+00) (0, 0, 0.00000000000000000000e+00) (0, 0, 0.00000000000000000000e+00) (0, 0, 0.00000000000000000000e+00) (0, 0, 0.00000000000000000000e+00) (0, 0, 0.00000000000000000000e+00) (0, 0, 0.00000000000000000000e+00) (0, 0, 0.00000000000000000000e+00) (0, 0, 0.00000000000000000000e+00) (0, 0, 0.00000000000000000000e+00) (0, 0, 0.00000000000000000000e+00) (0, 0, 0.00000000000000000000e+00) (0, 0, 0.00000000000000000000e+00) (0, 0, 0.00000000000000000000e+00) (0, 0, 0.00000000000000000000e+00) (0, 0, 0.00000000000000000000e+00) (0, 0, 0.00000000000000000000e+00) (0, 0, 0.00000000000000000000e+00) (0, 0, 0.00000000000000000000e+00) (0, 0, 0.00000000000000000000e+00) (0, 0, 0.00000000000000000000e+00) (0, 0, 0.00000000000000000000e+00) (0, 0, 0.00000000000000000000e+00) (0, 0, 0.00000000000000000000e+00) (0, 0, 0.00000000000000000000e+00) (0, 0, 0.00000000000000000000e+00) (0, 0, 0.00000000000000000000e+00) (0, 0, 0.00000000000000000000e+00) (0, 0, 0.00000000000000000000e+00) (0, 0, 0.00000000000000000000e+00) (0, 0, 0.00000000000000000000e+00) (0, 0, 0.00000000000000000000e+00) (0, 0, 0.00000000000000000000e+00) (0, 0, 0.00000000000000000000e+00) (0, 0, 0.00000000000000000000e+00) (0, 0, 0.00000000000000000000e+00) (0, 0, 0.00000000000000000000e+00) (0, 0, 0.00000000000000000000e+00) (0, 0, 0.00000000000000000000e+00) (0, 0, 0.00000000000000000000e+00) (0, 0, 0.00000000000000000000e+00) (0, 0, 0.00000000000000000000e+00) (0, 0, 0.00000000000000000000e+00) (0, 0, 0.00000000000000000000e+00) (0, 0, 0.00000000000000000000e+00) (0, 0, 0.00000000000000000000e+00) (0, 0, 0.00000000000000000000e+00) (0, 0, 0.00000000000000000000e+00) (0, 0, 0.00000000000000000000e+00) (0, 0, 0.00000000000000000000e+00) (0, 0, 0.00000000000000000000e+00) (0, 0, 0.00000000000000000000e+00) (0, 0, 0.00000000000000000000e+00) (0, 0, 0.00000000000000000000e+00) (0, 0, 0.00000000000000000000e+00) (0, 0, 0.00000000000000000000e+00) (0, 0, 0.00000000000000000000e+00) (0, 0, 0.00000000000000000000e+00) (0, 0, 0.00000000000000000000e+00) (0, 0, 0.00000000000000000000e+00) (0, 0, 0.00000000000000000000e+00) (0, 0, 0.00000000000000000000e+00) (0, 0, 0.00000000000000000000e+00) (0, 0, 0.00000000000000000000e+00) (0, 0, 0.00000000000000000000e+00) (0, 0, 0.00000000000000000000e+00) (0, 0, 0.00000000000000000000e+00) (0, 0, 0.00000000000000000000e+00) (0, 0, 0.00000000000000000000e+00) (0, 0, 0.00000000000000000000e+00) (0, 0, 0.00000000000000000000e+00) (0, 0, 0.00000000000000000000e+00) (0, 0, 0.00000000000000000000e+00) (0, 0, 0.00000000000000000000e+00) (0, 0, 0.00000000000000000000e+00) (0, 0, 0.00000000000000000000e+00) (0, 0, 0.00000000000000000000e+00) (0, 0, 0.00000000000000000000e+00) (0, 0, 0.00000000000000000000e+00) (0, 0, 0.00000000000000000000e+00) (0, 0, 0.00000000000000000000e+00) (0, 0, 0.00000000000000000000e+00) (0, 0, 0.00000000000000000000e+00) (0, 0, 0.00000000000000000000e+00) (0, 0, 0.00000000000000000000e+00) (0, 0, 0.00000000000000000000e+00) (0, 0, 0.00000000000000000000e+00) (0, 0, 0.00000000000000000000e+00) (0, 0, 0.00000000000000000000e+00) (0, 0, 0.00000000000000000000e+00) (0, 0, 0.00000000000000000000e+00) (0, 0, 0.00000000000000000000e+00) (0, 0, 0.00000000000000000000e+00) (0, 0, 0.00000000000000000000e+00) (0, 0, 0.00000000000000000000e+00) (0, 0, 0.00000000000000000000e+00) (0, 0, 0.00000000000000000000e+00) (0, 0, 0.00000000000000000000e+00) (0, 0, 0.00000000000000000000e+00) (0, 0, 0.00000000000000000000e+00) (0, 0, 0.00000000000000000000e+00) (0, 0, 0.00000000000000000000e+00) (0, 0, 0.00000000000000000000e+00) (0, 0, 0.00000000000000000000e+00) (0, 0, 0.00000000000000000000e+00) (0, 0, 0.00000000000000000000e+00) (0, 0, 0.00000000000000000000e+00) (0, 0, 0.00000000000000000000e+00) (0, 0, 0.00000000000000000000e+00) (0, 0, 0.00000000000000000000e+00) (0, 0, 0.00000000000000000000e+00) (0, 0, 0.00000000000000000000e+00) (0, 0, 0.00000000000000000000e+00) (0, 0, 0.00000000000000000000e+00) (0, 0, 0.00000000000000000000e+00) (0, 0, 0.00000000000000000000e+00) (0, 0, 0.00000000000000000000e+00) (0, 0, 0.00000000000000000000e+00) (0, 0, 0.00000000000000000000e+00) (0, 0, 0.00000000000000000000e+00) (0, 0, 0.00000000000000000000e+00) (0, 0, 0.00000000000000000000e+00) (0, 0, 0.00000000000000000000e+00) (0, 0, 0.00000000000000000000e+00) (0, 0, 0.00000000000000000000e+00) (0, 0, 0.00000000000000000000e+00) (0, 0, 0.00000000000000000000e+00) (0, 0, 0.00000000000000000000e+00) (0, 0, 0.00000000000000000000e+00) (0, 0, 0.00000000000000000000e+00) (0, 0, 0.00000000000000000000e+00) (0, 0, 0.00000000000000000000e+00) (0, 0, 0.00000000000000000000e+00) (0, 0, 0.00000000000000000000e+00) (0, 0, 0.00000000000000000000e+00) (0, 0, 0.00000000000000000000e+00) (0, 0, 0.00000000000000000000e+00) (0, 0, 0.00000000000000000000e+00) (0, 0, 0.00000000000000000000e+00) (0, 0, 0.00000000000000000000e+00) (0, 0, 0.00000000000000000000e+00) (0, 0, 0.00000000000000000000e+00) (0, 0, 0.00000000000000000000e+00) (0, 0, 0.00000000000000000000e+00) (0, 0, 0.00000000000000000000e+00) (0, 0, 0.00000000000000000000e+00) (0, 0, 0.00000000000000000000e+00) (0, 0, 0.00000000000000000000e+00) (0, 0, 0.00000000000000000000e+00) (0, 0, 0.00000000000000000000e+00) (0, 0, 0.00000000000000000000e+00) (0, 0, 0.00000000000000000000e+00) (0, 0, 0.00000000000000000000e+00) (0, 0, 0.00000000000000000000e+00) (0, 0, 0.00000000000000000000e+00) (0, 0, 0.00000000000000000000e+00) (0, 0, 0.00000000000000000000e+00) (0, 0, 0.00000000000000000000e+00) (0, 0, 0.00000000000000000000e+00) (0, 0, 0.00000000000000000000e+00) (0, 0, 0.00000000000000000000e+00) (0, 0, 0.00000000000000000000e+00) (0, 0, 0.00000000000000000000e+00) (0, 0, 0.00000000000000000000e+00) (301, 5, 5.00000000000000000000e-01) (301, 5, 5.00000000000000000000e-01) (0, 5, 0.00000000000000000000e+00) 
connections (connected_to_neuron, weight)=(0, 1.50000000000000000000e+03) (1, -1.39736598357558250427e-02) (2, -2.15167156420648097992e-03) (3, 2.26339115761220455170e-03) (4, 2.33539217151701450348e-03) (5, 2.57132714614272117615e-03) (6, 2.23037321120500564575e-03) (7, 1.64017057977616786957e-03) (8, 2.55137030035257339478e-03) (9, 2.84419278614223003387e-03) (10, -5.84692880511283874512e-02) (11, -2.76049296371638774872e-03) (12, -1.76024870597757399082e-04) (13, 2.84419278614223003387e-03) (14, 2.26339115761220455170e-03) (15, 2.33539217151701450348e-03) (16, 2.57132714614272117615e-03) (17, 2.23037321120500564575e-03) (18, 1.64017057977616786957e-03) (19, 2.55137030035257339478e-03) (20, 8.10756627470254898071e-03) (21, -1.36584155261516571045e-02) (22, 2.22301110625267028809e-03) (23, 2.55137030035257339478e-03) (24, 2.84419278614223003387e-03) (25, 2.26339115761220455170e-03) (26, 2.33539217151701450348e-03) (27, 2.57132714614272117615e-03) (28, 2.23037321120500564575e-03) (29, 1.64017057977616786957e-03) (30, 4.33060713112354278564e-02) (31, 5.09708523750305175781e-02) (32, -2.30775985983200371265e-04) (33, 1.64017057977616786957e-03) (34, 2.55137030035257339478e-03) (35, 2.84419278614223003387e-03) (36, 2.26339115761220455170e-03) (37, 2.33539217151701450348e-03) (38, 2.57132714614272117615e-03) (39, 2.23037321120500564575e-03) (40, 4.18492294847965240479e-02) (41, 7.55899921059608459473e-02) (42, -9.66027844697237014771e-04) (43, 2.23037321120500564575e-03) (44, 1.64017057977616786957e-03) (45, 2.55137030035257339478e-03) (46, 2.84419278614223003387e-03) (47, 2.26339115761220455170e-03) (48, 2.33539217151701450348e-03) (49, 2.57132714614272117615e-03) (50, 9.52172186225652694702e-03) (51, -1.86509881168603897095e-02) (52, -1.40194327104836702347e-03) (53, 2.57132714614272117615e-03) (54, 2.23037321120500564575e-03) (55, 1.64017057977616786957e-03) (56, 2.55137030035257339478e-03) (57, 2.84419278614223003387e-03) (58, 2.26339115761220455170e-03) (59, 2.33539217151701450348e-03) (60, -1.96041166782379150391e-03) (61, -2.33704969286918640137e-02) (62, 3.25393397361040115356e-03) (63, 2.33539217151701450348e-03) (64, 2.57132714614272117615e-03) (65, 2.23037321120500564575e-03) (66, 1.64017057977616786957e-03) (67, 2.55137030035257339478e-03) (68, 2.84419278614223003387e-03) (69, 2.26339115761220455170e-03) (70, 2.83619016408920288086e-02) (71, -8.57994984835386276245e-03) (72, -5.06546581164002418518e-03) (73, 2.26339115761220455170e-03) (74, 2.33539217151701450348e-03) (75, 2.57132714614272117615e-03) (76, 2.23037321120500564575e-03) (77, 1.64017057977616786957e-03) (78, 2.55137030035257339478e-03) (79, 2.84419278614223003387e-03) (80, 3.68752442300319671631e-02) (81, 3.03662638179957866669e-03) (82, 1.11427973024547100067e-03) (83, 2.84419278614223003387e-03) (84, 2.26339115761220455170e-03) (85, 2.33539217151701450348e-03) (86, 2.57132714614272117615e-03) (87, 2.23037321120500564575e-03) (88, 1.64017057977616786957e-03) (89, 2.55137030035257339478e-03) (90, 5.11567108333110809326e-02) (91, 4.39383275806903839111e-02) (92, 8.26845935080200433731e-04) (93, 2.55137030035257339478e-03) (94, 2.84419278614223003387e-03) (95, 2.26339115761220455170e-03) (96, 2.33539217151701450348e-03) (97, 2.57132714614272117615e-03) (98, 2.23037321120500564575e-03) (99, 1.64017057977616786957e-03) (100, -4.22435924410820007324e-02) (101, -1.08021935448050498962e-02) (102, -2.37002503126859664917e-03) (103, 1.64017057977616786957e-03) (104, 2.55137030035257339478e-03) (105, 2.84419278614223003387e-03) (106, 2.26339115761220455170e-03) (107, 2.33539217151701450348e-03) (108, 2.57132714614272117615e-03) (109, 2.23037321120500564575e-03) (110, 1.49287385866045951843e-02) (111, 2.23398972302675247192e-02) (112, -6.31494738627225160599e-04) (113, 2.23037321120500564575e-03) (114, 1.64017057977616786957e-03) (115, 2.55137030035257339478e-03) (116, 2.84419278614223003387e-03) (117, 2.26339115761220455170e-03) (118, 2.33539217151701450348e-03) (119, 2.57132714614272117615e-03) (120, -3.53844799101352691650e-02) (121, -4.57536429166793823242e-02) (122, 2.15247832238674163818e-03) (123, 2.57132714614272117615e-03) (124, 2.23037321120500564575e-03) (125, 1.64017057977616786957e-03) (126, 2.55137030035257339478e-03) (127, 2.84419278614223003387e-03) (128, 2.26339115761220455170e-03) (129, 2.33539217151701450348e-03) (130, 4.36637438833713531494e-02) (131, 2.75173727422952651978e-02) (132, -3.56516125611960887909e-03) (133, 2.33539217151701450348e-03) (134, 2.57132714614272117615e-03) (135, 2.23037321120500564575e-03) (136, 1.64017057977616786957e-03) (137, 2.55137030035257339478e-03) (138, 2.84419278614223003387e-03) (139, 2.26339115761220455170e-03) (140, -4.45505743846297264099e-03) (141, 3.40986587107181549072e-02) (142, -8.05142160970717668533e-04) (143, 2.26339115761220455170e-03) (144, 2.33539217151701450348e-03) (145, 2.57132714614272117615e-03) (146, 2.23037321120500564575e-03) (147, 1.64017057977616786957e-03) (148, 2.55137030035257339478e-03) (149, 2.84419278614223003387e-03) (150, -2.39322502166032791138e-02) (151, -5.27485124766826629639e-02) (152, 1.48687744513154029846e-03) (153, 2.84419278614223003387e-03) (154, 2.26339115761220455170e-03) (155, 2.33539217151701450348e-03) (156, 2.57132714614272117615e-03) (157, 2.23037321120500564575e-03) (158, 1.64017057977616786957e-03) (159, 2.55137030035257339478e-03) (160, 1.21358400210738182068e-02) (161, -1.88692044466733932495e-02) (162, 1.61630136426538228989e-03) (163, 2.55137030035257339478e-03) (164, 2.84419278614223003387e-03) (165, 2.26339115761220455170e-03) (166, 2.33539217151701450348e-03) (167, 2.57132714614272117615e-03) (168, 2.23037321120500564575e-03) (169, 1.64017057977616786957e-03) (170, -3.57389263808727264404e-02) (171, 2.21278015524148941040e-02) (172, -1.86343828681856393814e-03) (173, 1.64017057977616786957e-03) (174, 2.55137030035257339478e-03) (175, 2.84419278614223003387e-03) (176, 2.26339115761220455170e-03) (177, 2.33539217151701450348e-03) (178, 2.57132714614272117615e-03) (179, 2.23037321120500564575e-03) (180, -3.84044498205184936523e-02) (181, -2.76124980300664901733e-02) (182, -1.27585954032838344574e-03) (183, 2.23037321120500564575e-03) (184, 1.64017057977616786957e-03) (185, 2.55137030035257339478e-03) (186, 2.84419278614223003387e-03) (187, 2.26339115761220455170e-03) (188, 2.33539217151701450348e-03) (189, 2.57132714614272117615e-03) (190, -1.01609819103032350540e-03) (191, -2.95897223986685276031e-03) (192, -1.90648727584630250931e-03) (193, 2.57132714614272117615e-03) (194, 2.23037321120500564575e-03) (195, 1.64017057977616786957e-03) (196, 2.55137030035257339478e-03) (197, 2.84419278614223003387e-03) (198, 2.26339115761220455170e-03) (199, 2.33539217151701450348e-03) (200, 5.56052960455417633057e-02) (201, 3.77711467444896697998e-02) (202, 1.99260030058212578297e-04) (203, 2.33539217151701450348e-03) (204, 2.57132714614272117615e-03) (205, 2.23037321120500564575e-03) (206, 1.64017057977616786957e-03) (207, 2.55137030035257339478e-03) (208, 2.84419278614223003387e-03) (209, 2.26339115761220455170e-03) (210, 2.61217169463634490967e-02) (211, 1.98031291365623474121e-02) (212, -4.59413183853030204773e-03) (213, 2.26339115761220455170e-03) (214, 2.33539217151701450348e-03) (215, 2.57132714614272117615e-03) (216, 2.23037321120500564575e-03) (217, 1.64017057977616786957e-03) (218, 2.55137030035257339478e-03) (219, 2.84419278614223003387e-03) (220, 2.22462844103574752808e-02) (221, -4.33193193748593330383e-03) (222, 4.54715592786669731140e-03) (223, 2.84419278614223003387e-03) (224, 2.26339115761220455170e-03) (225, 2.33539217151701450348e-03) (226, 2.57132714614272117615e-03) (227, 2.23037321120500564575e-03) (228, 1.64017057977616786957e-03) (229, 2.55137030035257339478e-03) (230, 3.84030155837535858154e-02) (231, 1.28705929964780807495e-02) (232, 3.11651849187910556793e-03) (233, 2.55137030035257339478e-03) (234, 2.84419278614223003387e-03) (235, 2.26339115761220455170e-03) (236, 2.33539217151701450348e-03) (237, 2.57132714614272117615e-03) (238, 2.23037321120500564575e-03) (239, 1.64017057977616786957e-03) (240, 1.66673529893159866333e-02) (241, -1.28313200548291206360e-02) (242, -2.66383960843086242676e-03) (243, 1.64017057977616786957e-03) (244, 2.55137030035257339478e-03) (245, 2.84419278614223003387e-03) (246, 2.26339115761220455170e-03) (247, 2.33539217151701450348e-03) (248, 2.57132714614272117615e-03) (249, 2.23037321120500564575e-03) (250, -3.70494909584522247314e-02) (251, -2.06833649426698684692e-02) (252, -5.86561916861683130264e-04) (253, 2.23037321120500564575e-03) (254, 1.64017057977616786957e-03) (255, 2.55137030035257339478e-03) (256, 2.84419278614223003387e-03) (257, 2.26339115761220455170e-03) (258, 2.33539217151701450348e-03) (259, 2.57132714614272117615e-03) (260, 2.86862142384052276611e-02) (261, 1.54541935771703720093e-02) (262, 4.39213326899334788322e-04) (263, 2.57132714614272117615e-03) (264, 2.23037321120500564575e-03) (265, 1.64017057977616786957e-03) (266, 2.55137030035257339478e-03) (267, 2.84419278614223003387e-03) (268, 2.26339115761220455170e-03) (269, 2.33539217151701450348e-03) (270, 2.99623385071754455566e-02) (271, -7.13349552825093269348e-03) (272, 1.11960375215858221054e-03) (273, 2.33539217151701450348e-03) (274, 2.57132714614272117615e-03) (275, 2.23037321120500564575e-03) (276, 1.64017057977616786957e-03) (277, 2.55137030035257339478e-03) (278, 2.84419278614223003387e-03) (279, 2.26339115761220455170e-03) (280, -4.06438764184713363647e-03) (281, 4.38019894063472747803e-02) (282, -2.53131496720016002655e-03) (283, 2.26339115761220455170e-03) (284, 2.33539217151701450348e-03) (285, 2.57132714614272117615e-03) (286, 2.23037321120500564575e-03) (287, 1.64017057977616786957e-03) (288, 2.55137030035257339478e-03) (289, 2.84419278614223003387e-03) (290, 1.05819413438439369202e-02) (291, -4.59825135767459869385e-02) (292, -1.29218038637191057205e-03) (293, 2.84419278614223003387e-03) (294, 2.26339115761220455170e-03) (295, 2.33539217151701450348e-03) (296, 2.57132714614272117615e-03) (297, 2.23037321120500564575e-03) (298, 1.64017057977616786957e-03) (299, 2.55137030035257339478e-03) (300, -6.27079457044601440430e-02) (0, 1.50000000000000000000e+03) (1, 1.19497152045369148254e-02) (2, -4.33642696589231491089e-03) (3, 8.75699147582054138184e-03) (4, 8.52196291089057922363e-03) (5, 8.28973203897476196289e-03) (6, 8.58513358980417251587e-03) (7, 8.77776369452476501465e-03) (8, 8.76333471387624740601e-03) (9, 8.37524328380823135376e-03) (10, -6.46383082494139671326e-03) (11, 3.36117460392415523529e-04) (12, 2.86093191243708133698e-03) (13, 8.37524328380823135376e-03) (14, 8.75699147582054138184e-03) (15, 8.52196291089057922363e-03) (16, 8.28973203897476196289e-03) (17, 8.58513358980417251587e-03) (18, 8.77776369452476501465e-03) (19, 8.76333471387624740601e-03) (20, -2.75711808353662490845e-02) (21, -9.41589847207069396973e-03) (22, -2.00059404596686363220e-03) (23, 8.76333471387624740601e-03) (24, 8.37524328380823135376e-03) (25, 8.75699147582054138184e-03) (26, 8.52196291089057922363e-03) (27, 8.28973203897476196289e-03) (28, 8.58513358980417251587e-03) (29, 8.77776369452476501465e-03) (30, -5.06539605557918548584e-02) (31, 4.18819487094879150391e-03) (32, -2.02541681937873363495e-03) (33, 8.77776369452476501465e-03) (34, 8.76333471387624740601e-03) (35, 8.37524328380823135376e-03) (36, 8.75699147582054138184e-03) (37, 8.52196291089057922363e-03) (38, 8.28973203897476196289e-03) (39, 8.58513358980417251587e-03) (40, -4.67430353164672851562e-02) (41, -3.96976470947265625000e-02) (42, 1.52969046030193567276e-03) (43, 8.58513358980417251587e-03) (44, 8.77776369452476501465e-03) (45, 8.76333471387624740601e-03) (46, 8.37524328380823135376e-03) (47, 8.75699147582054138184e-03) (48, 8.52196291089057922363e-03) (49, 8.28973203897476196289e-03) (50, -4.39460650086402893066e-02) (51, -4.34825010597705841064e-02) (52, -1.31319323554635047913e-03) (53, 8.28973203897476196289e-03) (54, 8.58513358980417251587e-03) (55, 8.77776369452476501465e-03) (56, 8.76333471387624740601e-03) (57, 8.37524328380823135376e-03) (58, 8.75699147582054138184e-03) (59, 8.52196291089057922363e-03) (60, -7.10156932473182678223e-02) (61, -1.01010436192154884338e-02) (62, -4.27628308534622192383e-03) (63, 8.52196291089057922363e-03) (64, 8.28973203897476196289e-03) (65, 8.58513358980417251587e-03) (66, 8.77776369452476501465e-03) (67, 8.76333471387624740601e-03) (68, 8.37524328380823135376e-03) (69, 8.75699147582054138184e-03) (70, 1.17947747930884361267e-02) (71, 6.42100498080253601074e-02) (72, 2.20935395918786525726e-03) (73, 8.75699147582054138184e-03) (74, 8.52196291089057922363e-03) (75, 8.28973203897476196289e-03) (76, 8.58513358980417251587e-03) (77, 8.77776369452476501465e-03) (78, 8.76333471387624740601e-03) (79, 8.37524328380823135376e-03) (80, -8.70836824178695678711e-02) (81, 5.22919297218322753906e-02) (82, -1.61292939446866512299e-03) (83, 8.37524328380823135376e-03) (84, 8.75699147582054138184e-03) (85, 8.52196291089057922363e-03) (86, 8.28973203897476196289e-03) (87, 8.58513358980417251587e-03) (88, 8.77776369452476501465e-03) (89, 8.76333471387624740601e-03) (90, -3.21785621345043182373e-02) (91, -5.10711222887039184570e-02) (92, 3.97041119867935776711e-04) (93, 8.76333471387624740601e-03) (94, 8.37524328380823135376e-03) (95, 8.75699147582054138184e-03) (96, 8.52196291089057922363e-03) (97, 8.28973203897476196289e-03) (98, 8.58513358980417251587e-03) (99, 8.77776369452476501465e-03) (100, -4.21239472925662994385e-02) (101, 5.65437264740467071533e-02) (102, 1.32364209275692701340e-03) (103, 8.77776369452476501465e-03) (104, 8.76333471387624740601e-03) (105, 8.37524328380823135376e-03) (106, 8.75699147582054138184e-03) (107, 8.52196291089057922363e-03) (108, 8.28973203897476196289e-03) (109, 8.58513358980417251587e-03) (110, 3.27132688835263252258e-03) (111, 1.37787163257598876953e-02) (112, 4.28817074862308800220e-05) (113, 8.58513358980417251587e-03) (114, 8.77776369452476501465e-03) (115, 8.76333471387624740601e-03) (116, 8.37524328380823135376e-03) (117, 8.75699147582054138184e-03) (118, 8.52196291089057922363e-03) (119, 8.28973203897476196289e-03) (120, 6.26907795667648315430e-02) (121, 5.86748570203781127930e-02) (122, -3.93816921859979629517e-03) (123, 8.28973203897476196289e-03) (124, 8.58513358980417251587e-03) (125, 8.77776369452476501465e-03) (126, 8.76333471387624740601e-03) (127, 8.37524328380823135376e-03) (128, 8.75699147582054138184e-03) (129, 8.52196291089057922363e-03) (130, 4.49533574283123016357e-02) (131, -1.91984232515096664429e-03) (132, 3.66637110710144042969e-03) (133, 8.52196291089057922363e-03) (134, 8.28973203897476196289e-03) (135, 8.58513358980417251587e-03) (136, 8.77776369452476501465e-03) (137, 8.76333471387624740601e-03) (138, 8.37524328380823135376e-03) (139, 8.75699147582054138184e-03) (140, 3.47770564258098602295e-02) (141, -1.46439746022224426270e-02) (142, -4.50586201623082160950e-03) (143, 8.75699147582054138184e-03) (144, 8.52196291089057922363e-03) (145, 8.28973203897476196289e-03) (146, 8.58513358980417251587e-03) (147, 8.77776369452476501465e-03) (148, 8.76333471387624740601e-03) (149, 8.37524328380823135376e-03) (150, 1.10503323376178741455e-02) (151, 2.42442432790994644165e-02) (152, 1.95732718566432595253e-04) (153, 8.37524328380823135376e-03) (154, 8.75699147582054138184e-03) (155, 8.52196291089057922363e-03) (156, 8.28973203897476196289e-03) (157, 8.58513358980417251587e-03) (158, 8.77776369452476501465e-03) (159, 8.76333471387624740601e-03) (160, -9.66962873935699462891e-02) (161, -1.90591290593147277832e-02) (162, -1.86716392636299133301e-03) (163, 8.76333471387624740601e-03) (164, 8.37524328380823135376e-03) (165, 8.75699147582054138184e-03) (166, 8.52196291089057922363e-03) (167, 8.28973203897476196289e-03) (168, 8.58513358980417251587e-03) (169, 8.77776369452476501465e-03) (170, -1.56307145953178405762e-02) (171, 1.01176863536238670349e-02) (172, -1.88732380047440528870e-03) (173, 8.77776369452476501465e-03) (174, 8.76333471387624740601e-03) (175, 8.37524328380823135376e-03) (176, 8.75699147582054138184e-03) (177, 8.52196291089057922363e-03) (178, 8.28973203897476196289e-03) (179, 8.58513358980417251587e-03) (180, 1.86720285564661026001e-02) (181, -9.63847711682319641113e-03) (182, 2.60887830518186092377e-03) (183, 8.58513358980417251587e-03) (184, 8.77776369452476501465e-03) (185, 8.76333471387624740601e-03) (186, 8.37524328380823135376e-03) (187, 8.75699147582054138184e-03) (188, 8.52196291089057922363e-03) (189, 8.28973203897476196289e-03) (190, 4.98268287628889083862e-03) (191, 1.40476948581635951996e-03) (192, -2.66336882486939430237e-03) (193, 8.28973203897476196289e-03) (194, 8.58513358980417251587e-03) (195, 8.77776369452476501465e-03) (196, 8.76333471387624740601e-03) (197, 8.37524328380823135376e-03) (198, 8.75699147582054138184e-03) (199, 8.52196291089057922363e-03) (200, -2.11958829313516616821e-02) (201, 6.97411671280860900879e-02) (202, -1.11482362262904644012e-03) (203, 8.52196291089057922363e-03) (204, 8.28973203897476196289e-03) (205, 8.58513358980417251587e-03) (206, 8.77776369452476501465e-03) (207, 8.76333471387624740601e-03) (208, 8.37524328380823135376e-03) (209, 8.75699147582054138184e-03) (210, 2.14823298156261444092e-02) (211, 4.32999851182103157043e-03) (212, 3.87823139317333698273e-03) (213, 8.75699147582054138184e-03) (214, 8.52196291089057922363e-03) (215, 8.28973203897476196289e-03) (216, 8.58513358980417251587e-03) (217, 8.77776369452476501465e-03) (218, 8.76333471387624740601e-03) (219, 8.37524328380823135376e-03) (220, -1.16296730935573577881e-01) (221, 2.12642326951026916504e-02) (222, -9.48857236653566360474e-03) (223, 8.37524328380823135376e-03) (224, 8.75699147582054138184e-03) (225, 8.52196291089057922363e-03) (226, 8.28973203897476196289e-03) (227, 8.58513358980417251587e-03) (228, 8.77776369452476501465e-03) (229, 8.76333471387624740601e-03) (230, -3.60867194831371307373e-02) (231, 1.07730198651552200317e-02) (232, 5.95684442669153213501e-03) (233, 8.76333471387624740601e-03) (234, 8.37524328380823135376e-03) (235, 8.75699147582054138184e-03) (236, 8.52196291089057922363e-03) (237, 8.28973203897476196289e-03) (238, 8.58513358980417251587e-03) (239, 8.77776369452476501465e-03) (240, -5.99399879574775695801e-02) (241, 1.37248551473021507263e-02) (242, -3.39272525161504745483e-03) (243, 8.77776369452476501465e-03) (244, 8.76333471387624740601e-03) (245, 8.37524328380823135376e-03) (246, 8.75699147582054138184e-03) (247, 8.52196291089057922363e-03) (248, 8.28973203897476196289e-03) (249, 8.58513358980417251587e-03) (250, 4.86026033759117126465e-02) (251, 5.44584654271602630615e-02) (252, 3.25963064096868038177e-03) (253, 8.58513358980417251587e-03) (254, 8.77776369452476501465e-03) (255, 8.76333471387624740601e-03) (256, 8.37524328380823135376e-03) (257, 8.75699147582054138184e-03) (258, 8.52196291089057922363e-03) (259, 8.28973203897476196289e-03) (260, -2.98273768275976181030e-02) (261, 4.76303733885288238525e-02) (262, -2.23589525558054447174e-03) (263, 8.28973203897476196289e-03) (264, 8.58513358980417251587e-03) (265, 8.77776369452476501465e-03) (266, 8.76333471387624740601e-03) (267, 8.37524328380823135376e-03) (268, 8.75699147582054138184e-03) (269, 8.52196291089057922363e-03) (270, 1.86309851706027984619e-02) (271, 2.49934401363134384155e-02) (272, -2.80377338640391826630e-04) (273, 8.52196291089057922363e-03) (274, 8.28973203897476196289e-03) (275, 8.58513358980417251587e-03) (276, 8.77776369452476501465e-03) (277, 8.76333471387624740601e-03) (278, 8.37524328380823135376e-03) (279, 8.75699147582054138184e-03) (280, -2.88401413708925247192e-02) (281, 2.17023342847824096680e-02) (282, 4.87987039377912878990e-04) (283, 8.75699147582054138184e-03) (284, 8.52196291089057922363e-03) (285, 8.28973203897476196289e-03) (286, 8.58513358980417251587e-03) (287, 8.77776369452476501465e-03) (288, 8.76333471387624740601e-03) (289, 8.37524328380823135376e-03) (290, -1.48571044206619262695e-01) (291, 2.59592849761247634888e-02) (292, -8.64205125253647565842e-04) (293, 8.37524328380823135376e-03) (294, 8.75699147582054138184e-03) (295, 8.52196291089057922363e-03) (296, 8.28973203897476196289e-03) (297, 8.58513358980417251587e-03) (298, 8.77776369452476501465e-03) (299, 8.76333471387624740601e-03) (300, -2.50347942113876342773e-01) 
