FANN_FLO_2.1
num_layers=3
learning_rate=0.700000
connection_rate=1.000000
network_type=0
learning_momentum=0.000000
training_algorithm=2
train_error_function=0
train_stop_function=0
cascade_output_change_fraction=0.010000
quickprop_decay=-0.000100
quickprop_mu=1.750000
rprop_increase_factor=1.200000
rprop_decrease_factor=0.500000
rprop_delta_min=0.000000
rprop_delta_max=50.000000
rprop_delta_zero=0.100000
cascade_output_stagnation_epochs=12
cascade_candidate_change_fraction=0.010000
cascade_candidate_stagnation_epochs=12
cascade_max_out_epochs=150
cascade_min_out_epochs=50
cascade_max_cand_epochs=150
cascade_min_cand_epochs=50
cascade_num_candidate_groups=2
bit_fail_limit=3.49999994039535522461e-01
cascade_candidate_limit=1.00000000000000000000e+03
cascade_weight_multiplier=4.00000005960464477539e-01
cascade_activation_functions_count=10
cascade_activation_functions=3 5 7 8 10 11 14 15 16 17 
cascade_activation_steepnesses_count=4
cascade_activation_steepnesses=2.50000000000000000000e-01 5.00000000000000000000e-01 7.50000000000000000000e-01 1.00000000000000000000e+00 
layer_sizes=301 3 3 
scale_included=0
neurons (num_inputs, activation_function, activation_steepness)=(0, 0, 0.00000000000000000000e+00) (0, 0, 0.00000000000000000000e+00) (0, 0, 0.00000000000000000000e+00) (0, 0, 0.00000000000000000000e+00) (0, 0, 0.00000000000000000000e+00) (0, 0, 0.00000000000000000000e+00) (0, 0, 0.00000000000000000000e+00) (0, 0, 0.00000000000000000000e+00) (0, 0, 0.00000000000000000000e+00) (0, 0, 0.00000000000000000000e+00) (0, 0, 0.00000000000000000000e+00) (0, 0, 0.00000000000000000000e+00) (0, 0, 0.00000000000000000000e+00) (0, 0, 0.00000000000000000000e+00) (0, 0, 0.00000000000000000000e+00) (0, 0, 0.00000000000000000000e+00) (0, 0, 0.00000000000000000000e+00) (0, 0, 0.00000000000000000000e+00) (0, 0, 0.00000000000000000000e+00) (0, 0, 0.00000000000000000000e+00) (0, 0, 0.00000000000000000000e+00) (0, 0, 0.00000000000000000000e+00) (0, 0, 0.00000000000000000000e+00) (0, 0, 0.00000000000000000000e+00) (0, 0, 0.00000000000000000000e+00) (0, 0, 0.00000000000000000000e+00) (0, 0, 0.00000000000000000000e+00) (0, 0, 0.00000000000000000000e+00) (0, 0, 0.00000000000000000000e+00) (0, 0, 0.00000000000000000000e+00) (0, 0, 0.00000000000000000000e+00) (0, 0, 0.00000000000000000000e+00) (0, 0, 0.00000000000000000000e+00) (0, 0, 0.00000000000000000000e+00) (0, 0, 0.00000000000000000000e+00) (0, 0, 0.00000000000000000000e+00) (0, 0, 0.00000000000000000000e+00) (0, 0, 0.00000000000000000000e+00) (0, 0, 0.00000000000000000000e+00) (0, 0, 0.00000000000000000000e+00) (0, 0, 0.00000000000000000000e+00) (0, 0, 0.00000000000000000000e+00) (0, 0, 0.00000000000000000000e+00) (0, 0, 0.00000000000000000000e+00) (0, 0, 0.00000000000000000000e+00) (0, 0, 0.00000000000000000000e+00) (0, 0, 0.00000000000000000000e+00) (0, 0, 0.00000000000000000000e+00) (0, 0, 0.00000000000000000000e+00) (0, 0, 0.00000000000000000000e+00) (0, 0, 0.00000000000000000000e+00) (0, 0, 0.00000000000000000000e+00) (0, 0, 0.00000000000000000000e+00) (0, 0, 0.00000000000000000000e+00) (0, 0, 0.00000000000000000000e+00) (0, 0, 0.00000000000000000000e+00) (0, 0, 0.00000000000000000000e+00) (0, 0, 0.00000000000000000000e+00) (0, 0, 0.00000000000000000000e+00) (0, 0, 0.00000000000000000000e+00) (0, 0, 0.00000000000000000000e+00) (0, 0, 0.00000000000000000000e+00) (0, 0, 0.00000000000000000000e+00) (0, 0, 0.00000000000000000000e+00) (0, 0, 0.00000000000000000000e+00) (0, 0, 0.00000000000000000000e+00) (0, 0, 0.00000000000000000000e+00) (0, 0, 0.00000000000000000000e+00) (0, 0, 0.00000000000000000000e+00) (0, 0, 0.00000000000000000000e+00) (0, 0, 0.00000000000000000000e+00) (0, 0, 0.00000000000000000000e+00) (0, 0, 0.00000000000000000000e+00) (0, 0, 0.00000000000000000000e+00) (0, 0, 0.00000000000000000000e+00) (0, 0, 0.00000000000000000000e+00) (0, 0, 0.00000000000000000000e+00) (0, 0, 0.00000000000000000000e+00) (0, 0, 0.00000000000000000000e+00) (0, 0, 0.00000000000000000000e+00) (0, 0, 0.00000000000000000000e+00) (0, 0, 0.00000000000000000000e+00) (0, 0, 0.00000000000000000000e+00) (0, 0, 0.00000000000000000000e+00) (0, 0, 0.00000000000000000000e+00) (0, 0, 0.00000000000000000000e+00) (0, 0, 0.00000000000000000000e+00) (0, 0, 0.00000000000000000000e+00) (0, 0, 0.00000000000000000000e+00) (0, 0, 0.00000000000000000000e+00) (0, 0, 0.00000000000000000000e+00) (0, 0, 0.00000000000000000000e+00) (0, 0, 0.00000000000000000000e+00) (0, 0, 0.00000000000000000000e+00) (0, 0, 0.00000000000000000000e+00) (0, 0, 0.00000000000000000000e+00) (0, 0, 0.00000000000000000000e+00) (0, 0, 0.00000000000000000000e+00) (0, 0, 0.00000000000000000000e+00) (0, 0, 0.00000000000000000000e+00) (0, 0, 0.00000000000000000000e+00) (0, 0, 0.00000000000000000000e+00) (0, 0, 0.00000000000000000000e+00) (0, 0, 0.00000000000000000000e+00) (0, 0, 0.00000000000000000000e+00) (0, 0, 0.00000000000000000000e+00) (0, 0, 0.00000000000000000000e+00) (0, 0, 0.00000000000000000000e+00) (0, 0, 0.00000000000000000000e+00) (0, 0, 0.00000000000000000000e+00) (0, 0, 0.00000000000000000000e+00) (0, 0, 0.00000000000000000000e+00) (0, 0, 0.00000000000000000000e+00) (0, 0, 0.00000000000000000000e+00) (0, 0, 0.00000000000000000000e+00) (0, 0, 0.00000000000000000000e+00) (0, 0, 0.00000000000000000000e+00) (0, 0, 0.00000000000000000000e+00) (0, 0, 0.00000000000000000000e+00) (0, 0, 0.00000000000000000000e+00) (0, 0, 0.00000000000000000000e+00) (0, 0, 0.00000000000000000000e+00) (0, 0, 0.00000000000000000000e+00) (0, 0, 0.00000000000000000000e+00) (0, 0, 0.00000000000000000000e+00) (0, 0, 0.00000000000000000000e+00) (0, 0, 0.00000000000000000000e+00) (0, 0, 0.00000000000000000000e+00) (0, 0, 0.00000000000000000000e+00) (0, 0, 0.00000000000000000000e+00) (0, 0, 0.00000000000000000000e+00) (0, 0, 0.00000000000000000000e+00) (0, 0, 0.00000000000000000000e+00) (0, 0, 0.00000000000000000000e+00) (0, 0, 0.00000000000000000000e+00) (0, 0, 0.00000000000000000000e+00) (0, 0, 0.00000000000000000000e+00) (0, 0, 0.00000000000000000000e+00) (0, 0, 0.00000000000000000000e+00) (0, 0, 0.00000000000000000000e+00) (0, 0, 0.00000000000000000000e+00) (0, 0, 0.00000000000000000000e+00) (0, 0, 0.00000000000000000000e+00) (0, 0, 0.00000000000000000000e+00) (0, 0, 0.00000000000000000000e+00) (0, 0, 0.00000000000000000000e+00) (0, 0, 0.00000000000000000000e+00) (0, 0, 0.00000000000000000000e+00) (0, 0, 0.00000000000000000000e+00) (0, 0, 0.00000000000000000000e+00) (0, 0, 0.00000000000000000000e+00) (0, 0, 0.00000000000000000000e+00) (0, 0, 0.00000000000000000000e+00) (0, 0, 0.00000000000000000000e+00) (0, 0, 0.00000000000000000000e+00) (0, 0, 0.00000000000000000000e+00) (0, 0, 0.00000000000000000000e+00) (0, 0, 0.00000000000000000000e+00) (0, 0, 0.00000000000000000000e+00) (0, 0, 0.00000000000000000000e+00) (0, 0, 0.00000000000000000000e+00) (0, 0, 0.00000000000000000000e+00) (0, 0, 0.00000000000000000000e+00) (0, 0, 0.00000000000000000000e+00) (0, 0, 0.00000000000000000000e+00) (0, 0, 0.00000000000000000000e+00) (0, 0, 0.00000000000000000000e+00) (0, 0, 0.00000000000000000000e+00) (0, 0, 0.00000000000000000000e+00) (0, 0, 0.00000000000000000000e+00) (0, 0, 0.00000000000000000000e+00) (0, 0, 0.00000000000000000000e+00) (0, 0, 0.00000000000000000000e+00) (0, 0, 0.00000000000000000000e+00) (0, 0, 0.00000000000000000000e+00) (0, 0, 0.00000000000000000000e+00) (0, 0, 0.00000000000000000000e+00) (0, 0, 0.00000000000000000000e+00) (0, 0, 0.00000000000000000000e+00) (0, 0, 0.00000000000000000000e+00) (0, 0, 0.00000000000000000000e+00) (0, 0, 0.00000000000000000000e+00) (0, 0, 0.00000000000000000000e+00) (0, 0, 0.00000000000000000000e+00) (0, 0, 0.00000000000000000000e+00) (0, 0, 0.00000000000000000000e+00) (0, 0, 0.00000000000000000000e+00) (0, 0, 0.00000000000000000000e+00) (0, 0, 0.00000000000000000000e+00) (0, 0, 0.00000000000000000000e+00) (0, 0, 0.00000000000000000000e+00) (0, 0, 0.00000000000000000000e+00) (0, 0, 0.00000000000000000000e+00) (0, 0, 0.00000000000000000000e+00) (0, 0, 0.00000000000000000000e+00) (0, 0, 0.00000000000000000000e+00) (0, 0, 0.00000000000000000000e+00) (0, 0, 0.00000000000000000000e+00) (0, 0, 0.00000000000000000000e+00) (0, 0, 0.00000000000000000000e+00) (0, 0, 0.00000000000000000000e+00) (0, 0, 0.00000000000000000000e+00) (0, 0, 0.00000000000000000000e+00) (0, 0, 0.00000000000000000000e+00) (0, 0, 0.00000000000000000000e+00) (0, 0, 0.00000000000000000000e+00) (0, 0, 0.00000000000000000000e+00) (0, 0, 0.00000000000000000000e+00) (0, 0, 0.00000000000000000000e+00) (0, 0, 0.00000000000000000000e+00) (0, 0, 0.00000000000000000000e+00) (0, 0, 0.00000000000000000000e+00) (0, 0, 0.00000000000000000000e+00) (0, 0, 0.00000000000000000000e+00) (0, 0, 0.00000000000000000000e+00) (0, 0, 0.00000000000000000000e+00) (0, 0, 0.00000000000000000000e+00) (0, 0, 0.00000000000000000000e+00) (0, 0, 0.00000000000000000000e+00) (0, 0, 0.00000000000000000000e+00) (0, 0, 0.00000000000000000000e+00) (0, 0, 0.00000000000000000000e+00) (0, 0, 0.00000000000000000000e+00) (0, 0, 0.00000000000000000000e+00) (0, 0, 0.00000000000000000000e+00) (0, 0, 0.00000000000000000000e+00) (0, 0, 0.00000000000000000000e+00) (0, 0, 0.00000000000000000000e+00) (0, 0, 0.00000000000000000000e+00) (0, 0, 0.00000000000000000000e+00) (0, 0, 0.00000000000000000000e+00) (0, 0, 0.00000000000000000000e+00) (0, 0, 0.00000000000000000000e+00) (0, 0, 0.00000000000000000000e+00) (0, 0, 0.00000000000000000000e+00) (0, 0, 0.00000000000000000000e+00) (0, 0, 0.00000000000000000000e+00) (0, 0, 0.00000000000000000000e+00) (0, 0, 0.00000000000000000000e+00) (0, 0, 0.00000000000000000000e+00) (0, 0, 0.00000000000000000000e+00) (0, 0, 0.00000000000000000000e+00) (0, 0, 0.00000000000000000000e+00) (0, 0, 0.00000000000000000000e+00) (0, 0, 0.00000000000000000000e+00) (0, 0, 0.00000000000000000000e+00) (0, 0, 0.00000000000000000000e+00) (0, 0, 0.00000000000000000000e+00) (0, 0, 0.00000000000000000000e+00) (0, 0, 0.00000000000000000000e+00) (0, 0, 0.00000000000000000000e+00) (0, 0, 0.00000000000000000000e+00) (0, 0, 0.00000000000000000000e+00) (0, 0, 0.00000000000000000000e+00) (0, 0, 0.00000000000000000000e+00) (0, 0, 0.00000000000000000000e+00) (0, 0, 0.00000000000000000000e+00) (0, 0, 0.00000000000000000000e+00) (0, 0, 0.00000000000000000000e+00) (0, 0, 0.00000000000000000000e+00) (0, 0, 0.00000000000000000000e+00) (0, 0, 0.00000000000000000000e+00) (0, 0, 0.00000000000000000000e+00) (0, 0, 0.00000000000000000000e+00) (0, 0, 0.00000000000000000000e+00) (0, 0, 0.00000000000000000000e+00) (0, 0, 0.00000000000000000000e+00) (0, 0, 0.00000000000000000000e+00) (0, 0, 0.00000000000000000000e+00) (0, 0, 0.00000000000000000000e+00) (0, 0, 0.00000000000000000000e+00) (0, 0, 0.00000000000000000000e+00) (0, 0, 0.00000000000000000000e+00) (0, 0, 0.00000000000000000000e+00) (0, 0, 0.00000000000000000000e+00) (0, 0, 0.00000000000000000000e+00) (0, 0, 0.00000000000000000000e+00) (0, 0, 0.00000000000000000000e+00) (0, 0, 0.00000000000000000000e+00) (0, 0, 0.00000000000000000000e+00) (0, 0, 0.00000000000000000000e+00) (0, 0, 0.00000000000000000000e+00) (0, 0, 0.00000000000000000000e+00) (0, 0, 0.00000000000000000000e+00) (0, 0, 0.00000000000000000000e+00) (0, 0, 0.00000000000000000000e+00) (0, 0, 0.00000000000000000000e+00) (0, 0, 0.00000000000000000000e+00) (0, 0, 0.00000000000000000000e+00) (0, 0, 0.00000000000000000000e+00) (0, 0, 0.00000000000000000000e+00) (0, 0, 0.00000000000000000000e+00) (0, 0, 0.00000000000000000000e+00) (0, 0, 0.00000000000000000000e+00) (0, 0, 0.00000000000000000000e+00) (0, 0, 0.00000000000000000000e+00) (0, 0, 0.00000000000000000000e+00) (0, 0, 0.00000000000000000000e+00) (0, 0, 0.00000000000000000000e+00) (0, 0, 0.00000000000000000000e+00) (0, 0, 0.00000000000000000000e+00) (301, 5, 5.00000000000000000000e-01) (301, 5, 5.00000000000000000000e-01) (0, 5, 0.00000000000000000000e+00) (3, 5, 5.00000000000000000000e-01) (3, 5, 5.00000000000000000000e-01) (0, 5, 0.00000000000000000000e+00) 
connections (connected_to_neuron, weight)=(0, 1.50000000000000000000e+03) (1, 9.64476699829101562500e+01) (2, -1.12152614593505859375e+01) (3, -5.61279153823852539062e+00) (4, -6.82692718505859375000e+00) (5, -2.06718719482421875000e+02) (6, 1.50000000000000000000e+03) (7, 1.50000000000000000000e+03) (8, -2.05904251098632812500e+02) (9, -5.48419094085693359375e+00) (10, 1.23585052490234375000e+02) (11, 4.52087783813476562500e+01) (12, 1.50000000000000000000e+03) (13, -5.61936378479003906250e+00) (14, -6.11509990692138671875e+00) (15, -6.74243545532226562500e+00) (16, -2.07296051025390625000e+02) (17, 1.50000000000000000000e+03) (18, 1.50000000000000000000e+03) (19, -2.05660995483398437500e+02) (20, 2.96184406280517578125e+01) (21, 4.33913078308105468750e+01) (22, 1.50000000000000000000e+03) (23, -2.05931411743164062500e+02) (24, -5.26312732696533203125e+00) (25, -5.93209791183471679688e+00) (26, -6.21128177642822265625e+00) (27, -2.07279602050781250000e+02) (28, 1.50000000000000000000e+03) (29, 1.50000000000000000000e+03) (30, -2.11611129760742187500e+02) (31, -2.22212448120117187500e+02) (32, 1.50000000000000000000e+03) (33, 1.50000000000000000000e+03) (34, -2.06396987915039062500e+02) (35, -5.81266164779663085938e+00) (36, -5.72668933868408203125e+00) (37, -6.18262481689453125000e+00) (38, -2.06670196533203125000e+02) (39, 1.50000000000000000000e+03) (40, -1.08814476013183593750e+02) (41, -1.82306472778320312500e+02) (42, -8.45636653900146484375e+00) (43, 1.50000000000000000000e+03) (44, 1.50000000000000000000e+03) (45, -2.05940383911132812500e+02) (46, -5.67291545867919921875e+00) (47, -6.19238185882568359375e+00) (48, -6.35723304748535156250e+00) (49, -2.07065673828125000000e+02) (50, -1.03148521423339843750e+02) (51, 5.43752937316894531250e+01) (52, -1.30292894318699836731e-02) (53, -2.06925079345703125000e+02) (54, 1.50000000000000000000e+03) (55, 1.50000000000000000000e+03) (56, -2.06451263427734375000e+02) (57, -5.90338754653930664062e+00) (58, -5.91736936569213867188e+00) (59, -6.59753322601318359375e+00) (60, 5.44116439819335937500e+01) (61, 1.47290954589843750000e+02) (62, -1.12750453948974609375e+01) (63, -6.54167652130126953125e+00) (64, -2.06538574218750000000e+02) (65, 1.50000000000000000000e+03) (66, 1.50000000000000000000e+03) (67, -2.05859344482421875000e+02) (68, -5.69665575027465820312e+00) (69, -5.89918756484985351562e+00) (70, -5.78066825866699218750e+01) (71, 5.41444702148437500000e+01) (72, -1.74020439386367797852e-01) (73, -5.88497352600097656250e+00) (74, -6.55322170257568359375e+00) (75, -2.07178619384765625000e+02) (76, 1.50000000000000000000e+03) (77, 1.50000000000000000000e+03) (78, -2.06115356445312500000e+02) (79, -5.38343954086303710938e+00) (80, -3.03372917175292968750e+01) (81, 1.45660400390625000000e+02) (82, 1.50000000000000000000e+03) (83, -5.52055263519287109375e+00) (84, -6.20761156082153320312e+00) (85, -6.79058361053466796875e+00) (86, -2.07285003662109375000e+02) (87, 1.50000000000000000000e+03) (88, 1.50000000000000000000e+03) (89, -2.05946746826171875000e+02) (90, -1.13455841064453125000e+02) (91, -1.76866165161132812500e+02) (92, 1.50000000000000000000e+03) (93, -2.06393951416015625000e+02) (94, -5.41270637512207031250e+00) (95, -5.83099699020385742188e+00) (96, -6.19296550750732421875e+00) (97, -2.06918670654296875000e+02) (98, 1.50000000000000000000e+03) (99, 1.50000000000000000000e+03) (100, 1.43180572509765625000e+02) (101, 1.35581207275390625000e+02) (102, 1.50000000000000000000e+03) (103, 1.50000000000000000000e+03) (104, -2.06321899414062500000e+02) (105, -5.53641128540039062500e+00) (106, -5.98846006393432617188e+00) (107, -6.48279571533203125000e+00) (108, -2.06914184570312500000e+02) (109, 1.50000000000000000000e+03) (110, 8.32192230224609375000e+00) (111, 2.99692001342773437500e+01) (112, -6.04040479660034179688e+00) (113, 1.50000000000000000000e+03) (114, 1.50000000000000000000e+03) (115, -2.05837066650390625000e+02) (116, -6.07582616806030273438e+00) (117, -5.87288331985473632812e+00) (118, -6.83148479461669921875e+00) (119, -2.07071716308593750000e+02) (120, 3.59135589599609375000e+02) (121, 2.57783752441406250000e+02) (122, -5.27533006668090820312e+00) (123, -2.06610778808593750000e+02) (124, 1.50000000000000000000e+03) (125, 1.50000000000000000000e+03) (126, -2.06035873413085937500e+02) (127, -5.63147878646850585938e+00) (128, -6.25642108917236328125e+00) (129, -6.06174564361572265625e+00) (130, -1.05794631958007812500e+02) (131, -2.61912841796875000000e+02) (132, 6.40663981437683105469e-01) (133, -6.76356029510498046875e+00) (134, -2.06976959228515625000e+02) (135, 1.50000000000000000000e+03) (136, 1.50000000000000000000e+03) (137, -2.05709777832031250000e+02) (138, -5.88838338851928710938e+00) (139, -6.08880090713500976562e+00) (140, 4.56004211425781250000e+02) (141, -1.96448577880859375000e+02) (142, -1.48433866500854492188e+01) (143, -6.01246881484985351562e+00) (144, -6.44942378997802734375e+00) (145, -2.06850128173828125000e+02) (146, 1.50000000000000000000e+03) (147, 1.50000000000000000000e+03) (148, -2.06317077636718750000e+02) (149, -5.88186740875244140625e+00) (150, 9.78750686645507812500e+01) (151, 2.35900741577148437500e+02) (152, 1.50000000000000000000e+03) (153, -5.52641105651855468750e+00) (154, -6.06128931045532226562e+00) (155, -6.31927585601806640625e+00) (156, -2.07141143798828125000e+02) (157, 1.50000000000000000000e+03) (158, 1.50000000000000000000e+03) (159, -2.06141921997070312500e+02) (160, -7.17336883544921875000e+01) (161, 9.64691619873046875000e+01) (162, 1.50000000000000000000e+03) (163, -2.06112792968750000000e+02) (164, -5.96551179885864257812e+00) (165, -6.25131654739379882812e+00) (166, -6.65307807922363281250e+00) (167, -2.06567413330078125000e+02) (168, 1.50000000000000000000e+03) (169, 1.50000000000000000000e+03) (170, 1.18330444335937500000e+02) (171, -2.08487720489501953125e+01) (172, 1.50000000000000000000e+03) (173, 1.50000000000000000000e+03) (174, -2.06193771362304687500e+02) (175, -5.62588977813720703125e+00) (176, -6.32799005508422851562e+00) (177, -6.37884807586669921875e+00) (178, -2.07302764892578125000e+02) (179, 1.50000000000000000000e+03) (180, 4.24160552978515625000e+02) (181, 2.04173782348632812500e+02) (182, 3.51193714141845703125e+00) (183, 1.50000000000000000000e+03) (184, 1.50000000000000000000e+03) (185, -2.06399963378906250000e+02) (186, -5.78128957748413085938e+00) (187, -5.57892656326293945312e+00) (188, -6.83266448974609375000e+00) (189, -2.06883666992187500000e+02) (190, 5.53615074157714843750e+01) (191, 8.04784088134765625000e+01) (192, 3.37238860130310058594e+00) (193, -2.07343658447265625000e+02) (194, 1.50000000000000000000e+03) (195, 1.50000000000000000000e+03) (196, -2.06339355468750000000e+02) (197, -5.56381416320800781250e+00) (198, -5.75113391876220703125e+00) (199, -6.63599395751953125000e+00) (200, -1.19802581787109375000e+02) (201, -6.28094253540039062500e+01) (202, -9.36343193054199218750e+00) (203, -6.69130325317382812500e+00) (204, -2.06978027343750000000e+02) (205, 1.50000000000000000000e+03) (206, 1.50000000000000000000e+03) (207, -2.06050399780273437500e+02) (208, -5.97493743896484375000e+00) (209, -5.64491462707519531250e+00) (210, -1.27594078063964843750e+02) (211, -2.45753448486328125000e+02) (212, 1.97876781225204467773e-01) (213, -5.90413618087768554688e+00) (214, -6.25752067565917968750e+00) (215, -2.06949920654296875000e+02) (216, 1.50000000000000000000e+03) (217, 1.50000000000000000000e+03) (218, -2.06122924804687500000e+02) (219, -5.48791122436523437500e+00) (220, -5.83816146850585937500e+01) (221, -5.07664260864257812500e+01) (222, -8.96402931213378906250e+00) (223, -5.84451198577880859375e+00) (224, -5.65151500701904296875e+00) (225, -6.85033321380615234375e+00) (226, -2.07305206298828125000e+02) (227, 1.50000000000000000000e+03) (228, 1.50000000000000000000e+03) (229, -2.05800720214843750000e+02) (230, -6.07519645690917968750e+01) (231, 1.50142349243164062500e+02) (232, 1.50000000000000000000e+03) (233, -2.06049682617187500000e+02) (234, -6.09110975265502929688e+00) (235, -6.09395360946655273438e+00) (236, -6.78045654296875000000e+00) (237, -2.06710235595703125000e+02) (238, 1.50000000000000000000e+03) (239, 1.50000000000000000000e+03) (240, -4.89935379028320312500e+01) (241, 1.98251663208007812500e+02) (242, 1.50000000000000000000e+03) (243, 1.50000000000000000000e+03) (244, -2.06300842285156250000e+02) (245, -5.27925157546997070312e+00) (246, -6.37660264968872070312e+00) (247, -6.09077072143554687500e+00) (248, -2.07319396972656250000e+02) (249, 1.50000000000000000000e+03) (250, 2.89525817871093750000e+02) (251, 1.81789001464843750000e+02) (252, -1.19197046756744384766e+00) (253, 1.50000000000000000000e+03) (254, 1.50000000000000000000e+03) (255, -2.06401412963867187500e+02) (256, -5.83943748474121093750e+00) (257, -6.25295925140380859375e+00) (258, -6.72781753540039062500e+00) (259, -2.06555511474609375000e+02) (260, 7.52325773239135742188e+00) (261, 3.28700065612792968750e+01) (262, -4.56698608398437500000e+00) (263, -2.06668334960937500000e+02) (264, 1.50000000000000000000e+03) (265, 1.50000000000000000000e+03) (266, -2.06356369018554687500e+02) (267, -5.99117422103881835938e+00) (268, -5.88924169540405273438e+00) (269, -6.83626461029052734375e+00) (270, -2.69231758117675781250e+01) (271, 1.18748483657836914062e+01) (272, -5.34786796569824218750e+00) (273, -6.32815170288085937500e+00) (274, -2.06763885498046875000e+02) (275, 1.50000000000000000000e+03) (276, 1.50000000000000000000e+03) (277, -2.05884857177734375000e+02) (278, -5.35988283157348632812e+00) (279, -5.80145740509033203125e+00) (280, 1.83193161010742187500e+02) (281, -3.34435180664062500000e+02) (282, 9.61409658193588256836e-02) (283, -6.00427913665771484375e+00) (284, -6.18693733215332031250e+00) (285, -2.06958557128906250000e+02) (286, 1.50000000000000000000e+03) (287, 1.50000000000000000000e+03) (288, -2.05955886840820312500e+02) (289, -5.48465156555175781250e+00) (290, -2.92834067344665527344e+00) (291, 1.35543853759765625000e+02) (292, 1.50000000000000000000e+03) (293, -5.37359762191772460938e+00) (294, -5.99170160293579101562e+00) (295, -6.66045856475830078125e+00) (296, -2.06829589843750000000e+02) (297, 1.50000000000000000000e+03) (298, 1.50000000000000000000e+03) (299, -2.06312911987304687500e+02) (300, 2.42917785644531250000e+02) (0, 1.50000000000000000000e+03) (1, -3.19976623535156250000e+02) (2, -1.50000000000000000000e+03) (3, -1.50000000000000000000e+03) (4, 1.55483853816986083984e+00) (5, -1.50000000000000000000e+03) (6, 2.58841037750244140625e-01) (7, 6.05786979198455810547e-01) (8, 1.99605926513671875000e+02) (9, -1.50000000000000000000e+03) (10, 8.58184204101562500000e+01) (11, 8.33266540527343750000e+02) (12, -3.83219748735427856445e-01) (13, -1.50000000000000000000e+03) (14, -1.50000000000000000000e+03) (15, 1.93755137920379638672e+00) (16, -1.50000000000000000000e+03) (17, 8.04506540298461914062e-01) (18, 6.77616298198699951172e-02) (19, 2.00107086181640625000e+02) (20, 2.20581497192382812500e+02) (21, -1.50000000000000000000e+03) (22, -5.30667304992675781250e-01) (23, 1.99930725097656250000e+02) (24, -1.50000000000000000000e+03) (25, -1.50000000000000000000e+03) (26, 1.61793863773345947266e+00) (27, -1.50000000000000000000e+03) (28, 8.04704368114471435547e-01) (29, 2.40841850638389587402e-01) (30, -1.50000000000000000000e+03) (31, 3.68824432373046875000e+02) (32, -4.80558891296386718750e+01) (33, -1.37001171708106994629e-01) (34, 2.00128662109375000000e+02) (35, -1.50000000000000000000e+03) (36, -1.50000000000000000000e+03) (37, 2.12938570976257324219e+00) (38, -1.50000000000000000000e+03) (39, 7.51447021961212158203e-01) (40, -7.57161437988281250000e+02) (41, -7.67865905761718750000e+01) (42, -3.13595741987228393555e-01) (43, 8.22321474552154541016e-01) (44, 3.55332314968109130859e-01) (45, 2.00164062500000000000e+02) (46, -1.50000000000000000000e+03) (47, -1.50000000000000000000e+03) (48, 1.86074388027191162109e+00) (49, -1.50000000000000000000e+03) (50, -6.57257995605468750000e+02) (51, -2.95248962402343750000e+02) (52, -2.50304579734802246094e+00) (53, -1.50000000000000000000e+03) (54, 9.95672523975372314453e-01) (55, 5.26592969894409179688e-01) (56, 2.00109100341796875000e+02) (57, -1.50000000000000000000e+03) (58, -1.50000000000000000000e+03) (59, 1.80599153041839599609e+00) (60, -4.78192718505859375000e+02) (61, -5.45786895751953125000e+01) (62, -1.50000000000000000000e+03) (63, 1.85898053646087646484e+00) (64, -1.50000000000000000000e+03) (65, 8.70515704154968261719e-01) (66, 3.78657877445220947266e-01) (67, 2.00123168945312500000e+02) (68, -1.50000000000000000000e+03) (69, -1.50000000000000000000e+03) (70, -4.27812377929687500000e+02) (71, 1.02589063644409179688e+01) (72, 1.68264675140380859375e+00) (73, -1.50000000000000000000e+03) (74, 2.09903812408447265625e+00) (75, -1.50000000000000000000e+03) (76, 7.87168443202972412109e-01) (77, -5.75536936521530151367e-02) (78, 1.99443511962890625000e+02) (79, -1.50000000000000000000e+03) (80, -1.50000000000000000000e+03) (81, 6.49072570800781250000e+02) (82, 1.50603742599487304688e+01) (83, -1.50000000000000000000e+03) (84, -1.50000000000000000000e+03) (85, 1.69263327121734619141e+00) (86, -1.50000000000000000000e+03) (87, 9.91624951362609863281e-01) (88, 2.39485606551170349121e-01) (89, 2.00063812255859375000e+02) (90, -1.50000000000000000000e+03) (91, -1.50000000000000000000e+03) (92, 5.80609626770019531250e+01) (93, 1.99631408691406250000e+02) (94, -1.50000000000000000000e+03) (95, -1.50000000000000000000e+03) (96, 2.24379611015319824219e+00) (97, -1.50000000000000000000e+03) (98, 6.43067002296447753906e-01) (99, 3.27234089374542236328e-01) (100, -7.63857360839843750000e+02) (101, 8.34898223876953125000e+01) (102, 2.73353748321533203125e+01) (103, 3.67809653282165527344e-01) (104, 1.99974578857421875000e+02) (105, -1.50000000000000000000e+03) (106, -1.50000000000000000000e+03) (107, 1.65393769741058349609e+00) (108, -1.50000000000000000000e+03) (109, 1.08774852752685546875e+00) (110, 6.11160507202148437500e+01) (111, -2.50404708862304687500e+02) (112, -2.55172371864318847656e+00) (113, 1.02869927883148193359e+00) (114, 2.78743088245391845703e-01) (115, 1.99919067382812500000e+02) (116, -1.50000000000000000000e+03) (117, -1.50000000000000000000e+03) (118, 1.80288159847259521484e+00) (119, -1.50000000000000000000e+03) (120, -1.11838130950927734375e+01) (121, 5.01470092773437500000e+02) (122, -1.45697708129882812500e+02) (123, -1.50000000000000000000e+03) (124, 3.04257303476333618164e-01) (125, 2.03300490975379943848e-01) (126, 1.99485015869140625000e+02) (127, -1.50000000000000000000e+03) (128, -1.50000000000000000000e+03) (129, 1.86997663974761962891e+00) (130, 3.23059158325195312500e+01) (131, -3.71111663818359375000e+02) (132, 1.53439295291900634766e+00) (133, 1.69911253452301025391e+00) (134, -1.50000000000000000000e+03) (135, 3.26778173446655273438e-01) (136, 5.82284033298492431641e-01) (137, 1.99555877685546875000e+02) (138, -1.50000000000000000000e+03) (139, -1.50000000000000000000e+03) (140, -1.12737411499023437500e+02) (141, -9.02470947265625000000e+02) (142, -1.50000000000000000000e+03) (143, -1.50000000000000000000e+03) (144, 2.06714344024658203125e+00) (145, -1.50000000000000000000e+03) (146, 4.71870750188827514648e-01) (147, -1.27989187836647033691e-01) (148, 2.00179840087890625000e+02) (149, -1.50000000000000000000e+03) (150, 1.50000000000000000000e+03) (151, 7.73789794921875000000e+02) (152, -3.57236653566360473633e-01) (153, -1.50000000000000000000e+03) (154, -1.50000000000000000000e+03) (155, 1.93538630008697509766e+00) (156, -1.50000000000000000000e+03) (157, 8.13935637474060058594e-01) (158, 4.16682183742523193359e-01) (159, 2.00013458251953125000e+02) (160, -1.50000000000000000000e+03) (161, -1.50000000000000000000e+03) (162, -5.02691078186035156250e+00) (163, 1.99977722167968750000e+02) (164, -1.50000000000000000000e+03) (165, -1.50000000000000000000e+03) (166, 2.04639530181884765625e+00) (167, -1.50000000000000000000e+03) (168, 7.87444412708282470703e-01) (169, -3.96483391523361206055e-02) (170, -1.49789398193359375000e+02) (171, -4.08755989074707031250e+01) (172, -2.74928092956542968750e+00) (173, 6.43156349658966064453e-01) (174, 1.99817657470703125000e+02) (175, -1.50000000000000000000e+03) (176, -1.50000000000000000000e+03) (177, 2.03141951560974121094e+00) (178, -1.50000000000000000000e+03) (179, 4.53191787004470825195e-01) (180, -1.88307144165039062500e+02) (181, -2.51907165527343750000e+02) (182, -1.46208807826042175293e-01) (183, 2.67778158187866210938e-01) (184, -6.85278978198766708374e-03) (185, 2.00257385253906250000e+02) (186, -1.50000000000000000000e+03) (187, -1.50000000000000000000e+03) (188, 1.96350228786468505859e+00) (189, -1.50000000000000000000e+03) (190, 3.14721343994140625000e+02) (191, 1.42767425537109375000e+02) (192, -4.20822113752365112305e-01) (193, -1.50000000000000000000e+03) (194, 6.97508573532104492188e-01) (195, 9.85246747732162475586e-02) (196, 1.99974822998046875000e+02) (197, -1.50000000000000000000e+03) (198, -1.50000000000000000000e+03) (199, 1.65444266796112060547e+00) (200, -1.50000000000000000000e+03) (201, -1.55713943481445312500e+02) (202, -1.50000000000000000000e+03) (203, 1.77263081073760986328e+00) (204, -1.50000000000000000000e+03) (205, 7.17413365840911865234e-01) (206, 1.87533497810363769531e-02) (207, 1.99592620849609375000e+02) (208, -1.50000000000000000000e+03) (209, -1.50000000000000000000e+03) (210, 7.28829193115234375000e+01) (211, -1.58918334960937500000e+02) (212, -1.50000000000000000000e+03) (213, -1.50000000000000000000e+03) (214, 2.07866144180297851562e+00) (215, -1.50000000000000000000e+03) (216, 9.54007446765899658203e-01) (217, 2.15067341923713684082e-01) (218, 1.99428161621093750000e+02) (219, -1.50000000000000000000e+03) (220, -1.50000000000000000000e+03) (221, 1.50000000000000000000e+03) (222, -8.44963252544403076172e-01) (223, -1.50000000000000000000e+03) (224, -1.50000000000000000000e+03) (225, 2.16860508918762207031e+00) (226, -1.50000000000000000000e+03) (227, 8.79765927791595458984e-01) (228, -3.95472254604101181030e-03) (229, 1.99904846191406250000e+02) (230, -1.78114528656005859375e+01) (231, 1.50000000000000000000e+03) (232, 3.73593240976333618164e-01) (233, 1.99525878906250000000e+02) (234, -1.50000000000000000000e+03) (235, -1.50000000000000000000e+03) (236, 1.98518145084381103516e+00) (237, -1.50000000000000000000e+03) (238, 7.06397950649261474609e-01) (239, 6.67255163192749023438e-01) (240, -1.10749633789062500000e+03) (241, -2.84905273437500000000e+02) (242, 3.14895838499069213867e-01) (243, 6.23234689235687255859e-01) (244, 2.00132354736328125000e+02) (245, -1.50000000000000000000e+03) (246, -1.50000000000000000000e+03) (247, 1.97853910923004150391e+00) (248, -1.50000000000000000000e+03) (249, 8.79061222076416015625e-01) (250, -9.05782653808593750000e+02) (251, 2.04425476074218750000e+02) (252, -5.26917446404695510864e-03) (253, 6.97622835636138916016e-01) (254, -1.11169060692191123962e-02) (255, 2.00057189941406250000e+02) (256, -1.50000000000000000000e+03) (257, -1.50000000000000000000e+03) (258, 1.82914435863494873047e+00) (259, -1.50000000000000000000e+03) (260, -1.50000000000000000000e+03) (261, 1.04734484863281250000e+03) (262, -4.35759639739990234375e+00) (263, -1.50000000000000000000e+03) (264, 8.11303615570068359375e-01) (265, 8.08385610580444335938e-02) (266, 1.99672454833984375000e+02) (267, -1.50000000000000000000e+03) (268, -1.50000000000000000000e+03) (269, 2.12075042724609375000e+00) (270, -4.57845592498779296875e+00) (271, 1.18886461257934570312e+01) (272, -1.50000000000000000000e+03) (273, 1.46233999729156494141e+00) (274, -1.50000000000000000000e+03) (275, 8.19569408893585205078e-01) (276, 3.49618315696716308594e-01) (277, 1.99847320556640625000e+02) (278, -1.50000000000000000000e+03) (279, -1.50000000000000000000e+03) (280, -7.36536560058593750000e+02) (281, 1.11305702209472656250e+02) (282, -1.50000000000000000000e+03) (283, -1.50000000000000000000e+03) (284, 1.44824659824371337891e+00) (285, -1.50000000000000000000e+03) (286, 8.08441877365112304688e-01) (287, 2.47717484831809997559e-01) (288, 1.99775970458984375000e+02) (289, -1.50000000000000000000e+03) (290, -1.50000000000000000000e+03) (291, 1.50000000000000000000e+03) (292, 5.52673220634460449219e-01) (293, -1.50000000000000000000e+03) (294, -1.50000000000000000000e+03) (295, 1.71841466426849365234e+00) (296, -1.50000000000000000000e+03) (297, 3.82159620523452758789e-01) (298, 4.48141098022460937500e-01) (299, 1.99563323974609375000e+02) (300, -1.04445205688476562500e+02) (301, -2.63575196266174316406e-01) (302, -3.37050445377826690674e-02) (303, 2.32446625828742980957e-01) (301, 1.14711508154869079590e-01) (302, 1.16689465939998626709e-01) (303, -4.93958941660821437836e-04) 
