FANN_FLO_2.1
num_layers=2
learning_rate=0.700000
connection_rate=1.000000
network_type=0
learning_momentum=0.000000
training_algorithm=2
train_error_function=0
train_stop_function=0
cascade_output_change_fraction=0.010000
quickprop_decay=-0.000100
quickprop_mu=1.750000
rprop_increase_factor=1.200000
rprop_decrease_factor=0.500000
rprop_delta_min=0.000000
rprop_delta_max=50.000000
rprop_delta_zero=0.100000
cascade_output_stagnation_epochs=12
cascade_candidate_change_fraction=0.010000
cascade_candidate_stagnation_epochs=12
cascade_max_out_epochs=150
cascade_min_out_epochs=50
cascade_max_cand_epochs=150
cascade_min_cand_epochs=50
cascade_num_candidate_groups=2
bit_fail_limit=3.49999994039535522461e-01
cascade_candidate_limit=1.00000000000000000000e+03
cascade_weight_multiplier=4.00000005960464477539e-01
cascade_activation_functions_count=10
cascade_activation_functions=3 5 7 8 10 11 14 15 16 17 
cascade_activation_steepnesses_count=4
cascade_activation_steepnesses=2.50000000000000000000e-01 5.00000000000000000000e-01 7.50000000000000000000e-01 1.00000000000000000000e+00 
layer_sizes=301 3 
scale_included=0
neurons (num_inputs, activation_function, activation_steepness)=(0, 0, 0.00000000000000000000e+00) (0, 0, 0.00000000000000000000e+00) (0, 0, 0.00000000000000000000e+00) (0, 0, 0.00000000000000000000e+00) (0, 0, 0.00000000000000000000e+00) (0, 0, 0.00000000000000000000e+00) (0, 0, 0.00000000000000000000e+00) (0, 0, 0.00000000000000000000e+00) (0, 0, 0.00000000000000000000e+00) (0, 0, 0.00000000000000000000e+00) (0, 0, 0.00000000000000000000e+00) (0, 0, 0.00000000000000000000e+00) (0, 0, 0.00000000000000000000e+00) (0, 0, 0.00000000000000000000e+00) (0, 0, 0.00000000000000000000e+00) (0, 0, 0.00000000000000000000e+00) (0, 0, 0.00000000000000000000e+00) (0, 0, 0.00000000000000000000e+00) (0, 0, 0.00000000000000000000e+00) (0, 0, 0.00000000000000000000e+00) (0, 0, 0.00000000000000000000e+00) (0, 0, 0.00000000000000000000e+00) (0, 0, 0.00000000000000000000e+00) (0, 0, 0.00000000000000000000e+00) (0, 0, 0.00000000000000000000e+00) (0, 0, 0.00000000000000000000e+00) (0, 0, 0.00000000000000000000e+00) (0, 0, 0.00000000000000000000e+00) (0, 0, 0.00000000000000000000e+00) (0, 0, 0.00000000000000000000e+00) (0, 0, 0.00000000000000000000e+00) (0, 0, 0.00000000000000000000e+00) (0, 0, 0.00000000000000000000e+00) (0, 0, 0.00000000000000000000e+00) (0, 0, 0.00000000000000000000e+00) (0, 0, 0.00000000000000000000e+00) (0, 0, 0.00000000000000000000e+00) (0, 0, 0.00000000000000000000e+00) (0, 0, 0.00000000000000000000e+00) (0, 0, 0.00000000000000000000e+00) (0, 0, 0.00000000000000000000e+00) (0, 0, 0.00000000000000000000e+00) (0, 0, 0.00000000000000000000e+00) (0, 0, 0.00000000000000000000e+00) (0, 0, 0.00000000000000000000e+00) (0, 0, 0.00000000000000000000e+00) (0, 0, 0.00000000000000000000e+00) (0, 0, 0.00000000000000000000e+00) (0, 0, 0.00000000000000000000e+00) (0, 0, 0.00000000000000000000e+00) (0, 0, 0.00000000000000000000e+00) (0, 0, 0.00000000000000000000e+00) (0, 0, 0.00000000000000000000e+00) (0, 0, 0.00000000000000000000e+00) (0, 0, 0.00000000000000000000e+00) (0, 0, 0.00000000000000000000e+00) (0, 0, 0.00000000000000000000e+00) (0, 0, 0.00000000000000000000e+00) (0, 0, 0.00000000000000000000e+00) (0, 0, 0.00000000000000000000e+00) (0, 0, 0.00000000000000000000e+00) (0, 0, 0.00000000000000000000e+00) (0, 0, 0.00000000000000000000e+00) (0, 0, 0.00000000000000000000e+00) (0, 0, 0.00000000000000000000e+00) (0, 0, 0.00000000000000000000e+00) (0, 0, 0.00000000000000000000e+00) (0, 0, 0.00000000000000000000e+00) (0, 0, 0.00000000000000000000e+00) (0, 0, 0.00000000000000000000e+00) (0, 0, 0.00000000000000000000e+00) (0, 0, 0.00000000000000000000e+00) (0, 0, 0.00000000000000000000e+00) (0, 0, 0.00000000000000000000e+00) (0, 0, 0.00000000000000000000e+00) (0, 0, 0.00000000000000000000e+00) (0, 0, 0.00000000000000000000e+00) (0, 0, 0.00000000000000000000e+00) (0, 0, 0.00000000000000000000e+00) (0, 0, 0.00000000000000000000e+00) (0, 0, 0.00000000000000000000e+00) (0, 0, 0.00000000000000000000e+00) (0, 0, 0.00000000000000000000e+00) (0, 0, 0.00000000000000000000e+00) (0, 0, 0.00000000000000000000e+00) (0, 0, 0.00000000000000000000e+00) (0, 0, 0.00000000000000000000e+00) (0, 0, 0.00000000000000000000e+00) (0, 0, 0.00000000000000000000e+00) (0, 0, 0.00000000000000000000e+00) (0, 0, 0.00000000000000000000e+00) (0, 0, 0.00000000000000000000e+00) (0, 0, 0.00000000000000000000e+00) (0, 0, 0.00000000000000000000e+00) (0, 0, 0.00000000000000000000e+00) (0, 0, 0.00000000000000000000e+00) (0, 0, 0.00000000000000000000e+00) (0, 0, 0.00000000000000000000e+00) (0, 0, 0.00000000000000000000e+00) (0, 0, 0.00000000000000000000e+00) (0, 0, 0.00000000000000000000e+00) (0, 0, 0.00000000000000000000e+00) (0, 0, 0.00000000000000000000e+00) (0, 0, 0.00000000000000000000e+00) (0, 0, 0.00000000000000000000e+00) (0, 0, 0.00000000000000000000e+00) (0, 0, 0.00000000000000000000e+00) (0, 0, 0.00000000000000000000e+00) (0, 0, 0.00000000000000000000e+00) (0, 0, 0.00000000000000000000e+00) (0, 0, 0.00000000000000000000e+00) (0, 0, 0.00000000000000000000e+00) (0, 0, 0.00000000000000000000e+00) (0, 0, 0.00000000000000000000e+00) (0, 0, 0.00000000000000000000e+00) (0, 0, 0.00000000000000000000e+00) (0, 0, 0.00000000000000000000e+00) (0, 0, 0.00000000000000000000e+00) (0, 0, 0.00000000000000000000e+00) (0, 0, 0.00000000000000000000e+00) (0, 0, 0.00000000000000000000e+00) (0, 0, 0.00000000000000000000e+00) (0, 0, 0.00000000000000000000e+00) (0, 0, 0.00000000000000000000e+00) (0, 0, 0.00000000000000000000e+00) (0, 0, 0.00000000000000000000e+00) (0, 0, 0.00000000000000000000e+00) (0, 0, 0.00000000000000000000e+00) (0, 0, 0.00000000000000000000e+00) (0, 0, 0.00000000000000000000e+00) (0, 0, 0.00000000000000000000e+00) (0, 0, 0.00000000000000000000e+00) (0, 0, 0.00000000000000000000e+00) (0, 0, 0.00000000000000000000e+00) (0, 0, 0.00000000000000000000e+00) (0, 0, 0.00000000000000000000e+00) (0, 0, 0.00000000000000000000e+00) (0, 0, 0.00000000000000000000e+00) (0, 0, 0.00000000000000000000e+00) (0, 0, 0.00000000000000000000e+00) (0, 0, 0.00000000000000000000e+00) (0, 0, 0.00000000000000000000e+00) (0, 0, 0.00000000000000000000e+00) (0, 0, 0.00000000000000000000e+00) (0, 0, 0.00000000000000000000e+00) (0, 0, 0.00000000000000000000e+00) (0, 0, 0.00000000000000000000e+00) (0, 0, 0.00000000000000000000e+00) (0, 0, 0.00000000000000000000e+00) (0, 0, 0.00000000000000000000e+00) (0, 0, 0.00000000000000000000e+00) (0, 0, 0.00000000000000000000e+00) (0, 0, 0.00000000000000000000e+00) (0, 0, 0.00000000000000000000e+00) (0, 0, 0.00000000000000000000e+00) (0, 0, 0.00000000000000000000e+00) (0, 0, 0.00000000000000000000e+00) (0, 0, 0.00000000000000000000e+00) (0, 0, 0.00000000000000000000e+00) (0, 0, 0.00000000000000000000e+00) (0, 0, 0.00000000000000000000e+00) (0, 0, 0.00000000000000000000e+00) (0, 0, 0.00000000000000000000e+00) (0, 0, 0.00000000000000000000e+00) (0, 0, 0.00000000000000000000e+00) (0, 0, 0.00000000000000000000e+00) (0, 0, 0.00000000000000000000e+00) (0, 0, 0.00000000000000000000e+00) (0, 0, 0.00000000000000000000e+00) (0, 0, 0.00000000000000000000e+00) (0, 0, 0.00000000000000000000e+00) (0, 0, 0.00000000000000000000e+00) (0, 0, 0.00000000000000000000e+00) (0, 0, 0.00000000000000000000e+00) (0, 0, 0.00000000000000000000e+00) (0, 0, 0.00000000000000000000e+00) (0, 0, 0.00000000000000000000e+00) (0, 0, 0.00000000000000000000e+00) (0, 0, 0.00000000000000000000e+00) (0, 0, 0.00000000000000000000e+00) (0, 0, 0.00000000000000000000e+00) (0, 0, 0.00000000000000000000e+00) (0, 0, 0.00000000000000000000e+00) (0, 0, 0.00000000000000000000e+00) (0, 0, 0.00000000000000000000e+00) (0, 0, 0.00000000000000000000e+00) (0, 0, 0.00000000000000000000e+00) (0, 0, 0.00000000000000000000e+00) (0, 0, 0.00000000000000000000e+00) (0, 0, 0.00000000000000000000e+00) (0, 0, 0.00000000000000000000e+00) (0, 0, 0.00000000000000000000e+00) (0, 0, 0.00000000000000000000e+00) (0, 0, 0.00000000000000000000e+00) (0, 0, 0.00000000000000000000e+00) (0, 0, 0.00000000000000000000e+00) (0, 0, 0.00000000000000000000e+00) (0, 0, 0.00000000000000000000e+00) (0, 0, 0.00000000000000000000e+00) (0, 0, 0.00000000000000000000e+00) (0, 0, 0.00000000000000000000e+00) (0, 0, 0.00000000000000000000e+00) (0, 0, 0.00000000000000000000e+00) (0, 0, 0.00000000000000000000e+00) (0, 0, 0.00000000000000000000e+00) (0, 0, 0.00000000000000000000e+00) (0, 0, 0.00000000000000000000e+00) (0, 0, 0.00000000000000000000e+00) (0, 0, 0.00000000000000000000e+00) (0, 0, 0.00000000000000000000e+00) (0, 0, 0.00000000000000000000e+00) (0, 0, 0.00000000000000000000e+00) (0, 0, 0.00000000000000000000e+00) (0, 0, 0.00000000000000000000e+00) (0, 0, 0.00000000000000000000e+00) (0, 0, 0.00000000000000000000e+00) (0, 0, 0.00000000000000000000e+00) (0, 0, 0.00000000000000000000e+00) (0, 0, 0.00000000000000000000e+00) (0, 0, 0.00000000000000000000e+00) (0, 0, 0.00000000000000000000e+00) (0, 0, 0.00000000000000000000e+00) (0, 0, 0.00000000000000000000e+00) (0, 0, 0.00000000000000000000e+00) (0, 0, 0.00000000000000000000e+00) (0, 0, 0.00000000000000000000e+00) (0, 0, 0.00000000000000000000e+00) (0, 0, 0.00000000000000000000e+00) (0, 0, 0.00000000000000000000e+00) (0, 0, 0.00000000000000000000e+00) (0, 0, 0.00000000000000000000e+00) (0, 0, 0.00000000000000000000e+00) (0, 0, 0.00000000000000000000e+00) (0, 0, 0.00000000000000000000e+00) (0, 0, 0.00000000000000000000e+00) (0, 0, 0.00000000000000000000e+00) (0, 0, 0.00000000000000000000e+00) (0, 0, 0.00000000000000000000e+00) (0, 0, 0.00000000000000000000e+00) (0, 0, 0.00000000000000000000e+00) (0, 0, 0.00000000000000000000e+00) (0, 0, 0.00000000000000000000e+00) (0, 0, 0.00000000000000000000e+00) (0, 0, 0.00000000000000000000e+00) (0, 0, 0.00000000000000000000e+00) (0, 0, 0.00000000000000000000e+00) (0, 0, 0.00000000000000000000e+00) (0, 0, 0.00000000000000000000e+00) (0, 0, 0.00000000000000000000e+00) (0, 0, 0.00000000000000000000e+00) (0, 0, 0.00000000000000000000e+00) (0, 0, 0.00000000000000000000e+00) (0, 0, 0.00000000000000000000e+00) (0, 0, 0.00000000000000000000e+00) (0, 0, 0.00000000000000000000e+00) (0, 0, 0.00000000000000000000e+00) (0, 0, 0.00000000000000000000e+00) (0, 0, 0.00000000000000000000e+00) (0, 0, 0.00000000000000000000e+00) (0, 0, 0.00000000000000000000e+00) (0, 0, 0.00000000000000000000e+00) (0, 0, 0.00000000000000000000e+00) (0, 0, 0.00000000000000000000e+00) (0, 0, 0.00000000000000000000e+00) (0, 0, 0.00000000000000000000e+00) (0, 0, 0.00000000000000000000e+00) (0, 0, 0.00000000000000000000e+00) (0, 0, 0.00000000000000000000e+00) (0, 0, 0.00000000000000000000e+00) (0, 0, 0.00000000000000000000e+00) (0, 0, 0.00000000000000000000e+00) (0, 0, 0.00000000000000000000e+00) (0, 0, 0.00000000000000000000e+00) (0, 0, 0.00000000000000000000e+00) (0, 0, 0.00000000000000000000e+00) (0, 0, 0.00000000000000000000e+00) (0, 0, 0.00000000000000000000e+00) (0, 0, 0.00000000000000000000e+00) (0, 0, 0.00000000000000000000e+00) (0, 0, 0.00000000000000000000e+00) (0, 0, 0.00000000000000000000e+00) (0, 0, 0.00000000000000000000e+00) (0, 0, 0.00000000000000000000e+00) (0, 0, 0.00000000000000000000e+00) (0, 0, 0.00000000000000000000e+00) (0, 0, 0.00000000000000000000e+00) (0, 0, 0.00000000000000000000e+00) (0, 0, 0.00000000000000000000e+00) (0, 0, 0.00000000000000000000e+00) (0, 0, 0.00000000000000000000e+00) (0, 0, 0.00000000000000000000e+00) (0, 0, 0.00000000000000000000e+00) (0, 0, 0.00000000000000000000e+00) (0, 0, 0.00000000000000000000e+00) (0, 0, 0.00000000000000000000e+00) (0, 0, 0.00000000000000000000e+00) (0, 0, 0.00000000000000000000e+00) (0, 0, 0.00000000000000000000e+00) (0, 0, 0.00000000000000000000e+00) (0, 0, 0.00000000000000000000e+00) (0, 0, 0.00000000000000000000e+00) (301, 5, 5.00000000000000000000e-01) (301, 5, 5.00000000000000000000e-01) (0, 5, 0.00000000000000000000e+00) 
connections (connected_to_neuron, weight)=(0, 1.50000000000000000000e+03) (1, -1.58396996557712554932e-02) (2, 5.95922465436160564423e-05) (3, 2.65939626842737197876e-03) (4, 2.21538986079394817352e-03) (5, 2.17772717587649822235e-03) (6, 2.34481715597212314606e-03) (7, 2.25674617104232311249e-03) (8, 2.32067960314452648163e-03) (9, 2.56819394417107105255e-03) (10, -6.98415189981460571289e-02) (11, -1.04729169979691505432e-02) (12, -2.86627234891057014465e-03) (13, 2.56819394417107105255e-03) (14, 2.65939626842737197876e-03) (15, 2.21538986079394817352e-03) (16, 2.17772717587649822235e-03) (17, 2.34481715597212314606e-03) (18, 2.25674617104232311249e-03) (19, 2.32067960314452648163e-03) (20, 4.05489560216665267944e-03) (21, -1.27016836777329444885e-02) (22, 1.89550709910690784454e-03) (23, 2.32067960314452648163e-03) (24, 2.56819394417107105255e-03) (25, 2.65939626842737197876e-03) (26, 2.21538986079394817352e-03) (27, 2.17772717587649822235e-03) (28, 2.34481715597212314606e-03) (29, 2.25674617104232311249e-03) (30, 3.68271842598915100098e-02) (31, 5.43439611792564392090e-02) (32, -1.32812513038516044617e-03) (33, 2.25674617104232311249e-03) (34, 2.32067960314452648163e-03) (35, 2.56819394417107105255e-03) (36, 2.65939626842737197876e-03) (37, 2.21538986079394817352e-03) (38, 2.17772717587649822235e-03) (39, 2.34481715597212314606e-03) (40, 4.30654659867286682129e-02) (41, 7.44458362460136413574e-02) (42, 1.88553833868354558945e-03) (43, 2.34481715597212314606e-03) (44, 2.25674617104232311249e-03) (45, 2.32067960314452648163e-03) (46, 2.56819394417107105255e-03) (47, 2.65939626842737197876e-03) (48, 2.21538986079394817352e-03) (49, 2.17772717587649822235e-03) (50, 1.02283842861652374268e-02) (51, -1.75258032977581024170e-02) (52, -2.18675006181001663208e-03) (53, 2.17772717587649822235e-03) (54, 2.34481715597212314606e-03) (55, 2.25674617104232311249e-03) (56, 2.32067960314452648163e-03) (57, 2.56819394417107105255e-03) (58, 2.65939626842737197876e-03) (59, 2.21538986079394817352e-03) (60, 9.16679418878629803658e-05) (61, -1.90072972327470779419e-02) (62, 4.21965523855760693550e-04) (63, 2.21538986079394817352e-03) (64, 2.17772717587649822235e-03) (65, 2.34481715597212314606e-03) (66, 2.25674617104232311249e-03) (67, 2.32067960314452648163e-03) (68, 2.56819394417107105255e-03) (69, 2.65939626842737197876e-03) (70, 3.25505062937736511230e-02) (71, -4.93758544325828552246e-03) (72, -8.20650369860231876373e-04) (73, 2.65939626842737197876e-03) (74, 2.21538986079394817352e-03) (75, 2.17772717587649822235e-03) (76, 2.34481715597212314606e-03) (77, 2.25674617104232311249e-03) (78, 2.32067960314452648163e-03) (79, 2.56819394417107105255e-03) (80, 3.04470062255859375000e-02) (81, 8.83815344423055648804e-03) (82, -1.71036715619266033173e-03) (83, 2.56819394417107105255e-03) (84, 2.65939626842737197876e-03) (85, 2.21538986079394817352e-03) (86, 2.17772717587649822235e-03) (87, 2.34481715597212314606e-03) (88, 2.25674617104232311249e-03) (89, 2.32067960314452648163e-03) (90, 5.27160428464412689209e-02) (91, 3.63592579960823059082e-02) (92, 3.36156983394175767899e-04) (93, 2.32067960314452648163e-03) (94, 2.56819394417107105255e-03) (95, 2.65939626842737197876e-03) (96, 2.21538986079394817352e-03) (97, 2.17772717587649822235e-03) (98, 2.34481715597212314606e-03) (99, 2.25674617104232311249e-03) (100, -4.35819812119007110596e-02) (101, -1.18578867986798286438e-02) (102, -3.16633959300816059113e-03) (103, 2.25674617104232311249e-03) (104, 2.32067960314452648163e-03) (105, 2.56819394417107105255e-03) (106, 2.65939626842737197876e-03) (107, 2.21538986079394817352e-03) (108, 2.17772717587649822235e-03) (109, 2.34481715597212314606e-03) (110, 1.01547390222549438477e-02) (111, 1.65478382259607315063e-02) (112, 2.76105501689016819000e-03) (113, 2.34481715597212314606e-03) (114, 2.25674617104232311249e-03) (115, 2.32067960314452648163e-03) (116, 2.56819394417107105255e-03) (117, 2.65939626842737197876e-03) (118, 2.21538986079394817352e-03) (119, 2.17772717587649822235e-03) (120, -4.11498248577117919922e-02) (121, -5.35594336688518524170e-02) (122, 6.35357864666730165482e-04) (123, 2.17772717587649822235e-03) (124, 2.34481715597212314606e-03) (125, 2.25674617104232311249e-03) (126, 2.32067960314452648163e-03) (127, 2.56819394417107105255e-03) (128, 2.65939626842737197876e-03) (129, 2.21538986079394817352e-03) (130, 5.13217300176620483398e-02) (131, 3.01023833453655242920e-02) (132, -6.43769744783639907837e-03) (133, 2.21538986079394817352e-03) (134, 2.17772717587649822235e-03) (135, 2.34481715597212314606e-03) (136, 2.25674617104232311249e-03) (137, 2.32067960314452648163e-03) (138, 2.56819394417107105255e-03) (139, 2.65939626842737197876e-03) (140, -4.76839428301900625229e-04) (141, 3.73842902481555938721e-02) (142, 3.20033100433647632599e-03) (143, 2.65939626842737197876e-03) (144, 2.21538986079394817352e-03) (145, 2.17772717587649822235e-03) (146, 2.34481715597212314606e-03) (147, 2.25674617104232311249e-03) (148, 2.32067960314452648163e-03) (149, 2.56819394417107105255e-03) (150, -3.39395105838775634766e-02) (151, -5.90258911252021789551e-02) (152, -1.23996031470596790314e-03) (153, 2.56819394417107105255e-03) (154, 2.65939626842737197876e-03) (155, 2.21538986079394817352e-03) (156, 2.17772717587649822235e-03) (157, 2.34481715597212314606e-03) (158, 2.25674617104232311249e-03) (159, 2.32067960314452648163e-03) (160, 1.27202579751610755920e-02) (161, -1.86130534857511520386e-02) (162, 9.95960552245378494263e-04) (163, 2.32067960314452648163e-03) (164, 2.56819394417107105255e-03) (165, 2.65939626842737197876e-03) (166, 2.21538986079394817352e-03) (167, 2.17772717587649822235e-03) (168, 2.34481715597212314606e-03) (169, 2.25674617104232311249e-03) (170, -3.39940749108791351318e-02) (171, 2.69874017685651779175e-02) (172, -2.45073926635086536407e-03) (173, 2.25674617104232311249e-03) (174, 2.32067960314452648163e-03) (175, 2.56819394417107105255e-03) (176, 2.65939626842737197876e-03) (177, 2.21538986079394817352e-03) (178, 2.17772717587649822235e-03) (179, 2.34481715597212314606e-03) (180, -4.31089811027050018311e-02) (181, -2.90535651147365570068e-02) (182, 9.20970982406288385391e-04) (183, 2.34481715597212314606e-03) (184, 2.25674617104232311249e-03) (185, 2.32067960314452648163e-03) (186, 2.56819394417107105255e-03) (187, 2.65939626842737197876e-03) (188, 2.21538986079394817352e-03) (189, 2.17772717587649822235e-03) (190, 2.33173184096813201904e-03) (191, 1.11997220665216445923e-03) (192, -2.62490287423133850098e-03) (193, 2.17772717587649822235e-03) (194, 2.34481715597212314606e-03) (195, 2.25674617104232311249e-03) (196, 2.32067960314452648163e-03) (197, 2.56819394417107105255e-03) (198, 2.65939626842737197876e-03) (199, 2.21538986079394817352e-03) (200, 6.92510828375816345215e-02) (201, 4.88359704613685607910e-02) (202, -2.46672914363443851471e-03) (203, 2.21538986079394817352e-03) (204, 2.17772717587649822235e-03) (205, 2.34481715597212314606e-03) (206, 2.25674617104232311249e-03) (207, 2.32067960314452648163e-03) (208, 2.56819394417107105255e-03) (209, 2.65939626842737197876e-03) (210, 4.08875197172164916992e-02) (211, 2.77026221156120300293e-02) (212, -9.47314198128879070282e-04) (213, 2.65939626842737197876e-03) (214, 2.21538986079394817352e-03) (215, 2.17772717587649822235e-03) (216, 2.34481715597212314606e-03) (217, 2.25674617104232311249e-03) (218, 2.32067960314452648163e-03) (219, 2.56819394417107105255e-03) (220, 1.47996768355369567871e-02) (221, -1.83510055649094283581e-04) (222, 2.46892170980572700500e-03) (223, 2.56819394417107105255e-03) (224, 2.65939626842737197876e-03) (225, 2.21538986079394817352e-03) (226, 2.17772717587649822235e-03) (227, 2.34481715597212314606e-03) (228, 2.25674617104232311249e-03) (229, 2.32067960314452648163e-03) (230, 3.83407287299633026123e-02) (231, 1.73780880868434906006e-02) (232, 2.11192620918154716492e-03) (233, 2.32067960314452648163e-03) (234, 2.56819394417107105255e-03) (235, 2.65939626842737197876e-03) (236, 2.21538986079394817352e-03) (237, 2.17772717587649822235e-03) (238, 2.34481715597212314606e-03) (239, 2.25674617104232311249e-03) (240, 1.86923537403345108032e-02) (241, -1.27477282658219337463e-02) (242, -2.23962590098381042480e-03) (243, 2.25674617104232311249e-03) (244, 2.32067960314452648163e-03) (245, 2.56819394417107105255e-03) (246, 2.65939626842737197876e-03) (247, 2.21538986079394817352e-03) (248, 2.17772717587649822235e-03) (249, 2.34481715597212314606e-03) (250, -3.68050932884216308594e-02) (251, -2.43762582540512084961e-02) (252, 1.40231673140078783035e-03) (253, 2.34481715597212314606e-03) (254, 2.25674617104232311249e-03) (255, 2.32067960314452648163e-03) (256, 2.56819394417107105255e-03) (257, 2.65939626842737197876e-03) (258, 2.21538986079394817352e-03) (259, 2.17772717587649822235e-03) (260, 2.48614456504583358765e-02) (261, 1.23744597658514976501e-02) (262, 2.28141027037054300308e-04) (263, 2.17772717587649822235e-03) (264, 2.34481715597212314606e-03) (265, 2.25674617104232311249e-03) (266, 2.32067960314452648163e-03) (267, 2.56819394417107105255e-03) (268, 2.65939626842737197876e-03) (269, 2.21538986079394817352e-03) (270, 3.19042541086673736572e-02) (271, -8.32872465252876281738e-03) (272, -1.81368587072938680649e-03) (273, 2.21538986079394817352e-03) (274, 2.17772717587649822235e-03) (275, 2.34481715597212314606e-03) (276, 2.25674617104232311249e-03) (277, 2.32067960314452648163e-03) (278, 2.56819394417107105255e-03) (279, 2.65939626842737197876e-03) (280, 7.52086343709379434586e-04) (281, 4.63747829198837280273e-02) (282, 1.34212197735905647278e-03) (283, 2.65939626842737197876e-03) (284, 2.21538986079394817352e-03) (285, 2.17772717587649822235e-03) (286, 2.34481715597212314606e-03) (287, 2.25674617104232311249e-03) (288, 2.32067960314452648163e-03) (289, 2.56819394417107105255e-03) (290, -2.01840270310640335083e-02) (291, -6.28169551491737365723e-02) (292, -4.16371598839759826660e-03) (293, 2.56819394417107105255e-03) (294, 2.65939626842737197876e-03) (295, 2.21538986079394817352e-03) (296, 2.17772717587649822235e-03) (297, 2.34481715597212314606e-03) (298, 2.25674617104232311249e-03) (299, 2.32067960314452648163e-03) (300, -6.26246631145477294922e-02) (0, 1.50000000000000000000e+03) (1, 3.32202366553246974945e-03) (2, -4.53159259632229804993e-03) (3, 6.72716693952679634094e-03) (4, 6.46259542554616928101e-03) (5, 6.27708667889237403870e-03) (6, 6.62815663963556289673e-03) (7, 6.55901385471224784851e-03) (8, 6.55470369383692741394e-03) (9, 6.69838860630989074707e-03) (10, -2.33170576393604278564e-03) (11, -3.53972287848591804504e-03) (12, 4.90003684535622596741e-03) (13, 6.69838860630989074707e-03) (14, 6.72716693952679634094e-03) (15, 6.46259542554616928101e-03) (16, 6.27708667889237403870e-03) (17, 6.62815663963556289673e-03) (18, 6.55901385471224784851e-03) (19, 6.55470369383692741394e-03) (20, -2.67620719969272613525e-02) (21, 3.88429849408566951752e-04) (22, -3.70059022679924964905e-03) (23, 6.55470369383692741394e-03) (24, 6.69838860630989074707e-03) (25, 6.72716693952679634094e-03) (26, 6.46259542554616928101e-03) (27, 6.27708667889237403870e-03) (28, 6.62815663963556289673e-03) (29, 6.55901385471224784851e-03) (30, -5.61714507639408111572e-02) (31, 3.05387214757502079010e-03) (32, -7.21628486644476652145e-04) (33, 6.55901385471224784851e-03) (34, 6.55470369383692741394e-03) (35, 6.69838860630989074707e-03) (36, 6.72716693952679634094e-03) (37, 6.46259542554616928101e-03) (38, 6.27708667889237403870e-03) (39, 6.62815663963556289673e-03) (40, -5.15673346817493438721e-02) (41, -4.23141382634639739990e-02) (42, 8.04983312264084815979e-04) (43, 6.62815663963556289673e-03) (44, 6.55901385471224784851e-03) (45, 6.55470369383692741394e-03) (46, 6.69838860630989074707e-03) (47, 6.72716693952679634094e-03) (48, 6.46259542554616928101e-03) (49, 6.27708667889237403870e-03) (50, -3.58403287827968597412e-02) (51, -3.77445183694362640381e-02) (52, -5.88064547628164291382e-04) (53, 6.27708667889237403870e-03) (54, 6.62815663963556289673e-03) (55, 6.55901385471224784851e-03) (56, 6.55470369383692741394e-03) (57, 6.69838860630989074707e-03) (58, 6.72716693952679634094e-03) (59, 6.46259542554616928101e-03) (60, -6.29040524363517761230e-02) (61, -4.34342306107282638550e-03) (62, -4.58684563636779785156e-03) (63, 6.46259542554616928101e-03) (64, 6.27708667889237403870e-03) (65, 6.62815663963556289673e-03) (66, 6.55901385471224784851e-03) (67, 6.55470369383692741394e-03) (68, 6.69838860630989074707e-03) (69, 6.72716693952679634094e-03) (70, 1.89663600176572799683e-02) (71, 6.82823583483695983887e-02) (72, 2.29232595302164554596e-03) (73, 6.72716693952679634094e-03) (74, 6.46259542554616928101e-03) (75, 6.27708667889237403870e-03) (76, 6.62815663963556289673e-03) (77, 6.55901385471224784851e-03) (78, 6.55470369383692741394e-03) (79, 6.69838860630989074707e-03) (80, -7.30999857187271118164e-02) (81, 6.45411089062690734863e-02) (82, -3.32896161125972867012e-04) (83, 6.69838860630989074707e-03) (84, 6.72716693952679634094e-03) (85, 6.46259542554616928101e-03) (86, 6.27708667889237403870e-03) (87, 6.62815663963556289673e-03) (88, 6.55901385471224784851e-03) (89, 6.55470369383692741394e-03) (90, -3.11715882271528244019e-02) (91, -4.27024886012077331543e-02) (92, -9.09706519450992345810e-04) (93, 6.55470369383692741394e-03) (94, 6.69838860630989074707e-03) (95, 6.72716693952679634094e-03) (96, 6.46259542554616928101e-03) (97, 6.27708667889237403870e-03) (98, 6.62815663963556289673e-03) (99, 6.55901385471224784851e-03) (100, -4.49294745922088623047e-02) (101, 4.43400554358959197998e-02) (102, 2.81163537874817848206e-03) (103, 6.55901385471224784851e-03) (104, 6.55470369383692741394e-03) (105, 6.69838860630989074707e-03) (106, 6.72716693952679634094e-03) (107, 6.46259542554616928101e-03) (108, 6.27708667889237403870e-03) (109, 6.62815663963556289673e-03) (110, 8.58327746391296386719e-03) (111, 1.19693530723452568054e-02) (112, -2.11223901715129613876e-04) (113, 6.62815663963556289673e-03) (114, 6.55901385471224784851e-03) (115, 6.55470369383692741394e-03) (116, 6.69838860630989074707e-03) (117, 6.72716693952679634094e-03) (118, 6.46259542554616928101e-03) (119, 6.27708667889237403870e-03) (120, 6.70936182141304016113e-02) (121, 6.14115037024021148682e-02) (122, -3.56086483225226402283e-03) (123, 6.27708667889237403870e-03) (124, 6.62815663963556289673e-03) (125, 6.55901385471224784851e-03) (126, 6.55470369383692741394e-03) (127, 6.69838860630989074707e-03) (128, 6.72716693952679634094e-03) (129, 6.46259542554616928101e-03) (130, 4.20391485095024108887e-02) (131, -1.27835497260093688965e-02) (132, 3.37723083794116973877e-03) (133, 6.46259542554616928101e-03) (134, 6.27708667889237403870e-03) (135, 6.62815663963556289673e-03) (136, 6.55901385471224784851e-03) (137, 6.55470369383692741394e-03) (138, 6.69838860630989074707e-03) (139, 6.72716693952679634094e-03) (140, 3.35535183548927307129e-02) (141, -2.16733161360025405884e-02) (142, -4.77303378283977508545e-03) (143, 6.72716693952679634094e-03) (144, 6.46259542554616928101e-03) (145, 6.27708667889237403870e-03) (146, 6.62815663963556289673e-03) (147, 6.55901385471224784851e-03) (148, 6.55470369383692741394e-03) (149, 6.69838860630989074707e-03) (150, 1.49529529735445976257e-02) (151, 2.21190657466650009155e-02) (152, 2.17859493568539619446e-03) (153, 6.69838860630989074707e-03) (154, 6.72716693952679634094e-03) (155, 6.46259542554616928101e-03) (156, 6.27708667889237403870e-03) (157, 6.62815663963556289673e-03) (158, 6.55901385471224784851e-03) (159, 6.55470369383692741394e-03) (160, -1.08900986611843109131e-01) (161, -3.76032069325447082520e-02) (162, -3.55858053080737590790e-03) (163, 6.55470369383692741394e-03) (164, 6.69838860630989074707e-03) (165, 6.72716693952679634094e-03) (166, 6.46259542554616928101e-03) (167, 6.27708667889237403870e-03) (168, 6.62815663963556289673e-03) (169, 6.55901385471224784851e-03) (170, -1.62904150784015655518e-02) (171, 3.75402654753997921944e-04) (172, -1.79656082764267921448e-04) (173, 6.55901385471224784851e-03) (174, 6.55470369383692741394e-03) (175, 6.69838860630989074707e-03) (176, 6.72716693952679634094e-03) (177, 6.46259542554616928101e-03) (178, 6.27708667889237403870e-03) (179, 6.62815663963556289673e-03) (180, 2.75516621768474578857e-02) (181, -3.13642015680670738220e-03) (182, 1.91622157581150531769e-03) (183, 6.62815663963556289673e-03) (184, 6.55901385471224784851e-03) (185, 6.55470369383692741394e-03) (186, 6.69838860630989074707e-03) (187, 6.72716693952679634094e-03) (188, 6.46259542554616928101e-03) (189, 6.27708667889237403870e-03) (190, 1.10057238489389419556e-02) (191, 5.51044289022684097290e-03) (192, -1.74704694654792547226e-03) (193, 6.27708667889237403870e-03) (194, 6.62815663963556289673e-03) (195, 6.55901385471224784851e-03) (196, 6.55470369383692741394e-03) (197, 6.69838860630989074707e-03) (198, 6.72716693952679634094e-03) (199, 6.46259542554616928101e-03) (200, -7.08544533699750900269e-03) (201, 7.21783041954040527344e-02) (202, -1.47994898725301027298e-03) (203, 6.46259542554616928101e-03) (204, 6.27708667889237403870e-03) (205, 6.62815663963556289673e-03) (206, 6.55901385471224784851e-03) (207, 6.55470369383692741394e-03) (208, 6.69838860630989074707e-03) (209, 6.72716693952679634094e-03) (210, 2.34416555613279342651e-02) (211, 3.13662714324891567230e-03) (212, 3.59099311754107475281e-03) (213, 6.72716693952679634094e-03) (214, 6.46259542554616928101e-03) (215, 6.27708667889237403870e-03) (216, 6.62815663963556289673e-03) (217, 6.55901385471224784851e-03) (218, 6.55470369383692741394e-03) (219, 6.69838860630989074707e-03) (220, -9.01054665446281433105e-02) (221, 4.60327453911304473877e-02) (222, -7.66490772366523742676e-03) (223, 6.69838860630989074707e-03) (224, 6.72716693952679634094e-03) (225, 6.46259542554616928101e-03) (226, 6.27708667889237403870e-03) (227, 6.62815663963556289673e-03) (228, 6.55901385471224784851e-03) (229, 6.55470369383692741394e-03) (230, -1.58997308462858200073e-02) (231, 1.97827946394681930542e-02) (232, 4.71288524568080902100e-03) (233, 6.55470369383692741394e-03) (234, 6.69838860630989074707e-03) (235, 6.72716693952679634094e-03) (236, 6.46259542554616928101e-03) (237, 6.27708667889237403870e-03) (238, 6.62815663963556289673e-03) (239, 6.55901385471224784851e-03) (240, -6.51733577251434326172e-02) (241, -1.27520679961889982224e-03) (242, -1.90527969971299171448e-03) (243, 6.55901385471224784851e-03) (244, 6.55470369383692741394e-03) (245, 6.69838860630989074707e-03) (246, 6.72716693952679634094e-03) (247, 6.46259542554616928101e-03) (248, 6.27708667889237403870e-03) (249, 6.62815663963556289673e-03) (250, 6.04347959160804748535e-02) (251, 6.28894940018653869629e-02) (252, 2.58676079101860523224e-03) (253, 6.62815663963556289673e-03) (254, 6.55901385471224784851e-03) (255, 6.55470369383692741394e-03) (256, 6.69838860630989074707e-03) (257, 6.72716693952679634094e-03) (258, 6.46259542554616928101e-03) (259, 6.27708667889237403870e-03) (260, -2.27248780429363250732e-02) (261, 4.24976944923400878906e-02) (262, -1.69269728939980268478e-03) (263, 6.27708667889237403870e-03) (264, 6.62815663963556289673e-03) (265, 6.55901385471224784851e-03) (266, 6.55470369383692741394e-03) (267, 6.69838860630989074707e-03) (268, 6.72716693952679634094e-03) (269, 6.46259542554616928101e-03) (270, 2.00605206191539764404e-02) (271, 1.18195293471217155457e-02) (272, -4.59730945294722914696e-05) (273, 6.46259542554616928101e-03) (274, 6.27708667889237403870e-03) (275, 6.62815663963556289673e-03) (276, 6.55901385471224784851e-03) (277, 6.55470369383692741394e-03) (278, 6.69838860630989074707e-03) (279, 6.72716693952679634094e-03) (280, -2.92256325483322143555e-02) (281, 2.50560119748115539551e-02) (282, -4.37583978055045008659e-04) (283, 6.72716693952679634094e-03) (284, 6.46259542554616928101e-03) (285, 6.27708667889237403870e-03) (286, 6.62815663963556289673e-03) (287, 6.55901385471224784851e-03) (288, 6.55470369383692741394e-03) (289, 6.69838860630989074707e-03) (290, -1.37873008847236633301e-01) (291, 2.71259024739265441895e-02) (292, 1.58866727724671363831e-03) (293, 6.69838860630989074707e-03) (294, 6.72716693952679634094e-03) (295, 6.46259542554616928101e-03) (296, 6.27708667889237403870e-03) (297, 6.62815663963556289673e-03) (298, 6.55901385471224784851e-03) (299, 6.55470369383692741394e-03) (300, -1.93405598402023315430e-01) 
