FANN_FLO_2.1
num_layers=2
learning_rate=0.700000
connection_rate=1.000000
network_type=0
learning_momentum=0.000000
training_algorithm=2
train_error_function=0
train_stop_function=0
cascade_output_change_fraction=0.010000
quickprop_decay=-0.000100
quickprop_mu=1.750000
rprop_increase_factor=1.200000
rprop_decrease_factor=0.500000
rprop_delta_min=0.000000
rprop_delta_max=50.000000
rprop_delta_zero=0.100000
cascade_output_stagnation_epochs=12
cascade_candidate_change_fraction=0.010000
cascade_candidate_stagnation_epochs=12
cascade_max_out_epochs=150
cascade_min_out_epochs=50
cascade_max_cand_epochs=150
cascade_min_cand_epochs=50
cascade_num_candidate_groups=2
bit_fail_limit=3.49999994039535522461e-01
cascade_candidate_limit=1.00000000000000000000e+03
cascade_weight_multiplier=4.00000005960464477539e-01
cascade_activation_functions_count=10
cascade_activation_functions=3 5 7 8 10 11 14 15 16 17 
cascade_activation_steepnesses_count=4
cascade_activation_steepnesses=2.50000000000000000000e-01 5.00000000000000000000e-01 7.50000000000000000000e-01 1.00000000000000000000e+00 
layer_sizes=301 3 
scale_included=0
neurons (num_inputs, activation_function, activation_steepness)=(0, 0, 0.00000000000000000000e+00) (0, 0, 0.00000000000000000000e+00) (0, 0, 0.00000000000000000000e+00) (0, 0, 0.00000000000000000000e+00) (0, 0, 0.00000000000000000000e+00) (0, 0, 0.00000000000000000000e+00) (0, 0, 0.00000000000000000000e+00) (0, 0, 0.00000000000000000000e+00) (0, 0, 0.00000000000000000000e+00) (0, 0, 0.00000000000000000000e+00) (0, 0, 0.00000000000000000000e+00) (0, 0, 0.00000000000000000000e+00) (0, 0, 0.00000000000000000000e+00) (0, 0, 0.00000000000000000000e+00) (0, 0, 0.00000000000000000000e+00) (0, 0, 0.00000000000000000000e+00) (0, 0, 0.00000000000000000000e+00) (0, 0, 0.00000000000000000000e+00) (0, 0, 0.00000000000000000000e+00) (0, 0, 0.00000000000000000000e+00) (0, 0, 0.00000000000000000000e+00) (0, 0, 0.00000000000000000000e+00) (0, 0, 0.00000000000000000000e+00) (0, 0, 0.00000000000000000000e+00) (0, 0, 0.00000000000000000000e+00) (0, 0, 0.00000000000000000000e+00) (0, 0, 0.00000000000000000000e+00) (0, 0, 0.00000000000000000000e+00) (0, 0, 0.00000000000000000000e+00) (0, 0, 0.00000000000000000000e+00) (0, 0, 0.00000000000000000000e+00) (0, 0, 0.00000000000000000000e+00) (0, 0, 0.00000000000000000000e+00) (0, 0, 0.00000000000000000000e+00) (0, 0, 0.00000000000000000000e+00) (0, 0, 0.00000000000000000000e+00) (0, 0, 0.00000000000000000000e+00) (0, 0, 0.00000000000000000000e+00) (0, 0, 0.00000000000000000000e+00) (0, 0, 0.00000000000000000000e+00) (0, 0, 0.00000000000000000000e+00) (0, 0, 0.00000000000000000000e+00) (0, 0, 0.00000000000000000000e+00) (0, 0, 0.00000000000000000000e+00) (0, 0, 0.00000000000000000000e+00) (0, 0, 0.00000000000000000000e+00) (0, 0, 0.00000000000000000000e+00) (0, 0, 0.00000000000000000000e+00) (0, 0, 0.00000000000000000000e+00) (0, 0, 0.00000000000000000000e+00) (0, 0, 0.00000000000000000000e+00) (0, 0, 0.00000000000000000000e+00) (0, 0, 0.00000000000000000000e+00) (0, 0, 0.00000000000000000000e+00) (0, 0, 0.00000000000000000000e+00) (0, 0, 0.00000000000000000000e+00) (0, 0, 0.00000000000000000000e+00) (0, 0, 0.00000000000000000000e+00) (0, 0, 0.00000000000000000000e+00) (0, 0, 0.00000000000000000000e+00) (0, 0, 0.00000000000000000000e+00) (0, 0, 0.00000000000000000000e+00) (0, 0, 0.00000000000000000000e+00) (0, 0, 0.00000000000000000000e+00) (0, 0, 0.00000000000000000000e+00) (0, 0, 0.00000000000000000000e+00) (0, 0, 0.00000000000000000000e+00) (0, 0, 0.00000000000000000000e+00) (0, 0, 0.00000000000000000000e+00) (0, 0, 0.00000000000000000000e+00) (0, 0, 0.00000000000000000000e+00) (0, 0, 0.00000000000000000000e+00) (0, 0, 0.00000000000000000000e+00) (0, 0, 0.00000000000000000000e+00) (0, 0, 0.00000000000000000000e+00) (0, 0, 0.00000000000000000000e+00) (0, 0, 0.00000000000000000000e+00) (0, 0, 0.00000000000000000000e+00) (0, 0, 0.00000000000000000000e+00) (0, 0, 0.00000000000000000000e+00) (0, 0, 0.00000000000000000000e+00) (0, 0, 0.00000000000000000000e+00) (0, 0, 0.00000000000000000000e+00) (0, 0, 0.00000000000000000000e+00) (0, 0, 0.00000000000000000000e+00) (0, 0, 0.00000000000000000000e+00) (0, 0, 0.00000000000000000000e+00) (0, 0, 0.00000000000000000000e+00) (0, 0, 0.00000000000000000000e+00) (0, 0, 0.00000000000000000000e+00) (0, 0, 0.00000000000000000000e+00) (0, 0, 0.00000000000000000000e+00) (0, 0, 0.00000000000000000000e+00) (0, 0, 0.00000000000000000000e+00) (0, 0, 0.00000000000000000000e+00) (0, 0, 0.00000000000000000000e+00) (0, 0, 0.00000000000000000000e+00) (0, 0, 0.00000000000000000000e+00) (0, 0, 0.00000000000000000000e+00) (0, 0, 0.00000000000000000000e+00) (0, 0, 0.00000000000000000000e+00) (0, 0, 0.00000000000000000000e+00) (0, 0, 0.00000000000000000000e+00) (0, 0, 0.00000000000000000000e+00) (0, 0, 0.00000000000000000000e+00) (0, 0, 0.00000000000000000000e+00) (0, 0, 0.00000000000000000000e+00) (0, 0, 0.00000000000000000000e+00) (0, 0, 0.00000000000000000000e+00) (0, 0, 0.00000000000000000000e+00) (0, 0, 0.00000000000000000000e+00) (0, 0, 0.00000000000000000000e+00) (0, 0, 0.00000000000000000000e+00) (0, 0, 0.00000000000000000000e+00) (0, 0, 0.00000000000000000000e+00) (0, 0, 0.00000000000000000000e+00) (0, 0, 0.00000000000000000000e+00) (0, 0, 0.00000000000000000000e+00) (0, 0, 0.00000000000000000000e+00) (0, 0, 0.00000000000000000000e+00) (0, 0, 0.00000000000000000000e+00) (0, 0, 0.00000000000000000000e+00) (0, 0, 0.00000000000000000000e+00) (0, 0, 0.00000000000000000000e+00) (0, 0, 0.00000000000000000000e+00) (0, 0, 0.00000000000000000000e+00) (0, 0, 0.00000000000000000000e+00) (0, 0, 0.00000000000000000000e+00) (0, 0, 0.00000000000000000000e+00) (0, 0, 0.00000000000000000000e+00) (0, 0, 0.00000000000000000000e+00) (0, 0, 0.00000000000000000000e+00) (0, 0, 0.00000000000000000000e+00) (0, 0, 0.00000000000000000000e+00) (0, 0, 0.00000000000000000000e+00) (0, 0, 0.00000000000000000000e+00) (0, 0, 0.00000000000000000000e+00) (0, 0, 0.00000000000000000000e+00) (0, 0, 0.00000000000000000000e+00) (0, 0, 0.00000000000000000000e+00) (0, 0, 0.00000000000000000000e+00) (0, 0, 0.00000000000000000000e+00) (0, 0, 0.00000000000000000000e+00) (0, 0, 0.00000000000000000000e+00) (0, 0, 0.00000000000000000000e+00) (0, 0, 0.00000000000000000000e+00) (0, 0, 0.00000000000000000000e+00) (0, 0, 0.00000000000000000000e+00) (0, 0, 0.00000000000000000000e+00) (0, 0, 0.00000000000000000000e+00) (0, 0, 0.00000000000000000000e+00) (0, 0, 0.00000000000000000000e+00) (0, 0, 0.00000000000000000000e+00) (0, 0, 0.00000000000000000000e+00) (0, 0, 0.00000000000000000000e+00) (0, 0, 0.00000000000000000000e+00) (0, 0, 0.00000000000000000000e+00) (0, 0, 0.00000000000000000000e+00) (0, 0, 0.00000000000000000000e+00) (0, 0, 0.00000000000000000000e+00) (0, 0, 0.00000000000000000000e+00) (0, 0, 0.00000000000000000000e+00) (0, 0, 0.00000000000000000000e+00) (0, 0, 0.00000000000000000000e+00) (0, 0, 0.00000000000000000000e+00) (0, 0, 0.00000000000000000000e+00) (0, 0, 0.00000000000000000000e+00) (0, 0, 0.00000000000000000000e+00) (0, 0, 0.00000000000000000000e+00) (0, 0, 0.00000000000000000000e+00) (0, 0, 0.00000000000000000000e+00) (0, 0, 0.00000000000000000000e+00) (0, 0, 0.00000000000000000000e+00) (0, 0, 0.00000000000000000000e+00) (0, 0, 0.00000000000000000000e+00) (0, 0, 0.00000000000000000000e+00) (0, 0, 0.00000000000000000000e+00) (0, 0, 0.00000000000000000000e+00) (0, 0, 0.00000000000000000000e+00) (0, 0, 0.00000000000000000000e+00) (0, 0, 0.00000000000000000000e+00) (0, 0, 0.00000000000000000000e+00) (0, 0, 0.00000000000000000000e+00) (0, 0, 0.00000000000000000000e+00) (0, 0, 0.00000000000000000000e+00) (0, 0, 0.00000000000000000000e+00) (0, 0, 0.00000000000000000000e+00) (0, 0, 0.00000000000000000000e+00) (0, 0, 0.00000000000000000000e+00) (0, 0, 0.00000000000000000000e+00) (0, 0, 0.00000000000000000000e+00) (0, 0, 0.00000000000000000000e+00) (0, 0, 0.00000000000000000000e+00) (0, 0, 0.00000000000000000000e+00) (0, 0, 0.00000000000000000000e+00) (0, 0, 0.00000000000000000000e+00) (0, 0, 0.00000000000000000000e+00) (0, 0, 0.00000000000000000000e+00) (0, 0, 0.00000000000000000000e+00) (0, 0, 0.00000000000000000000e+00) (0, 0, 0.00000000000000000000e+00) (0, 0, 0.00000000000000000000e+00) (0, 0, 0.00000000000000000000e+00) (0, 0, 0.00000000000000000000e+00) (0, 0, 0.00000000000000000000e+00) (0, 0, 0.00000000000000000000e+00) (0, 0, 0.00000000000000000000e+00) (0, 0, 0.00000000000000000000e+00) (0, 0, 0.00000000000000000000e+00) (0, 0, 0.00000000000000000000e+00) (0, 0, 0.00000000000000000000e+00) (0, 0, 0.00000000000000000000e+00) (0, 0, 0.00000000000000000000e+00) (0, 0, 0.00000000000000000000e+00) (0, 0, 0.00000000000000000000e+00) (0, 0, 0.00000000000000000000e+00) (0, 0, 0.00000000000000000000e+00) (0, 0, 0.00000000000000000000e+00) (0, 0, 0.00000000000000000000e+00) (0, 0, 0.00000000000000000000e+00) (0, 0, 0.00000000000000000000e+00) (0, 0, 0.00000000000000000000e+00) (0, 0, 0.00000000000000000000e+00) (0, 0, 0.00000000000000000000e+00) (0, 0, 0.00000000000000000000e+00) (0, 0, 0.00000000000000000000e+00) (0, 0, 0.00000000000000000000e+00) (0, 0, 0.00000000000000000000e+00) (0, 0, 0.00000000000000000000e+00) (0, 0, 0.00000000000000000000e+00) (0, 0, 0.00000000000000000000e+00) (0, 0, 0.00000000000000000000e+00) (0, 0, 0.00000000000000000000e+00) (0, 0, 0.00000000000000000000e+00) (0, 0, 0.00000000000000000000e+00) (0, 0, 0.00000000000000000000e+00) (0, 0, 0.00000000000000000000e+00) (0, 0, 0.00000000000000000000e+00) (0, 0, 0.00000000000000000000e+00) (0, 0, 0.00000000000000000000e+00) (0, 0, 0.00000000000000000000e+00) (0, 0, 0.00000000000000000000e+00) (0, 0, 0.00000000000000000000e+00) (0, 0, 0.00000000000000000000e+00) (0, 0, 0.00000000000000000000e+00) (0, 0, 0.00000000000000000000e+00) (0, 0, 0.00000000000000000000e+00) (0, 0, 0.00000000000000000000e+00) (0, 0, 0.00000000000000000000e+00) (0, 0, 0.00000000000000000000e+00) (0, 0, 0.00000000000000000000e+00) (0, 0, 0.00000000000000000000e+00) (0, 0, 0.00000000000000000000e+00) (0, 0, 0.00000000000000000000e+00) (0, 0, 0.00000000000000000000e+00) (0, 0, 0.00000000000000000000e+00) (0, 0, 0.00000000000000000000e+00) (0, 0, 0.00000000000000000000e+00) (0, 0, 0.00000000000000000000e+00) (0, 0, 0.00000000000000000000e+00) (0, 0, 0.00000000000000000000e+00) (0, 0, 0.00000000000000000000e+00) (0, 0, 0.00000000000000000000e+00) (0, 0, 0.00000000000000000000e+00) (0, 0, 0.00000000000000000000e+00) (0, 0, 0.00000000000000000000e+00) (0, 0, 0.00000000000000000000e+00) (0, 0, 0.00000000000000000000e+00) (0, 0, 0.00000000000000000000e+00) (0, 0, 0.00000000000000000000e+00) (0, 0, 0.00000000000000000000e+00) (0, 0, 0.00000000000000000000e+00) (0, 0, 0.00000000000000000000e+00) (0, 0, 0.00000000000000000000e+00) (0, 0, 0.00000000000000000000e+00) (0, 0, 0.00000000000000000000e+00) (0, 0, 0.00000000000000000000e+00) (0, 0, 0.00000000000000000000e+00) (0, 0, 0.00000000000000000000e+00) (0, 0, 0.00000000000000000000e+00) (0, 0, 0.00000000000000000000e+00) (0, 0, 0.00000000000000000000e+00) (0, 0, 0.00000000000000000000e+00) (0, 0, 0.00000000000000000000e+00) (0, 0, 0.00000000000000000000e+00) (0, 0, 0.00000000000000000000e+00) (0, 0, 0.00000000000000000000e+00) (0, 0, 0.00000000000000000000e+00) (0, 0, 0.00000000000000000000e+00) (0, 0, 0.00000000000000000000e+00) (0, 0, 0.00000000000000000000e+00) (0, 0, 0.00000000000000000000e+00) (0, 0, 0.00000000000000000000e+00) (0, 0, 0.00000000000000000000e+00) (0, 0, 0.00000000000000000000e+00) (0, 0, 0.00000000000000000000e+00) (0, 0, 0.00000000000000000000e+00) (0, 0, 0.00000000000000000000e+00) (0, 0, 0.00000000000000000000e+00) (0, 0, 0.00000000000000000000e+00) (0, 0, 0.00000000000000000000e+00) (301, 5, 5.00000000000000000000e-01) (301, 5, 5.00000000000000000000e-01) (0, 5, 0.00000000000000000000e+00) 
connections (connected_to_neuron, weight)=(0, 1.50000000000000000000e+03) (1, -1.58162582665681838989e-02) (2, -1.20434479322284460068e-03) (3, 2.26338999345898628235e-03) (4, 2.04739090986549854279e-03) (5, 2.23772553727030754089e-03) (6, 2.21510976552963256836e-03) (7, 1.64016976486891508102e-03) (8, 2.01990990899503231049e-03) (9, 2.47219367884099483490e-03) (10, -6.81766718626022338867e-02) (11, -8.78007896244525909424e-03) (12, 3.73448929167352616787e-05) (13, 2.47219367884099483490e-03) (14, 2.26338999345898628235e-03) (15, 2.04739090986549854279e-03) (16, 2.23772553727030754089e-03) (17, 2.21510976552963256836e-03) (18, 1.64016976486891508102e-03) (19, 2.01990990899503231049e-03) (20, 4.68909041956067085266e-03) (21, -1.33668007329106330872e-02) (22, -3.14990640617907047272e-04) (23, 2.01990990899503231049e-03) (24, 2.47219367884099483490e-03) (25, 2.26338999345898628235e-03) (26, 2.04739090986549854279e-03) (27, 2.23772553727030754089e-03) (28, 2.21510976552963256836e-03) (29, 1.64016976486891508102e-03) (30, 3.99638861417770385742e-02) (31, 4.83091548085212707520e-02) (32, -1.03479437530040740967e-03) (33, 1.64016976486891508102e-03) (34, 2.01990990899503231049e-03) (35, 2.47219367884099483490e-03) (36, 2.26338999345898628235e-03) (37, 2.04739090986549854279e-03) (38, 2.23772553727030754089e-03) (39, 2.21510976552963256836e-03) (40, 3.39529290795326232910e-02) (41, 7.34266340732574462891e-02) (42, -5.18725835718214511871e-04) (43, 2.21510976552963256836e-03) (44, 1.64016976486891508102e-03) (45, 2.01990990899503231049e-03) (46, 2.47219367884099483490e-03) (47, 2.26338999345898628235e-03) (48, 2.04739090986549854279e-03) (49, 2.23772553727030754089e-03) (50, 1.44009934738278388977e-02) (51, -2.12875492870807647705e-02) (52, -9.29127054405398666859e-06) (53, 2.23772553727030754089e-03) (54, 2.21510976552963256836e-03) (55, 1.64016976486891508102e-03) (56, 2.01990990899503231049e-03) (57, 2.47219367884099483490e-03) (58, 2.26338999345898628235e-03) (59, 2.04739090986549854279e-03) (60, -8.74453224241733551025e-03) (61, -2.47567724436521530151e-02) (62, -1.13375822547823190689e-03) (63, 2.04739090986549854279e-03) (64, 2.23772553727030754089e-03) (65, 2.21510976552963256836e-03) (66, 1.64016976486891508102e-03) (67, 2.01990990899503231049e-03) (68, 2.47219367884099483490e-03) (69, 2.26338999345898628235e-03) (70, 3.52541804313659667969e-02) (71, -6.13291654735803604126e-03) (72, -1.46936741657555103302e-03) (73, 2.26338999345898628235e-03) (74, 2.04739090986549854279e-03) (75, 2.23772553727030754089e-03) (76, 2.21510976552963256836e-03) (77, 1.64016976486891508102e-03) (78, 2.01990990899503231049e-03) (79, 2.47219367884099483490e-03) (80, 3.05817052721977233887e-02) (81, 2.99010029993951320648e-03) (82, 1.23179168440401554108e-03) (83, 2.47219367884099483490e-03) (84, 2.26338999345898628235e-03) (85, 2.04739090986549854279e-03) (86, 2.23772553727030754089e-03) (87, 2.21510976552963256836e-03) (88, 1.64016976486891508102e-03) (89, 2.01990990899503231049e-03) (90, 5.59014938771724700928e-02) (91, 4.42494787275791168213e-02) (92, -2.09055794402956962585e-03) (93, 2.01990990899503231049e-03) (94, 2.47219367884099483490e-03) (95, 2.26338999345898628235e-03) (96, 2.04739090986549854279e-03) (97, 2.23772553727030754089e-03) (98, 2.21510976552963256836e-03) (99, 1.64016976486891508102e-03) (100, -4.12254668772220611572e-02) (101, -1.20652224868535995483e-02) (102, -2.68290401436388492584e-03) (103, 1.64016976486891508102e-03) (104, 2.01990990899503231049e-03) (105, 2.47219367884099483490e-03) (106, 2.26338999345898628235e-03) (107, 2.04739090986549854279e-03) (108, 2.23772553727030754089e-03) (109, 2.21510976552963256836e-03) (110, 9.26190149039030075073e-03) (111, 2.38282140344381332397e-02) (112, -3.49515175912529230118e-04) (113, 2.21510976552963256836e-03) (114, 1.64016976486891508102e-03) (115, 2.01990990899503231049e-03) (116, 2.47219367884099483490e-03) (117, 2.26338999345898628235e-03) (118, 2.04739090986549854279e-03) (119, 2.23772553727030754089e-03) (120, -3.26728485524654388428e-02) (121, -4.87952902913093566895e-02) (122, 3.53624974377453327179e-03) (123, 2.23772553727030754089e-03) (124, 2.21510976552963256836e-03) (125, 1.64016976486891508102e-03) (126, 2.01990990899503231049e-03) (127, 2.47219367884099483490e-03) (128, 2.26338999345898628235e-03) (129, 2.04739090986549854279e-03) (130, 4.21542152762413024902e-02) (131, 2.82234009355306625366e-02) (132, -7.93315377086400985718e-03) (133, 2.04739090986549854279e-03) (134, 2.23772553727030754089e-03) (135, 2.21510976552963256836e-03) (136, 1.64016976486891508102e-03) (137, 2.01990990899503231049e-03) (138, 2.47219367884099483490e-03) (139, 2.26338999345898628235e-03) (140, 1.22755498159676790237e-03) (141, 3.50299999117851257324e-02) (142, 2.33863224275410175323e-03) (143, 2.26338999345898628235e-03) (144, 2.04739090986549854279e-03) (145, 2.23772553727030754089e-03) (146, 2.21510976552963256836e-03) (147, 1.64016976486891508102e-03) (148, 2.01990990899503231049e-03) (149, 2.47219367884099483490e-03) (150, -3.10893617570400238037e-02) (151, -5.32532706856727600098e-02) (152, 1.93147640675306320190e-03) (153, 2.47219367884099483490e-03) (154, 2.26338999345898628235e-03) (155, 2.04739090986549854279e-03) (156, 2.23772553727030754089e-03) (157, 2.21510976552963256836e-03) (158, 1.64016976486891508102e-03) (159, 2.01990990899503231049e-03) (160, 1.30489068105816841125e-02) (161, -1.61734391003847122192e-02) (162, -1.38923141639679670334e-03) (163, 2.01990990899503231049e-03) (164, 2.47219367884099483490e-03) (165, 2.26338999345898628235e-03) (166, 2.04739090986549854279e-03) (167, 2.23772553727030754089e-03) (168, 2.21510976552963256836e-03) (169, 1.64016976486891508102e-03) (170, -3.19474600255489349365e-02) (171, 2.04745102673768997192e-02) (172, -1.92301371134817600250e-03) (173, 1.64016976486891508102e-03) (174, 2.01990990899503231049e-03) (175, 2.47219367884099483490e-03) (176, 2.26338999345898628235e-03) (177, 2.04739090986549854279e-03) (178, 2.23772553727030754089e-03) (179, 2.21510976552963256836e-03) (180, -4.93802055716514587402e-02) (181, -2.91384458541870117188e-02) (182, -1.95176934357732534409e-03) (183, 2.21510976552963256836e-03) (184, 1.64016976486891508102e-03) (185, 2.01990990899503231049e-03) (186, 2.47219367884099483490e-03) (187, 2.26338999345898628235e-03) (188, 2.04739090986549854279e-03) (189, 2.23772553727030754089e-03) (190, -7.67204095609486103058e-04) (191, -8.03395546972751617432e-03) (192, 3.12053889501839876175e-04) (193, 2.23772553727030754089e-03) (194, 2.21510976552963256836e-03) (195, 1.64016976486891508102e-03) (196, 2.01990990899503231049e-03) (197, 2.47219367884099483490e-03) (198, 2.26338999345898628235e-03) (199, 2.04739090986549854279e-03) (200, 5.12095578014850616455e-02) (201, 3.84109094738960266113e-02) (202, -4.17935056611895561218e-03) (203, 2.04739090986549854279e-03) (204, 2.23772553727030754089e-03) (205, 2.21510976552963256836e-03) (206, 1.64016976486891508102e-03) (207, 2.01990990899503231049e-03) (208, 2.47219367884099483490e-03) (209, 2.26338999345898628235e-03) (210, 3.56308780610561370850e-02) (211, 2.31678616255521774292e-02) (212, -1.47140223998576402664e-03) (213, 2.26338999345898628235e-03) (214, 2.04739090986549854279e-03) (215, 2.23772553727030754089e-03) (216, 2.21510976552963256836e-03) (217, 1.64016976486891508102e-03) (218, 2.01990990899503231049e-03) (219, 2.47219367884099483490e-03) (220, 1.22231282293796539307e-02) (221, -8.77102278172969818115e-03) (222, 5.25169819593429565430e-03) (223, 2.47219367884099483490e-03) (224, 2.26338999345898628235e-03) (225, 2.04739090986549854279e-03) (226, 2.23772553727030754089e-03) (227, 2.21510976552963256836e-03) (228, 1.64016976486891508102e-03) (229, 2.01990990899503231049e-03) (230, 3.42362970113754272461e-02) (231, 1.83041915297508239746e-02) (232, -6.32653172942809760571e-05) (233, 2.01990990899503231049e-03) (234, 2.47219367884099483490e-03) (235, 2.26338999345898628235e-03) (236, 2.04739090986549854279e-03) (237, 2.23772553727030754089e-03) (238, 2.21510976552963256836e-03) (239, 1.64016976486891508102e-03) (240, 1.68344061821699142456e-02) (241, -1.56772416085004806519e-02) (242, -2.64899688772857189178e-03) (243, 1.64016976486891508102e-03) (244, 2.01990990899503231049e-03) (245, 2.47219367884099483490e-03) (246, 2.26338999345898628235e-03) (247, 2.04739090986549854279e-03) (248, 2.23772553727030754089e-03) (249, 2.21510976552963256836e-03) (250, -4.44194674491882324219e-02) (251, -2.08309907466173171997e-02) (252, -2.75597965810447931290e-04) (253, 2.21510976552963256836e-03) (254, 1.64016976486891508102e-03) (255, 2.01990990899503231049e-03) (256, 2.47219367884099483490e-03) (257, 2.26338999345898628235e-03) (258, 2.04739090986549854279e-03) (259, 2.23772553727030754089e-03) (260, 3.01209446042776107788e-02) (261, 1.30235198885202407837e-02) (262, 2.15775007382035255432e-03) (263, 2.23772553727030754089e-03) (264, 2.21510976552963256836e-03) (265, 1.64016976486891508102e-03) (266, 2.01990990899503231049e-03) (267, 2.47219367884099483490e-03) (268, 2.26338999345898628235e-03) (269, 2.04739090986549854279e-03) (270, 2.00636163353919982910e-02) (271, -9.99753922224044799805e-03) (272, -2.98752542585134506226e-03) (273, 2.04739090986549854279e-03) (274, 2.23772553727030754089e-03) (275, 2.21510976552963256836e-03) (276, 1.64016976486891508102e-03) (277, 2.01990990899503231049e-03) (278, 2.47219367884099483490e-03) (279, 2.26338999345898628235e-03) (280, 9.22418758273124694824e-03) (281, 4.78473715484142303467e-02) (282, 1.19367694423999637365e-04) (283, 2.26338999345898628235e-03) (284, 2.04739090986549854279e-03) (285, 2.23772553727030754089e-03) (286, 2.21510976552963256836e-03) (287, 1.64016976486891508102e-03) (288, 2.01990990899503231049e-03) (289, 2.47219367884099483490e-03) (290, -1.72528077382594347000e-03) (291, -4.79827411472797393799e-02) (292, -2.20002909190952777863e-03) (293, 2.47219367884099483490e-03) (294, 2.26338999345898628235e-03) (295, 2.04739090986549854279e-03) (296, 2.23772553727030754089e-03) (297, 2.21510976552963256836e-03) (298, 1.64016976486891508102e-03) (299, 2.01990990899503231049e-03) (300, -5.30645437538623809814e-02) (0, 1.50000000000000000000e+03) (1, 1.47935925051569938660e-02) (2, -4.13677468895912170410e-03) (3, 1.09500521793961524963e-02) (4, 1.09264403581619262695e-02) (5, 1.07245361432433128357e-02) (6, 1.09462682157754898071e-02) (7, 1.07519989833235740662e-02) (8, 1.08588561415672302246e-02) (9, 1.06421569362282752991e-02) (10, 1.99530459940433502197e-03) (11, 6.54224446043372154236e-03) (12, 3.94716439768671989441e-03) (13, 1.06421569362282752991e-02) (14, 1.09500521793961524963e-02) (15, 1.09264403581619262695e-02) (16, 1.07245361432433128357e-02) (17, 1.09462682157754898071e-02) (18, 1.07519989833235740662e-02) (19, 1.08588561415672302246e-02) (20, -3.17526608705520629883e-02) (21, -1.10504291951656341553e-02) (22, -3.13059845939278602600e-03) (23, 1.08588561415672302246e-02) (24, 1.06421569362282752991e-02) (25, 1.09500521793961524963e-02) (26, 1.09264403581619262695e-02) (27, 1.07245361432433128357e-02) (28, 1.09462682157754898071e-02) (29, 1.07519989833235740662e-02) (30, -5.80795444548130035400e-02) (31, -3.17558669485151767731e-03) (32, -1.07657257467508316040e-03) (33, 1.07519989833235740662e-02) (34, 1.08588561415672302246e-02) (35, 1.06421569362282752991e-02) (36, 1.09500521793961524963e-02) (37, 1.09264403581619262695e-02) (38, 1.07245361432433128357e-02) (39, 1.09462682157754898071e-02) (40, -5.10875657200813293457e-02) (41, -4.52024750411510467529e-02) (42, -1.60630210302770137787e-03) (43, 1.09462682157754898071e-02) (44, 1.07519989833235740662e-02) (45, 1.08588561415672302246e-02) (46, 1.06421569362282752991e-02) (47, 1.09500521793961524963e-02) (48, 1.09264403581619262695e-02) (49, 1.07245361432433128357e-02) (50, -4.33540716767311096191e-02) (51, -4.94305230677127838135e-02) (52, 6.14274002145975828171e-04) (53, 1.07245361432433128357e-02) (54, 1.09462682157754898071e-02) (55, 1.07519989833235740662e-02) (56, 1.08588561415672302246e-02) (57, 1.06421569362282752991e-02) (58, 1.09500521793961524963e-02) (59, 1.09264403581619262695e-02) (60, -7.17521235346794128418e-02) (61, -1.23335178941488265991e-02) (62, -4.76044416427612304688e-03) (63, 1.09264403581619262695e-02) (64, 1.07245361432433128357e-02) (65, 1.09462682157754898071e-02) (66, 1.07519989833235740662e-02) (67, 1.08588561415672302246e-02) (68, 1.06421569362282752991e-02) (69, 1.09500521793961524963e-02) (70, 1.76299270242452621460e-02) (71, 6.68656602501869201660e-02) (72, 2.23788456059992313385e-03) (73, 1.09500521793961524963e-02) (74, 1.09264403581619262695e-02) (75, 1.07245361432433128357e-02) (76, 1.09462682157754898071e-02) (77, 1.07519989833235740662e-02) (78, 1.08588561415672302246e-02) (79, 1.06421569362282752991e-02) (80, -9.05112028121948242188e-02) (81, 5.22654093801975250244e-02) (82, -9.82502941042184829712e-04) (83, 1.06421569362282752991e-02) (84, 1.09500521793961524963e-02) (85, 1.09264403581619262695e-02) (86, 1.07245361432433128357e-02) (87, 1.09462682157754898071e-02) (88, 1.07519989833235740662e-02) (89, 1.08588561415672302246e-02) (90, -4.00996208190917968750e-02) (91, -5.52754439413547515869e-02) (92, -7.59193266276270151138e-04) (93, 1.08588561415672302246e-02) (94, 1.06421569362282752991e-02) (95, 1.09500521793961524963e-02) (96, 1.09264403581619262695e-02) (97, 1.07245361432433128357e-02) (98, 1.09462682157754898071e-02) (99, 1.07519989833235740662e-02) (100, -4.14617359638214111328e-02) (101, 5.27976155281066894531e-02) (102, 2.46825465001165866852e-03) (103, 1.07519989833235740662e-02) (104, 1.08588561415672302246e-02) (105, 1.06421569362282752991e-02) (106, 1.09500521793961524963e-02) (107, 1.09264403581619262695e-02) (108, 1.07245361432433128357e-02) (109, 1.09462682157754898071e-02) (110, 7.12148286402225494385e-03) (111, 1.07254516333341598511e-02) (112, -2.72618210874497890472e-03) (113, 1.09462682157754898071e-02) (114, 1.07519989833235740662e-02) (115, 1.08588561415672302246e-02) (116, 1.06421569362282752991e-02) (117, 1.09500521793961524963e-02) (118, 1.09264403581619262695e-02) (119, 1.07245361432433128357e-02) (120, 6.85702189803123474121e-02) (121, 5.71481361985206604004e-02) (122, -2.26542283780872821808e-03) (123, 1.07245361432433128357e-02) (124, 1.09462682157754898071e-02) (125, 1.07519989833235740662e-02) (126, 1.08588561415672302246e-02) (127, 1.06421569362282752991e-02) (128, 1.09500521793961524963e-02) (129, 1.09264403581619262695e-02) (130, 4.71091270446777343750e-02) (131, -1.70849217101931571960e-03) (132, 3.28489439561963081360e-03) (133, 1.09264403581619262695e-02) (134, 1.07245361432433128357e-02) (135, 1.09462682157754898071e-02) (136, 1.07519989833235740662e-02) (137, 1.08588561415672302246e-02) (138, 1.06421569362282752991e-02) (139, 1.09500521793961524963e-02) (140, 3.35947312414646148682e-02) (141, -1.69308762997388839722e-02) (142, -4.32634446769952774048e-03) (143, 1.09500521793961524963e-02) (144, 1.09264403581619262695e-02) (145, 1.07245361432433128357e-02) (146, 1.09462682157754898071e-02) (147, 1.07519989833235740662e-02) (148, 1.08588561415672302246e-02) (149, 1.06421569362282752991e-02) (150, 1.39553900808095932007e-02) (151, 2.44935173541307449341e-02) (152, 1.21240084990859031677e-03) (153, 1.06421569362282752991e-02) (154, 1.09500521793961524963e-02) (155, 1.09264403581619262695e-02) (156, 1.07245361432433128357e-02) (157, 1.09462682157754898071e-02) (158, 1.07519989833235740662e-02) (159, 1.08588561415672302246e-02) (160, -1.03879712522029876709e-01) (161, -2.30761375278234481812e-02) (162, -2.94222030788660049438e-03) (163, 1.08588561415672302246e-02) (164, 1.06421569362282752991e-02) (165, 1.09500521793961524963e-02) (166, 1.09264403581619262695e-02) (167, 1.07245361432433128357e-02) (168, 1.09462682157754898071e-02) (169, 1.07519989833235740662e-02) (170, -1.13869560882449150085e-02) (171, 8.05683527141809463501e-03) (172, -5.82680804654955863953e-04) (173, 1.07519989833235740662e-02) (174, 1.08588561415672302246e-02) (175, 1.06421569362282752991e-02) (176, 1.09500521793961524963e-02) (177, 1.09264403581619262695e-02) (178, 1.07245361432433128357e-02) (179, 1.09462682157754898071e-02) (180, 2.50751189887523651123e-02) (181, -9.63470619171857833862e-03) (182, -4.22490993514657020569e-04) (183, 1.09462682157754898071e-02) (184, 1.07519989833235740662e-02) (185, 1.08588561415672302246e-02) (186, 1.06421569362282752991e-02) (187, 1.09500521793961524963e-02) (188, 1.09264403581619262695e-02) (189, 1.07245361432433128357e-02) (190, 7.89133179932832717896e-03) (191, -3.39003454428166151047e-04) (192, -1.39958434738218784332e-03) (193, 1.07245361432433128357e-02) (194, 1.09462682157754898071e-02) (195, 1.07519989833235740662e-02) (196, 1.08588561415672302246e-02) (197, 1.06421569362282752991e-02) (198, 1.09500521793961524963e-02) (199, 1.09264403581619262695e-02) (200, -2.13966239243745803833e-02) (201, 6.54451921582221984863e-02) (202, -1.20937905739992856979e-03) (203, 1.09264403581619262695e-02) (204, 1.07245361432433128357e-02) (205, 1.09462682157754898071e-02) (206, 1.07519989833235740662e-02) (207, 1.08588561415672302246e-02) (208, 1.06421569362282752991e-02) (209, 1.09500521793961524963e-02) (210, 1.86668112874031066895e-02) (211, -6.01417035795748233795e-04) (212, 3.92929976806044578552e-03) (213, 1.09500521793961524963e-02) (214, 1.09264403581619262695e-02) (215, 1.07245361432433128357e-02) (216, 1.09462682157754898071e-02) (217, 1.07519989833235740662e-02) (218, 1.08588561415672302246e-02) (219, 1.06421569362282752991e-02) (220, -1.12350352108478546143e-01) (221, 1.83924566954374313354e-02) (222, -8.28088819980621337891e-03) (223, 1.06421569362282752991e-02) (224, 1.09500521793961524963e-02) (225, 1.09264403581619262695e-02) (226, 1.07245361432433128357e-02) (227, 1.09462682157754898071e-02) (228, 1.07519989833235740662e-02) (229, 1.08588561415672302246e-02) (230, -4.46980781853199005127e-02) (231, 8.26031994074583053589e-03) (232, 4.73855296149849891663e-03) (233, 1.08588561415672302246e-02) (234, 1.06421569362282752991e-02) (235, 1.09500521793961524963e-02) (236, 1.09264403581619262695e-02) (237, 1.07245361432433128357e-02) (238, 1.09462682157754898071e-02) (239, 1.07519989833235740662e-02) (240, -6.40894621610641479492e-02) (241, 5.50298718735575675964e-03) (242, -1.84067757800221443176e-03) (243, 1.07519989833235740662e-02) (244, 1.08588561415672302246e-02) (245, 1.06421569362282752991e-02) (246, 1.09500521793961524963e-02) (247, 1.09264403581619262695e-02) (248, 1.07245361432433128357e-02) (249, 1.09462682157754898071e-02) (250, 5.32167479395866394043e-02) (251, 5.43046221137046813965e-02) (252, 5.39253524038940668106e-05) (253, 1.09462682157754898071e-02) (254, 1.07519989833235740662e-02) (255, 1.08588561415672302246e-02) (256, 1.06421569362282752991e-02) (257, 1.09500521793961524963e-02) (258, 1.09264403581619262695e-02) (259, 1.07245361432433128357e-02) (260, -2.88511514663696289062e-02) (261, 4.60125841200351715088e-02) (262, -9.63741447776556015015e-04) (263, 1.07245361432433128357e-02) (264, 1.09462682157754898071e-02) (265, 1.07519989833235740662e-02) (266, 1.08588561415672302246e-02) (267, 1.06421569362282752991e-02) (268, 1.09500521793961524963e-02) (269, 1.09264403581619262695e-02) (270, 1.57304666936397552490e-02) (271, 1.81070826947689056396e-02) (272, -4.96894470416009426117e-04) (273, 1.09264403581619262695e-02) (274, 1.07245361432433128357e-02) (275, 1.09462682157754898071e-02) (276, 1.07519989833235740662e-02) (277, 1.08588561415672302246e-02) (278, 1.06421569362282752991e-02) (279, 1.09500521793961524963e-02) (280, -3.60167883336544036865e-02) (281, 1.23102841898798942566e-02) (282, 2.60284869000315666199e-04) (283, 1.09500521793961524963e-02) (284, 1.09264403581619262695e-02) (285, 1.07245361432433128357e-02) (286, 1.09462682157754898071e-02) (287, 1.07519989833235740662e-02) (288, 1.08588561415672302246e-02) (289, 1.06421569362282752991e-02) (290, -1.43243625760078430176e-01) (291, 2.66473069787025451660e-02) (292, 5.74523059185594320297e-04) (293, 1.06421569362282752991e-02) (294, 1.09500521793961524963e-02) (295, 1.09264403581619262695e-02) (296, 1.07245361432433128357e-02) (297, 1.09462682157754898071e-02) (298, 1.07519989833235740662e-02) (299, 1.08588561415672302246e-02) (300, -3.18787276744842529297e-01) 
