FANN_FLO_2.1
num_layers=2
learning_rate=0.700000
connection_rate=1.000000
network_type=0
learning_momentum=0.000000
training_algorithm=2
train_error_function=0
train_stop_function=0
cascade_output_change_fraction=0.010000
quickprop_decay=-0.000100
quickprop_mu=1.750000
rprop_increase_factor=1.200000
rprop_decrease_factor=0.500000
rprop_delta_min=0.000000
rprop_delta_max=50.000000
rprop_delta_zero=0.100000
cascade_output_stagnation_epochs=12
cascade_candidate_change_fraction=0.010000
cascade_candidate_stagnation_epochs=12
cascade_max_out_epochs=150
cascade_min_out_epochs=50
cascade_max_cand_epochs=150
cascade_min_cand_epochs=50
cascade_num_candidate_groups=2
bit_fail_limit=3.49999994039535522461e-01
cascade_candidate_limit=1.00000000000000000000e+03
cascade_weight_multiplier=4.00000005960464477539e-01
cascade_activation_functions_count=10
cascade_activation_functions=3 5 7 8 10 11 14 15 16 17 
cascade_activation_steepnesses_count=4
cascade_activation_steepnesses=2.50000000000000000000e-01 5.00000000000000000000e-01 7.50000000000000000000e-01 1.00000000000000000000e+00 
layer_sizes=301 3 
scale_included=0
neurons (num_inputs, activation_function, activation_steepness)=(0, 0, 0.00000000000000000000e+00) (0, 0, 0.00000000000000000000e+00) (0, 0, 0.00000000000000000000e+00) (0, 0, 0.00000000000000000000e+00) (0, 0, 0.00000000000000000000e+00) (0, 0, 0.00000000000000000000e+00) (0, 0, 0.00000000000000000000e+00) (0, 0, 0.00000000000000000000e+00) (0, 0, 0.00000000000000000000e+00) (0, 0, 0.00000000000000000000e+00) (0, 0, 0.00000000000000000000e+00) (0, 0, 0.00000000000000000000e+00) (0, 0, 0.00000000000000000000e+00) (0, 0, 0.00000000000000000000e+00) (0, 0, 0.00000000000000000000e+00) (0, 0, 0.00000000000000000000e+00) (0, 0, 0.00000000000000000000e+00) (0, 0, 0.00000000000000000000e+00) (0, 0, 0.00000000000000000000e+00) (0, 0, 0.00000000000000000000e+00) (0, 0, 0.00000000000000000000e+00) (0, 0, 0.00000000000000000000e+00) (0, 0, 0.00000000000000000000e+00) (0, 0, 0.00000000000000000000e+00) (0, 0, 0.00000000000000000000e+00) (0, 0, 0.00000000000000000000e+00) (0, 0, 0.00000000000000000000e+00) (0, 0, 0.00000000000000000000e+00) (0, 0, 0.00000000000000000000e+00) (0, 0, 0.00000000000000000000e+00) (0, 0, 0.00000000000000000000e+00) (0, 0, 0.00000000000000000000e+00) (0, 0, 0.00000000000000000000e+00) (0, 0, 0.00000000000000000000e+00) (0, 0, 0.00000000000000000000e+00) (0, 0, 0.00000000000000000000e+00) (0, 0, 0.00000000000000000000e+00) (0, 0, 0.00000000000000000000e+00) (0, 0, 0.00000000000000000000e+00) (0, 0, 0.00000000000000000000e+00) (0, 0, 0.00000000000000000000e+00) (0, 0, 0.00000000000000000000e+00) (0, 0, 0.00000000000000000000e+00) (0, 0, 0.00000000000000000000e+00) (0, 0, 0.00000000000000000000e+00) (0, 0, 0.00000000000000000000e+00) (0, 0, 0.00000000000000000000e+00) (0, 0, 0.00000000000000000000e+00) (0, 0, 0.00000000000000000000e+00) (0, 0, 0.00000000000000000000e+00) (0, 0, 0.00000000000000000000e+00) (0, 0, 0.00000000000000000000e+00) (0, 0, 0.00000000000000000000e+00) (0, 0, 0.00000000000000000000e+00) (0, 0, 0.00000000000000000000e+00) (0, 0, 0.00000000000000000000e+00) (0, 0, 0.00000000000000000000e+00) (0, 0, 0.00000000000000000000e+00) (0, 0, 0.00000000000000000000e+00) (0, 0, 0.00000000000000000000e+00) (0, 0, 0.00000000000000000000e+00) (0, 0, 0.00000000000000000000e+00) (0, 0, 0.00000000000000000000e+00) (0, 0, 0.00000000000000000000e+00) (0, 0, 0.00000000000000000000e+00) (0, 0, 0.00000000000000000000e+00) (0, 0, 0.00000000000000000000e+00) (0, 0, 0.00000000000000000000e+00) (0, 0, 0.00000000000000000000e+00) (0, 0, 0.00000000000000000000e+00) (0, 0, 0.00000000000000000000e+00) (0, 0, 0.00000000000000000000e+00) (0, 0, 0.00000000000000000000e+00) (0, 0, 0.00000000000000000000e+00) (0, 0, 0.00000000000000000000e+00) (0, 0, 0.00000000000000000000e+00) (0, 0, 0.00000000000000000000e+00) (0, 0, 0.00000000000000000000e+00) (0, 0, 0.00000000000000000000e+00) (0, 0, 0.00000000000000000000e+00) (0, 0, 0.00000000000000000000e+00) (0, 0, 0.00000000000000000000e+00) (0, 0, 0.00000000000000000000e+00) (0, 0, 0.00000000000000000000e+00) (0, 0, 0.00000000000000000000e+00) (0, 0, 0.00000000000000000000e+00) (0, 0, 0.00000000000000000000e+00) (0, 0, 0.00000000000000000000e+00) (0, 0, 0.00000000000000000000e+00) (0, 0, 0.00000000000000000000e+00) (0, 0, 0.00000000000000000000e+00) (0, 0, 0.00000000000000000000e+00) (0, 0, 0.00000000000000000000e+00) (0, 0, 0.00000000000000000000e+00) (0, 0, 0.00000000000000000000e+00) (0, 0, 0.00000000000000000000e+00) (0, 0, 0.00000000000000000000e+00) (0, 0, 0.00000000000000000000e+00) (0, 0, 0.00000000000000000000e+00) (0, 0, 0.00000000000000000000e+00) (0, 0, 0.00000000000000000000e+00) (0, 0, 0.00000000000000000000e+00) (0, 0, 0.00000000000000000000e+00) (0, 0, 0.00000000000000000000e+00) (0, 0, 0.00000000000000000000e+00) (0, 0, 0.00000000000000000000e+00) (0, 0, 0.00000000000000000000e+00) (0, 0, 0.00000000000000000000e+00) (0, 0, 0.00000000000000000000e+00) (0, 0, 0.00000000000000000000e+00) (0, 0, 0.00000000000000000000e+00) (0, 0, 0.00000000000000000000e+00) (0, 0, 0.00000000000000000000e+00) (0, 0, 0.00000000000000000000e+00) (0, 0, 0.00000000000000000000e+00) (0, 0, 0.00000000000000000000e+00) (0, 0, 0.00000000000000000000e+00) (0, 0, 0.00000000000000000000e+00) (0, 0, 0.00000000000000000000e+00) (0, 0, 0.00000000000000000000e+00) (0, 0, 0.00000000000000000000e+00) (0, 0, 0.00000000000000000000e+00) (0, 0, 0.00000000000000000000e+00) (0, 0, 0.00000000000000000000e+00) (0, 0, 0.00000000000000000000e+00) (0, 0, 0.00000000000000000000e+00) (0, 0, 0.00000000000000000000e+00) (0, 0, 0.00000000000000000000e+00) (0, 0, 0.00000000000000000000e+00) (0, 0, 0.00000000000000000000e+00) (0, 0, 0.00000000000000000000e+00) (0, 0, 0.00000000000000000000e+00) (0, 0, 0.00000000000000000000e+00) (0, 0, 0.00000000000000000000e+00) (0, 0, 0.00000000000000000000e+00) (0, 0, 0.00000000000000000000e+00) (0, 0, 0.00000000000000000000e+00) (0, 0, 0.00000000000000000000e+00) (0, 0, 0.00000000000000000000e+00) (0, 0, 0.00000000000000000000e+00) (0, 0, 0.00000000000000000000e+00) (0, 0, 0.00000000000000000000e+00) (0, 0, 0.00000000000000000000e+00) (0, 0, 0.00000000000000000000e+00) (0, 0, 0.00000000000000000000e+00) (0, 0, 0.00000000000000000000e+00) (0, 0, 0.00000000000000000000e+00) (0, 0, 0.00000000000000000000e+00) (0, 0, 0.00000000000000000000e+00) (0, 0, 0.00000000000000000000e+00) (0, 0, 0.00000000000000000000e+00) (0, 0, 0.00000000000000000000e+00) (0, 0, 0.00000000000000000000e+00) (0, 0, 0.00000000000000000000e+00) (0, 0, 0.00000000000000000000e+00) (0, 0, 0.00000000000000000000e+00) (0, 0, 0.00000000000000000000e+00) (0, 0, 0.00000000000000000000e+00) (0, 0, 0.00000000000000000000e+00) (0, 0, 0.00000000000000000000e+00) (0, 0, 0.00000000000000000000e+00) (0, 0, 0.00000000000000000000e+00) (0, 0, 0.00000000000000000000e+00) (0, 0, 0.00000000000000000000e+00) (0, 0, 0.00000000000000000000e+00) (0, 0, 0.00000000000000000000e+00) (0, 0, 0.00000000000000000000e+00) (0, 0, 0.00000000000000000000e+00) (0, 0, 0.00000000000000000000e+00) (0, 0, 0.00000000000000000000e+00) (0, 0, 0.00000000000000000000e+00) (0, 0, 0.00000000000000000000e+00) (0, 0, 0.00000000000000000000e+00) (0, 0, 0.00000000000000000000e+00) (0, 0, 0.00000000000000000000e+00) (0, 0, 0.00000000000000000000e+00) (0, 0, 0.00000000000000000000e+00) (0, 0, 0.00000000000000000000e+00) (0, 0, 0.00000000000000000000e+00) (0, 0, 0.00000000000000000000e+00) (0, 0, 0.00000000000000000000e+00) (0, 0, 0.00000000000000000000e+00) (0, 0, 0.00000000000000000000e+00) (0, 0, 0.00000000000000000000e+00) (0, 0, 0.00000000000000000000e+00) (0, 0, 0.00000000000000000000e+00) (0, 0, 0.00000000000000000000e+00) (0, 0, 0.00000000000000000000e+00) (0, 0, 0.00000000000000000000e+00) (0, 0, 0.00000000000000000000e+00) (0, 0, 0.00000000000000000000e+00) (0, 0, 0.00000000000000000000e+00) (0, 0, 0.00000000000000000000e+00) (0, 0, 0.00000000000000000000e+00) (0, 0, 0.00000000000000000000e+00) (0, 0, 0.00000000000000000000e+00) (0, 0, 0.00000000000000000000e+00) (0, 0, 0.00000000000000000000e+00) (0, 0, 0.00000000000000000000e+00) (0, 0, 0.00000000000000000000e+00) (0, 0, 0.00000000000000000000e+00) (0, 0, 0.00000000000000000000e+00) (0, 0, 0.00000000000000000000e+00) (0, 0, 0.00000000000000000000e+00) (0, 0, 0.00000000000000000000e+00) (0, 0, 0.00000000000000000000e+00) (0, 0, 0.00000000000000000000e+00) (0, 0, 0.00000000000000000000e+00) (0, 0, 0.00000000000000000000e+00) (0, 0, 0.00000000000000000000e+00) (0, 0, 0.00000000000000000000e+00) (0, 0, 0.00000000000000000000e+00) (0, 0, 0.00000000000000000000e+00) (0, 0, 0.00000000000000000000e+00) (0, 0, 0.00000000000000000000e+00) (0, 0, 0.00000000000000000000e+00) (0, 0, 0.00000000000000000000e+00) (0, 0, 0.00000000000000000000e+00) (0, 0, 0.00000000000000000000e+00) (0, 0, 0.00000000000000000000e+00) (0, 0, 0.00000000000000000000e+00) (0, 0, 0.00000000000000000000e+00) (0, 0, 0.00000000000000000000e+00) (0, 0, 0.00000000000000000000e+00) (0, 0, 0.00000000000000000000e+00) (0, 0, 0.00000000000000000000e+00) (0, 0, 0.00000000000000000000e+00) (0, 0, 0.00000000000000000000e+00) (0, 0, 0.00000000000000000000e+00) (0, 0, 0.00000000000000000000e+00) (0, 0, 0.00000000000000000000e+00) (0, 0, 0.00000000000000000000e+00) (0, 0, 0.00000000000000000000e+00) (0, 0, 0.00000000000000000000e+00) (0, 0, 0.00000000000000000000e+00) (0, 0, 0.00000000000000000000e+00) (0, 0, 0.00000000000000000000e+00) (0, 0, 0.00000000000000000000e+00) (0, 0, 0.00000000000000000000e+00) (0, 0, 0.00000000000000000000e+00) (0, 0, 0.00000000000000000000e+00) (0, 0, 0.00000000000000000000e+00) (0, 0, 0.00000000000000000000e+00) (0, 0, 0.00000000000000000000e+00) (0, 0, 0.00000000000000000000e+00) (0, 0, 0.00000000000000000000e+00) (0, 0, 0.00000000000000000000e+00) (0, 0, 0.00000000000000000000e+00) (0, 0, 0.00000000000000000000e+00) (0, 0, 0.00000000000000000000e+00) (0, 0, 0.00000000000000000000e+00) (0, 0, 0.00000000000000000000e+00) (0, 0, 0.00000000000000000000e+00) (0, 0, 0.00000000000000000000e+00) (0, 0, 0.00000000000000000000e+00) (0, 0, 0.00000000000000000000e+00) (0, 0, 0.00000000000000000000e+00) (0, 0, 0.00000000000000000000e+00) (0, 0, 0.00000000000000000000e+00) (0, 0, 0.00000000000000000000e+00) (0, 0, 0.00000000000000000000e+00) (0, 0, 0.00000000000000000000e+00) (0, 0, 0.00000000000000000000e+00) (0, 0, 0.00000000000000000000e+00) (0, 0, 0.00000000000000000000e+00) (0, 0, 0.00000000000000000000e+00) (0, 0, 0.00000000000000000000e+00) (0, 0, 0.00000000000000000000e+00) (0, 0, 0.00000000000000000000e+00) (0, 0, 0.00000000000000000000e+00) (0, 0, 0.00000000000000000000e+00) (0, 0, 0.00000000000000000000e+00) (0, 0, 0.00000000000000000000e+00) (0, 0, 0.00000000000000000000e+00) (0, 0, 0.00000000000000000000e+00) (0, 0, 0.00000000000000000000e+00) (0, 0, 0.00000000000000000000e+00) (0, 0, 0.00000000000000000000e+00) (0, 0, 0.00000000000000000000e+00) (0, 0, 0.00000000000000000000e+00) (0, 0, 0.00000000000000000000e+00) (0, 0, 0.00000000000000000000e+00) (0, 0, 0.00000000000000000000e+00) (0, 0, 0.00000000000000000000e+00) (0, 0, 0.00000000000000000000e+00) (0, 0, 0.00000000000000000000e+00) (0, 0, 0.00000000000000000000e+00) (0, 0, 0.00000000000000000000e+00) (0, 0, 0.00000000000000000000e+00) (0, 0, 0.00000000000000000000e+00) (0, 0, 0.00000000000000000000e+00) (0, 0, 0.00000000000000000000e+00) (0, 0, 0.00000000000000000000e+00) (0, 0, 0.00000000000000000000e+00) (0, 0, 0.00000000000000000000e+00) (0, 0, 0.00000000000000000000e+00) (0, 0, 0.00000000000000000000e+00) (0, 0, 0.00000000000000000000e+00) (0, 0, 0.00000000000000000000e+00) (0, 0, 0.00000000000000000000e+00) (0, 0, 0.00000000000000000000e+00) (301, 5, 5.00000000000000000000e-01) (301, 5, 5.00000000000000000000e-01) (0, 5, 0.00000000000000000000e+00) 
connections (connected_to_neuron, weight)=(0, 1.50000000000000000000e+03) (1, -1.80934220552444458008e-02) (2, -8.51274293381720781326e-04) (3, 2.03539011999964714050e-03) (4, 1.85539084486663341522e-03) (5, 1.93771719932556152344e-03) (6, 1.45835010334849357605e-03) (7, 1.00094976369291543961e-03) (8, 1.75216130446642637253e-03) (9, 1.68019230477511882782e-03) (10, -6.40461519360542297363e-02) (11, -4.13031131029129028320e-03) (12, 1.81270399480126798153e-04) (13, 1.68019230477511882782e-03) (14, 2.03539011999964714050e-03) (15, 1.85539084486663341522e-03) (16, 1.93771719932556152344e-03) (17, 1.45835010334849357605e-03) (18, 1.00094976369291543961e-03) (19, 1.75216130446642637253e-03) (20, 1.09856575727462768555e-02) (21, -8.66439472883939743042e-03) (22, 2.06824322231113910675e-03) (23, 1.75216130446642637253e-03) (24, 1.68019230477511882782e-03) (25, 2.03539011999964714050e-03) (26, 1.85539084486663341522e-03) (27, 1.93771719932556152344e-03) (28, 1.45835010334849357605e-03) (29, 1.00094976369291543961e-03) (30, 4.15137000381946563721e-02) (31, 5.78452125191688537598e-02) (32, -4.80121161672286689281e-05) (33, 1.00094976369291543961e-03) (34, 1.75216130446642637253e-03) (35, 1.68019230477511882782e-03) (36, 2.03539011999964714050e-03) (37, 1.85539084486663341522e-03) (38, 1.93771719932556152344e-03) (39, 1.45835010334849357605e-03) (40, 4.54989708960056304932e-02) (41, 7.34879299998283386230e-02) (42, -3.17555153742432594299e-04) (43, 1.45835010334849357605e-03) (44, 1.00094976369291543961e-03) (45, 1.75216130446642637253e-03) (46, 1.68019230477511882782e-03) (47, 2.03539011999964714050e-03) (48, 1.85539084486663341522e-03) (49, 1.93771719932556152344e-03) (50, 1.27867460250854492188e-02) (51, -1.84966120868921279907e-02) (52, -3.68876522406935691833e-03) (53, 1.93771719932556152344e-03) (54, 1.45835010334849357605e-03) (55, 1.00094976369291543961e-03) (56, 1.75216130446642637253e-03) (57, 1.68019230477511882782e-03) (58, 2.03539011999964714050e-03) (59, 1.85539084486663341522e-03) (60, -3.32792196422815322876e-03) (61, -2.45421081781387329102e-02) (62, 3.22204851545393466949e-03) (63, 1.85539084486663341522e-03) (64, 1.93771719932556152344e-03) (65, 1.45835010334849357605e-03) (66, 1.00094976369291543961e-03) (67, 1.75216130446642637253e-03) (68, 1.68019230477511882782e-03) (69, 2.03539011999964714050e-03) (70, 3.28107140958309173584e-02) (71, -6.91744079813361167908e-03) (72, -3.19920317269861698151e-03) (73, 2.03539011999964714050e-03) (74, 1.85539084486663341522e-03) (75, 1.93771719932556152344e-03) (76, 1.45835010334849357605e-03) (77, 1.00094976369291543961e-03) (78, 1.75216130446642637253e-03) (79, 1.68019230477511882782e-03) (80, 3.64540480077266693115e-02) (81, 7.76566471904516220093e-03) (82, 1.41811999492347240448e-03) (83, 1.68019230477511882782e-03) (84, 2.03539011999964714050e-03) (85, 1.85539084486663341522e-03) (86, 1.93771719932556152344e-03) (87, 1.45835010334849357605e-03) (88, 1.00094976369291543961e-03) (89, 1.75216130446642637253e-03) (90, 5.16000092029571533203e-02) (91, 3.76657098531723022461e-02) (92, 1.16598479507956653833e-04) (93, 1.75216130446642637253e-03) (94, 1.68019230477511882782e-03) (95, 2.03539011999964714050e-03) (96, 1.85539084486663341522e-03) (97, 1.93771719932556152344e-03) (98, 1.45835010334849357605e-03) (99, 1.00094976369291543961e-03) (100, -4.46014739573001861572e-02) (101, -1.00801009684801101685e-02) (102, -2.06855614669620990753e-03) (103, 1.00094976369291543961e-03) (104, 1.75216130446642637253e-03) (105, 1.68019230477511882782e-03) (106, 2.03539011999964714050e-03) (107, 1.85539084486663341522e-03) (108, 1.93771719932556152344e-03) (109, 1.45835010334849357605e-03) (110, 1.43847670406103134155e-02) (111, 1.64744183421134948730e-02) (112, 3.55019466951489448547e-04) (113, 1.45835010334849357605e-03) (114, 1.00094976369291543961e-03) (115, 1.75216130446642637253e-03) (116, 1.68019230477511882782e-03) (117, 2.03539011999964714050e-03) (118, 1.85539084486663341522e-03) (119, 1.93771719932556152344e-03) (120, -3.82187925279140472412e-02) (121, -5.53560703992843627930e-02) (122, -5.01563772559165954590e-04) (123, 1.93771719932556152344e-03) (124, 1.45835010334849357605e-03) (125, 1.00094976369291543961e-03) (126, 1.75216130446642637253e-03) (127, 1.68019230477511882782e-03) (128, 2.03539011999964714050e-03) (129, 1.85539084486663341522e-03) (130, 4.65901196002960205078e-02) (131, 2.42638848721981048584e-02) (132, -3.41488956473767757416e-03) (133, 1.85539084486663341522e-03) (134, 1.93771719932556152344e-03) (135, 1.45835010334849357605e-03) (136, 1.00094976369291543961e-03) (137, 1.75216130446642637253e-03) (138, 1.68019230477511882782e-03) (139, 2.03539011999964714050e-03) (140, -2.81676941085606813431e-04) (141, 3.32223139703273773193e-02) (142, 1.25419942196458578110e-03) (143, 2.03539011999964714050e-03) (144, 1.85539084486663341522e-03) (145, 1.93771719932556152344e-03) (146, 1.45835010334849357605e-03) (147, 1.00094976369291543961e-03) (148, 1.75216130446642637253e-03) (149, 1.68019230477511882782e-03) (150, -2.92614363133907318115e-02) (151, -5.90730756521224975586e-02) (152, 1.74359534867107868195e-03) (153, 1.68019230477511882782e-03) (154, 2.03539011999964714050e-03) (155, 1.85539084486663341522e-03) (156, 1.93771719932556152344e-03) (157, 1.45835010334849357605e-03) (158, 1.00094976369291543961e-03) (159, 1.75216130446642637253e-03) (160, 1.52436196804046630859e-02) (161, -1.76415294408798217773e-02) (162, 7.93642306234687566757e-04) (163, 1.75216130446642637253e-03) (164, 1.68019230477511882782e-03) (165, 2.03539011999964714050e-03) (166, 1.85539084486663341522e-03) (167, 1.93771719932556152344e-03) (168, 1.45835010334849357605e-03) (169, 1.00094976369291543961e-03) (170, -3.63131389021873474121e-02) (171, 2.80760284513235092163e-02) (172, -1.40044302679598331451e-03) (173, 1.00094976369291543961e-03) (174, 1.75216130446642637253e-03) (175, 1.68019230477511882782e-03) (176, 2.03539011999964714050e-03) (177, 1.85539084486663341522e-03) (178, 1.93771719932556152344e-03) (179, 1.45835010334849357605e-03) (180, -3.85064445436000823975e-02) (181, -3.01353614777326583862e-02) (182, -1.08419940806925296783e-03) (183, 1.45835010334849357605e-03) (184, 1.00094976369291543961e-03) (185, 1.75216130446642637253e-03) (186, 1.68019230477511882782e-03) (187, 2.03539011999964714050e-03) (188, 1.85539084486663341522e-03) (189, 1.93771719932556152344e-03) (190, 4.18427400290966033936e-03) (191, 3.85605002520605921745e-04) (192, -3.99104971438646316528e-03) (193, 1.93771719932556152344e-03) (194, 1.45835010334849357605e-03) (195, 1.00094976369291543961e-03) (196, 1.75216130446642637253e-03) (197, 1.68019230477511882782e-03) (198, 2.03539011999964714050e-03) (199, 1.85539084486663341522e-03) (200, 6.55115246772766113281e-02) (201, 4.39685806632041931152e-02) (202, -9.37778822844848036766e-05) (203, 1.85539084486663341522e-03) (204, 1.93771719932556152344e-03) (205, 1.45835010334849357605e-03) (206, 1.00094976369291543961e-03) (207, 1.75216130446642637253e-03) (208, 1.68019230477511882782e-03) (209, 2.03539011999964714050e-03) (210, 3.72188724577426910400e-02) (211, 2.19573583453893661499e-02) (212, -2.30539171025156974792e-03) (213, 2.03539011999964714050e-03) (214, 1.85539084486663341522e-03) (215, 1.93771719932556152344e-03) (216, 1.45835010334849357605e-03) (217, 1.00094976369291543961e-03) (218, 1.75216130446642637253e-03) (219, 1.68019230477511882782e-03) (220, 2.37111765891313552856e-02) (221, -2.90954019874334335327e-03) (222, 4.89959120750427246094e-03) (223, 1.68019230477511882782e-03) (224, 2.03539011999964714050e-03) (225, 1.85539084486663341522e-03) (226, 1.93771719932556152344e-03) (227, 1.45835010334849357605e-03) (228, 1.00094976369291543961e-03) (229, 1.75216130446642637253e-03) (230, 4.37792353332042694092e-02) (231, 1.49650443345308303833e-02) (232, 2.50454596243798732758e-03) (233, 1.75216130446642637253e-03) (234, 1.68019230477511882782e-03) (235, 2.03539011999964714050e-03) (236, 1.85539084486663341522e-03) (237, 1.93771719932556152344e-03) (238, 1.45835010334849357605e-03) (239, 1.00094976369291543961e-03) (240, 1.46067580208182334900e-02) (241, -1.17423934862017631531e-02) (242, -2.01019761152565479279e-03) (243, 1.00094976369291543961e-03) (244, 1.75216130446642637253e-03) (245, 1.68019230477511882782e-03) (246, 2.03539011999964714050e-03) (247, 1.85539084486663341522e-03) (248, 1.93771719932556152344e-03) (249, 1.45835010334849357605e-03) (250, -3.53031940758228302002e-02) (251, -2.59462893009185791016e-02) (252, -1.15024122351314872503e-04) (253, 1.45835010334849357605e-03) (254, 1.00094976369291543961e-03) (255, 1.75216130446642637253e-03) (256, 1.68019230477511882782e-03) (257, 2.03539011999964714050e-03) (258, 1.85539084486663341522e-03) (259, 1.93771719932556152344e-03) (260, 2.88324523717164993286e-02) (261, 1.04408133774995803833e-02) (262, -1.83602178003638982773e-03) (263, 1.93771719932556152344e-03) (264, 1.45835010334849357605e-03) (265, 1.00094976369291543961e-03) (266, 1.75216130446642637253e-03) (267, 1.68019230477511882782e-03) (268, 2.03539011999964714050e-03) (269, 1.85539084486663341522e-03) (270, 2.69064437597990036011e-02) (271, -1.03615606203675270081e-02) (272, 8.14247061498463153839e-04) (273, 1.85539084486663341522e-03) (274, 1.93771719932556152344e-03) (275, 1.45835010334849357605e-03) (276, 1.00094976369291543961e-03) (277, 1.75216130446642637253e-03) (278, 1.68019230477511882782e-03) (279, 2.03539011999964714050e-03) (280, -4.34647593647241592407e-03) (281, 3.93144451081752777100e-02) (282, -9.26346925552934408188e-04) (283, 2.03539011999964714050e-03) (284, 1.85539084486663341522e-03) (285, 1.93771719932556152344e-03) (286, 1.45835010334849357605e-03) (287, 1.00094976369291543961e-03) (288, 1.75216130446642637253e-03) (289, 1.68019230477511882782e-03) (290, -1.03767029941082000732e-02) (291, -6.46558254957199096680e-02) (292, -1.01456325501203536987e-03) (293, 1.68019230477511882782e-03) (294, 2.03539011999964714050e-03) (295, 1.85539084486663341522e-03) (296, 1.93771719932556152344e-03) (297, 1.45835010334849357605e-03) (298, 1.00094976369291543961e-03) (299, 1.75216130446642637253e-03) (300, -4.37422282993793487549e-02) (0, 1.50000000000000000000e+03) (1, 4.86006401479244232178e-03) (2, -4.44473605602979660034e-03) (3, 8.65594763308763504028e-03) (4, 8.32025054842233657837e-03) (5, 8.22043232619762420654e-03) (6, 8.50407965481281280518e-03) (7, 8.46786424517631530762e-03) (8, 8.54855310171842575073e-03) (9, 8.43021646142005920410e-03) (10, -2.62717530131340026855e-03) (11, 1.10472552478313446045e-03) (12, 4.37061116099357604980e-03) (13, 8.43021646142005920410e-03) (14, 8.65594763308763504028e-03) (15, 8.32025054842233657837e-03) (16, 8.22043232619762420654e-03) (17, 8.50407965481281280518e-03) (18, 8.46786424517631530762e-03) (19, 8.54855310171842575073e-03) (20, -2.64414623379707336426e-02) (21, 4.78448532521724700928e-03) (22, -3.37056443095207214355e-03) (23, 8.54855310171842575073e-03) (24, 8.43021646142005920410e-03) (25, 8.65594763308763504028e-03) (26, 8.32025054842233657837e-03) (27, 8.22043232619762420654e-03) (28, 8.50407965481281280518e-03) (29, 8.46786424517631530762e-03) (30, -4.95924539864063262939e-02) (31, 5.26791159063577651978e-03) (32, 4.39164548879489302635e-04) (33, 8.46786424517631530762e-03) (34, 8.54855310171842575073e-03) (35, 8.43021646142005920410e-03) (36, 8.65594763308763504028e-03) (37, 8.32025054842233657837e-03) (38, 8.22043232619762420654e-03) (39, 8.50407965481281280518e-03) (40, -5.07660433650016784668e-02) (41, -4.39411550760269165039e-02) (42, 8.99651960935443639755e-04) (43, 8.50407965481281280518e-03) (44, 8.46786424517631530762e-03) (45, 8.54855310171842575073e-03) (46, 8.43021646142005920410e-03) (47, 8.65594763308763504028e-03) (48, 8.32025054842233657837e-03) (49, 8.22043232619762420654e-03) (50, -3.41571941971778869629e-02) (51, -3.93130555748939514160e-02) (52, -8.11105477623641490936e-04) (53, 8.22043232619762420654e-03) (54, 8.50407965481281280518e-03) (55, 8.46786424517631530762e-03) (56, 8.54855310171842575073e-03) (57, 8.43021646142005920410e-03) (58, 8.65594763308763504028e-03) (59, 8.32025054842233657837e-03) (60, -6.56754449009895324707e-02) (61, -1.17257582023739814758e-02) (62, -4.48507023975253105164e-03) (63, 8.32025054842233657837e-03) (64, 8.22043232619762420654e-03) (65, 8.50407965481281280518e-03) (66, 8.46786424517631530762e-03) (67, 8.54855310171842575073e-03) (68, 8.43021646142005920410e-03) (69, 8.65594763308763504028e-03) (70, 1.00380089133977890015e-02) (71, 6.60336092114448547363e-02) (72, 2.52586859278380870819e-03) (73, 8.65594763308763504028e-03) (74, 8.32025054842233657837e-03) (75, 8.22043232619762420654e-03) (76, 8.50407965481281280518e-03) (77, 8.46786424517631530762e-03) (78, 8.54855310171842575073e-03) (79, 8.43021646142005920410e-03) (80, -7.60912299156188964844e-02) (81, 6.55882507562637329102e-02) (82, -4.09221887821331620216e-04) (83, 8.43021646142005920410e-03) (84, 8.65594763308763504028e-03) (85, 8.32025054842233657837e-03) (86, 8.22043232619762420654e-03) (87, 8.50407965481281280518e-03) (88, 8.46786424517631530762e-03) (89, 8.54855310171842575073e-03) (90, -2.96685229986906051636e-02) (91, -4.29176799952983856201e-02) (92, -8.22961272206157445908e-04) (93, 8.54855310171842575073e-03) (94, 8.43021646142005920410e-03) (95, 8.65594763308763504028e-03) (96, 8.32025054842233657837e-03) (97, 8.22043232619762420654e-03) (98, 8.50407965481281280518e-03) (99, 8.46786424517631530762e-03) (100, -4.64573316276073455811e-02) (101, 4.24329228699207305908e-02) (102, 3.31613700836896896362e-03) (103, 8.46786424517631530762e-03) (104, 8.54855310171842575073e-03) (105, 8.43021646142005920410e-03) (106, 8.65594763308763504028e-03) (107, 8.32025054842233657837e-03) (108, 8.22043232619762420654e-03) (109, 8.50407965481281280518e-03) (110, 8.49068071693181991577e-03) (111, 1.22027220204472541809e-02) (112, 5.52247838641051203012e-05) (113, 8.50407965481281280518e-03) (114, 8.46786424517631530762e-03) (115, 8.54855310171842575073e-03) (116, 8.43021646142005920410e-03) (117, 8.65594763308763504028e-03) (118, 8.32025054842233657837e-03) (119, 8.22043232619762420654e-03) (120, 6.31351396441459655762e-02) (121, 5.58561682701110839844e-02) (122, -3.84586816653609275818e-03) (123, 8.22043232619762420654e-03) (124, 8.50407965481281280518e-03) (125, 8.46786424517631530762e-03) (126, 8.54855310171842575073e-03) (127, 8.43021646142005920410e-03) (128, 8.65594763308763504028e-03) (129, 8.32025054842233657837e-03) (130, 4.41748872399330139160e-02) (131, -1.64569038897752761841e-02) (132, 3.50687233731150627136e-03) (133, 8.32025054842233657837e-03) (134, 8.22043232619762420654e-03) (135, 8.50407965481281280518e-03) (136, 8.46786424517631530762e-03) (137, 8.54855310171842575073e-03) (138, 8.43021646142005920410e-03) (139, 8.65594763308763504028e-03) (140, 3.34784835577011108398e-02) (141, -2.04267278313636779785e-02) (142, -4.00723656639456748962e-03) (143, 8.65594763308763504028e-03) (144, 8.32025054842233657837e-03) (145, 8.22043232619762420654e-03) (146, 8.50407965481281280518e-03) (147, 8.46786424517631530762e-03) (148, 8.54855310171842575073e-03) (149, 8.43021646142005920410e-03) (150, 9.70881897956132888794e-03) (151, 1.94348450750112533569e-02) (152, 1.92764983512461185455e-03) (153, 8.43021646142005920410e-03) (154, 8.65594763308763504028e-03) (155, 8.32025054842233657837e-03) (156, 8.22043232619762420654e-03) (157, 8.50407965481281280518e-03) (158, 8.46786424517631530762e-03) (159, 8.54855310171842575073e-03) (160, -1.10714755952358245850e-01) (161, -3.83045524358749389648e-02) (162, -3.07509675621986389160e-03) (163, 8.54855310171842575073e-03) (164, 8.43021646142005920410e-03) (165, 8.65594763308763504028e-03) (166, 8.32025054842233657837e-03) (167, 8.22043232619762420654e-03) (168, 8.50407965481281280518e-03) (169, 8.46786424517631530762e-03) (170, -1.37550448998808860779e-02) (171, 1.21649098582565784454e-03) (172, 5.15913183335214853287e-04) (173, 8.46786424517631530762e-03) (174, 8.54855310171842575073e-03) (175, 8.43021646142005920410e-03) (176, 8.65594763308763504028e-03) (177, 8.32025054842233657837e-03) (178, 8.22043232619762420654e-03) (179, 8.50407965481281280518e-03) (180, 2.21382267773151397705e-02) (181, -5.14725502580404281616e-03) (182, 2.14488431811332702637e-03) (183, 8.50407965481281280518e-03) (184, 8.46786424517631530762e-03) (185, 8.54855310171842575073e-03) (186, 8.43021646142005920410e-03) (187, 8.65594763308763504028e-03) (188, 8.32025054842233657837e-03) (189, 8.22043232619762420654e-03) (190, 1.53384543955326080322e-02) (191, 7.74277001619338989258e-03) (192, -2.45519937016069889069e-03) (193, 8.22043232619762420654e-03) (194, 8.50407965481281280518e-03) (195, 8.46786424517631530762e-03) (196, 8.54855310171842575073e-03) (197, 8.43021646142005920410e-03) (198, 8.65594763308763504028e-03) (199, 8.32025054842233657837e-03) (200, -6.64774654433131217957e-03) (201, 6.38416260480880737305e-02) (202, -1.42392050474882125854e-03) (203, 8.32025054842233657837e-03) (204, 8.22043232619762420654e-03) (205, 8.50407965481281280518e-03) (206, 8.46786424517631530762e-03) (207, 8.54855310171842575073e-03) (208, 8.43021646142005920410e-03) (209, 8.65594763308763504028e-03) (210, 1.83008927851915359497e-02) (211, -2.43308357312344014645e-04) (212, 4.16871951892971992493e-03) (213, 8.65594763308763504028e-03) (214, 8.32025054842233657837e-03) (215, 8.22043232619762420654e-03) (216, 8.50407965481281280518e-03) (217, 8.46786424517631530762e-03) (218, 8.54855310171842575073e-03) (219, 8.43021646142005920410e-03) (220, -9.66566577553749084473e-02) (221, 4.33252975344657897949e-02) (222, -7.85737205296754837036e-03) (223, 8.43021646142005920410e-03) (224, 8.65594763308763504028e-03) (225, 8.32025054842233657837e-03) (226, 8.22043232619762420654e-03) (227, 8.50407965481281280518e-03) (228, 8.46786424517631530762e-03) (229, 8.54855310171842575073e-03) (230, -2.21238005906343460083e-02) (231, 1.48541685193777084351e-02) (232, 4.88981092348694801331e-03) (233, 8.54855310171842575073e-03) (234, 8.43021646142005920410e-03) (235, 8.65594763308763504028e-03) (236, 8.32025054842233657837e-03) (237, 8.22043232619762420654e-03) (238, 8.50407965481281280518e-03) (239, 8.46786424517631530762e-03) (240, -6.30822107195854187012e-02) (241, -1.27908773720264434814e-03) (242, -1.52681150939315557480e-03) (243, 8.46786424517631530762e-03) (244, 8.54855310171842575073e-03) (245, 8.43021646142005920410e-03) (246, 8.65594763308763504028e-03) (247, 8.32025054842233657837e-03) (248, 8.22043232619762420654e-03) (249, 8.50407965481281280518e-03) (250, 6.09769411385059356689e-02) (251, 6.25246241688728332520e-02) (252, 3.16070811823010444641e-03) (253, 8.50407965481281280518e-03) (254, 8.46786424517631530762e-03) (255, 8.54855310171842575073e-03) (256, 8.43021646142005920410e-03) (257, 8.65594763308763504028e-03) (258, 8.32025054842233657837e-03) (259, 8.22043232619762420654e-03) (260, -2.42683608084917068481e-02) (261, 3.91567274928092956543e-02) (262, -2.43665487505495548248e-03) (263, 8.22043232619762420654e-03) (264, 8.50407965481281280518e-03) (265, 8.46786424517631530762e-03) (266, 8.54855310171842575073e-03) (267, 8.43021646142005920410e-03) (268, 8.65594763308763504028e-03) (269, 8.32025054842233657837e-03) (270, 1.51850134134292602539e-02) (271, 6.17550127208232879639e-03) (272, 3.39596474077552556992e-04) (273, 8.32025054842233657837e-03) (274, 8.22043232619762420654e-03) (275, 8.50407965481281280518e-03) (276, 8.46786424517631530762e-03) (277, 8.54855310171842575073e-03) (278, 8.43021646142005920410e-03) (279, 8.65594763308763504028e-03) (280, -3.44195738434791564941e-02) (281, 2.29550823569297790527e-02) (282, -5.23419221281073987484e-05) (283, 8.65594763308763504028e-03) (284, 8.32025054842233657837e-03) (285, 8.22043232619762420654e-03) (286, 8.50407965481281280518e-03) (287, 8.46786424517631530762e-03) (288, 8.54855310171842575073e-03) (289, 8.43021646142005920410e-03) (290, -1.40637487173080444336e-01) (291, 2.53643859177827835083e-02) (292, 1.51230196934193372726e-03) (293, 8.43021646142005920410e-03) (294, 8.65594763308763504028e-03) (295, 8.32025054842233657837e-03) (296, 8.22043232619762420654e-03) (297, 8.50407965481281280518e-03) (298, 8.46786424517631530762e-03) (299, 8.54855310171842575073e-03) (300, -2.52002567052841186523e-01) 
