FANN_FLO_2.1
num_layers=2
learning_rate=0.700000
connection_rate=1.000000
network_type=0
learning_momentum=0.000000
training_algorithm=2
train_error_function=0
train_stop_function=0
cascade_output_change_fraction=0.010000
quickprop_decay=-0.000100
quickprop_mu=1.750000
rprop_increase_factor=1.200000
rprop_decrease_factor=0.500000
rprop_delta_min=0.000000
rprop_delta_max=50.000000
rprop_delta_zero=0.100000
cascade_output_stagnation_epochs=12
cascade_candidate_change_fraction=0.010000
cascade_candidate_stagnation_epochs=12
cascade_max_out_epochs=150
cascade_min_out_epochs=50
cascade_max_cand_epochs=150
cascade_min_cand_epochs=50
cascade_num_candidate_groups=2
bit_fail_limit=3.49999994039535522461e-01
cascade_candidate_limit=1.00000000000000000000e+03
cascade_weight_multiplier=4.00000005960464477539e-01
cascade_activation_functions_count=10
cascade_activation_functions=3 5 7 8 10 11 14 15 16 17 
cascade_activation_steepnesses_count=4
cascade_activation_steepnesses=2.50000000000000000000e-01 5.00000000000000000000e-01 7.50000000000000000000e-01 1.00000000000000000000e+00 
layer_sizes=301 3 
scale_included=0
neurons (num_inputs, activation_function, activation_steepness)=(0, 0, 0.00000000000000000000e+00) (0, 0, 0.00000000000000000000e+00) (0, 0, 0.00000000000000000000e+00) (0, 0, 0.00000000000000000000e+00) (0, 0, 0.00000000000000000000e+00) (0, 0, 0.00000000000000000000e+00) (0, 0, 0.00000000000000000000e+00) (0, 0, 0.00000000000000000000e+00) (0, 0, 0.00000000000000000000e+00) (0, 0, 0.00000000000000000000e+00) (0, 0, 0.00000000000000000000e+00) (0, 0, 0.00000000000000000000e+00) (0, 0, 0.00000000000000000000e+00) (0, 0, 0.00000000000000000000e+00) (0, 0, 0.00000000000000000000e+00) (0, 0, 0.00000000000000000000e+00) (0, 0, 0.00000000000000000000e+00) (0, 0, 0.00000000000000000000e+00) (0, 0, 0.00000000000000000000e+00) (0, 0, 0.00000000000000000000e+00) (0, 0, 0.00000000000000000000e+00) (0, 0, 0.00000000000000000000e+00) (0, 0, 0.00000000000000000000e+00) (0, 0, 0.00000000000000000000e+00) (0, 0, 0.00000000000000000000e+00) (0, 0, 0.00000000000000000000e+00) (0, 0, 0.00000000000000000000e+00) (0, 0, 0.00000000000000000000e+00) (0, 0, 0.00000000000000000000e+00) (0, 0, 0.00000000000000000000e+00) (0, 0, 0.00000000000000000000e+00) (0, 0, 0.00000000000000000000e+00) (0, 0, 0.00000000000000000000e+00) (0, 0, 0.00000000000000000000e+00) (0, 0, 0.00000000000000000000e+00) (0, 0, 0.00000000000000000000e+00) (0, 0, 0.00000000000000000000e+00) (0, 0, 0.00000000000000000000e+00) (0, 0, 0.00000000000000000000e+00) (0, 0, 0.00000000000000000000e+00) (0, 0, 0.00000000000000000000e+00) (0, 0, 0.00000000000000000000e+00) (0, 0, 0.00000000000000000000e+00) (0, 0, 0.00000000000000000000e+00) (0, 0, 0.00000000000000000000e+00) (0, 0, 0.00000000000000000000e+00) (0, 0, 0.00000000000000000000e+00) (0, 0, 0.00000000000000000000e+00) (0, 0, 0.00000000000000000000e+00) (0, 0, 0.00000000000000000000e+00) (0, 0, 0.00000000000000000000e+00) (0, 0, 0.00000000000000000000e+00) (0, 0, 0.00000000000000000000e+00) (0, 0, 0.00000000000000000000e+00) (0, 0, 0.00000000000000000000e+00) (0, 0, 0.00000000000000000000e+00) (0, 0, 0.00000000000000000000e+00) (0, 0, 0.00000000000000000000e+00) (0, 0, 0.00000000000000000000e+00) (0, 0, 0.00000000000000000000e+00) (0, 0, 0.00000000000000000000e+00) (0, 0, 0.00000000000000000000e+00) (0, 0, 0.00000000000000000000e+00) (0, 0, 0.00000000000000000000e+00) (0, 0, 0.00000000000000000000e+00) (0, 0, 0.00000000000000000000e+00) (0, 0, 0.00000000000000000000e+00) (0, 0, 0.00000000000000000000e+00) (0, 0, 0.00000000000000000000e+00) (0, 0, 0.00000000000000000000e+00) (0, 0, 0.00000000000000000000e+00) (0, 0, 0.00000000000000000000e+00) (0, 0, 0.00000000000000000000e+00) (0, 0, 0.00000000000000000000e+00) (0, 0, 0.00000000000000000000e+00) (0, 0, 0.00000000000000000000e+00) (0, 0, 0.00000000000000000000e+00) (0, 0, 0.00000000000000000000e+00) (0, 0, 0.00000000000000000000e+00) (0, 0, 0.00000000000000000000e+00) (0, 0, 0.00000000000000000000e+00) (0, 0, 0.00000000000000000000e+00) (0, 0, 0.00000000000000000000e+00) (0, 0, 0.00000000000000000000e+00) (0, 0, 0.00000000000000000000e+00) (0, 0, 0.00000000000000000000e+00) (0, 0, 0.00000000000000000000e+00) (0, 0, 0.00000000000000000000e+00) (0, 0, 0.00000000000000000000e+00) (0, 0, 0.00000000000000000000e+00) (0, 0, 0.00000000000000000000e+00) (0, 0, 0.00000000000000000000e+00) (0, 0, 0.00000000000000000000e+00) (0, 0, 0.00000000000000000000e+00) (0, 0, 0.00000000000000000000e+00) (0, 0, 0.00000000000000000000e+00) (0, 0, 0.00000000000000000000e+00) (0, 0, 0.00000000000000000000e+00) (0, 0, 0.00000000000000000000e+00) (0, 0, 0.00000000000000000000e+00) (0, 0, 0.00000000000000000000e+00) (0, 0, 0.00000000000000000000e+00) (0, 0, 0.00000000000000000000e+00) (0, 0, 0.00000000000000000000e+00) (0, 0, 0.00000000000000000000e+00) (0, 0, 0.00000000000000000000e+00) (0, 0, 0.00000000000000000000e+00) (0, 0, 0.00000000000000000000e+00) (0, 0, 0.00000000000000000000e+00) (0, 0, 0.00000000000000000000e+00) (0, 0, 0.00000000000000000000e+00) (0, 0, 0.00000000000000000000e+00) (0, 0, 0.00000000000000000000e+00) (0, 0, 0.00000000000000000000e+00) (0, 0, 0.00000000000000000000e+00) (0, 0, 0.00000000000000000000e+00) (0, 0, 0.00000000000000000000e+00) (0, 0, 0.00000000000000000000e+00) (0, 0, 0.00000000000000000000e+00) (0, 0, 0.00000000000000000000e+00) (0, 0, 0.00000000000000000000e+00) (0, 0, 0.00000000000000000000e+00) (0, 0, 0.00000000000000000000e+00) (0, 0, 0.00000000000000000000e+00) (0, 0, 0.00000000000000000000e+00) (0, 0, 0.00000000000000000000e+00) (0, 0, 0.00000000000000000000e+00) (0, 0, 0.00000000000000000000e+00) (0, 0, 0.00000000000000000000e+00) (0, 0, 0.00000000000000000000e+00) (0, 0, 0.00000000000000000000e+00) (0, 0, 0.00000000000000000000e+00) (0, 0, 0.00000000000000000000e+00) (0, 0, 0.00000000000000000000e+00) (0, 0, 0.00000000000000000000e+00) (0, 0, 0.00000000000000000000e+00) (0, 0, 0.00000000000000000000e+00) (0, 0, 0.00000000000000000000e+00) (0, 0, 0.00000000000000000000e+00) (0, 0, 0.00000000000000000000e+00) (0, 0, 0.00000000000000000000e+00) (0, 0, 0.00000000000000000000e+00) (0, 0, 0.00000000000000000000e+00) (0, 0, 0.00000000000000000000e+00) (0, 0, 0.00000000000000000000e+00) (0, 0, 0.00000000000000000000e+00) (0, 0, 0.00000000000000000000e+00) (0, 0, 0.00000000000000000000e+00) (0, 0, 0.00000000000000000000e+00) (0, 0, 0.00000000000000000000e+00) (0, 0, 0.00000000000000000000e+00) (0, 0, 0.00000000000000000000e+00) (0, 0, 0.00000000000000000000e+00) (0, 0, 0.00000000000000000000e+00) (0, 0, 0.00000000000000000000e+00) (0, 0, 0.00000000000000000000e+00) (0, 0, 0.00000000000000000000e+00) (0, 0, 0.00000000000000000000e+00) (0, 0, 0.00000000000000000000e+00) (0, 0, 0.00000000000000000000e+00) (0, 0, 0.00000000000000000000e+00) (0, 0, 0.00000000000000000000e+00) (0, 0, 0.00000000000000000000e+00) (0, 0, 0.00000000000000000000e+00) (0, 0, 0.00000000000000000000e+00) (0, 0, 0.00000000000000000000e+00) (0, 0, 0.00000000000000000000e+00) (0, 0, 0.00000000000000000000e+00) (0, 0, 0.00000000000000000000e+00) (0, 0, 0.00000000000000000000e+00) (0, 0, 0.00000000000000000000e+00) (0, 0, 0.00000000000000000000e+00) (0, 0, 0.00000000000000000000e+00) (0, 0, 0.00000000000000000000e+00) (0, 0, 0.00000000000000000000e+00) (0, 0, 0.00000000000000000000e+00) (0, 0, 0.00000000000000000000e+00) (0, 0, 0.00000000000000000000e+00) (0, 0, 0.00000000000000000000e+00) (0, 0, 0.00000000000000000000e+00) (0, 0, 0.00000000000000000000e+00) (0, 0, 0.00000000000000000000e+00) (0, 0, 0.00000000000000000000e+00) (0, 0, 0.00000000000000000000e+00) (0, 0, 0.00000000000000000000e+00) (0, 0, 0.00000000000000000000e+00) (0, 0, 0.00000000000000000000e+00) (0, 0, 0.00000000000000000000e+00) (0, 0, 0.00000000000000000000e+00) (0, 0, 0.00000000000000000000e+00) (0, 0, 0.00000000000000000000e+00) (0, 0, 0.00000000000000000000e+00) (0, 0, 0.00000000000000000000e+00) (0, 0, 0.00000000000000000000e+00) (0, 0, 0.00000000000000000000e+00) (0, 0, 0.00000000000000000000e+00) (0, 0, 0.00000000000000000000e+00) (0, 0, 0.00000000000000000000e+00) (0, 0, 0.00000000000000000000e+00) (0, 0, 0.00000000000000000000e+00) (0, 0, 0.00000000000000000000e+00) (0, 0, 0.00000000000000000000e+00) (0, 0, 0.00000000000000000000e+00) (0, 0, 0.00000000000000000000e+00) (0, 0, 0.00000000000000000000e+00) (0, 0, 0.00000000000000000000e+00) (0, 0, 0.00000000000000000000e+00) (0, 0, 0.00000000000000000000e+00) (0, 0, 0.00000000000000000000e+00) (0, 0, 0.00000000000000000000e+00) (0, 0, 0.00000000000000000000e+00) (0, 0, 0.00000000000000000000e+00) (0, 0, 0.00000000000000000000e+00) (0, 0, 0.00000000000000000000e+00) (0, 0, 0.00000000000000000000e+00) (0, 0, 0.00000000000000000000e+00) (0, 0, 0.00000000000000000000e+00) (0, 0, 0.00000000000000000000e+00) (0, 0, 0.00000000000000000000e+00) (0, 0, 0.00000000000000000000e+00) (0, 0, 0.00000000000000000000e+00) (0, 0, 0.00000000000000000000e+00) (0, 0, 0.00000000000000000000e+00) (0, 0, 0.00000000000000000000e+00) (0, 0, 0.00000000000000000000e+00) (0, 0, 0.00000000000000000000e+00) (0, 0, 0.00000000000000000000e+00) (0, 0, 0.00000000000000000000e+00) (0, 0, 0.00000000000000000000e+00) (0, 0, 0.00000000000000000000e+00) (0, 0, 0.00000000000000000000e+00) (0, 0, 0.00000000000000000000e+00) (0, 0, 0.00000000000000000000e+00) (0, 0, 0.00000000000000000000e+00) (0, 0, 0.00000000000000000000e+00) (0, 0, 0.00000000000000000000e+00) (0, 0, 0.00000000000000000000e+00) (0, 0, 0.00000000000000000000e+00) (0, 0, 0.00000000000000000000e+00) (0, 0, 0.00000000000000000000e+00) (0, 0, 0.00000000000000000000e+00) (0, 0, 0.00000000000000000000e+00) (0, 0, 0.00000000000000000000e+00) (0, 0, 0.00000000000000000000e+00) (0, 0, 0.00000000000000000000e+00) (0, 0, 0.00000000000000000000e+00) (0, 0, 0.00000000000000000000e+00) (0, 0, 0.00000000000000000000e+00) (0, 0, 0.00000000000000000000e+00) (0, 0, 0.00000000000000000000e+00) (0, 0, 0.00000000000000000000e+00) (0, 0, 0.00000000000000000000e+00) (0, 0, 0.00000000000000000000e+00) (0, 0, 0.00000000000000000000e+00) (0, 0, 0.00000000000000000000e+00) (0, 0, 0.00000000000000000000e+00) (0, 0, 0.00000000000000000000e+00) (0, 0, 0.00000000000000000000e+00) (0, 0, 0.00000000000000000000e+00) (0, 0, 0.00000000000000000000e+00) (0, 0, 0.00000000000000000000e+00) (0, 0, 0.00000000000000000000e+00) (0, 0, 0.00000000000000000000e+00) (0, 0, 0.00000000000000000000e+00) (0, 0, 0.00000000000000000000e+00) (0, 0, 0.00000000000000000000e+00) (0, 0, 0.00000000000000000000e+00) (0, 0, 0.00000000000000000000e+00) (0, 0, 0.00000000000000000000e+00) (0, 0, 0.00000000000000000000e+00) (0, 0, 0.00000000000000000000e+00) (0, 0, 0.00000000000000000000e+00) (0, 0, 0.00000000000000000000e+00) (0, 0, 0.00000000000000000000e+00) (0, 0, 0.00000000000000000000e+00) (0, 0, 0.00000000000000000000e+00) (0, 0, 0.00000000000000000000e+00) (0, 0, 0.00000000000000000000e+00) (0, 0, 0.00000000000000000000e+00) (0, 0, 0.00000000000000000000e+00) (0, 0, 0.00000000000000000000e+00) (0, 0, 0.00000000000000000000e+00) (0, 0, 0.00000000000000000000e+00) (0, 0, 0.00000000000000000000e+00) (0, 0, 0.00000000000000000000e+00) (0, 0, 0.00000000000000000000e+00) (0, 0, 0.00000000000000000000e+00) (0, 0, 0.00000000000000000000e+00) (0, 0, 0.00000000000000000000e+00) (0, 0, 0.00000000000000000000e+00) (0, 0, 0.00000000000000000000e+00) (0, 0, 0.00000000000000000000e+00) (0, 0, 0.00000000000000000000e+00) (0, 0, 0.00000000000000000000e+00) (0, 0, 0.00000000000000000000e+00) (0, 0, 0.00000000000000000000e+00) (0, 0, 0.00000000000000000000e+00) (0, 0, 0.00000000000000000000e+00) (0, 0, 0.00000000000000000000e+00) (0, 0, 0.00000000000000000000e+00) (0, 0, 0.00000000000000000000e+00) (301, 5, 5.00000000000000000000e-01) (301, 5, 5.00000000000000000000e-01) (0, 5, 0.00000000000000000000e+00) 
connections (connected_to_neuron, weight)=(0, 1.50000000000000000000e+03) (1, -1.51981934905052185059e-02) (2, 1.11133995233103632927e-04) (3, 3.55294742621481418610e-03) (4, 3.49221937358379364014e-03) (5, 3.68648581206798553467e-03) (6, 3.79174714908003807068e-03) (7, 3.53792076930403709412e-03) (8, 3.46750859171152114868e-03) (9, 3.82599490694701671600e-03) (10, -7.39117488265037536621e-02) (11, -9.37778595834970474243e-03) (12, -9.21455211937427520752e-04) (13, 3.82599490694701671600e-03) (14, 3.55294742621481418610e-03) (15, 3.49221937358379364014e-03) (16, 3.68648581206798553467e-03) (17, 3.79174714908003807068e-03) (18, 3.53792076930403709412e-03) (19, 3.46750859171152114868e-03) (20, -1.76470814039930701256e-04) (21, -9.98209789395332336426e-03) (22, -9.67868021689355373383e-04) (23, 3.46750859171152114868e-03) (24, 3.82599490694701671600e-03) (25, 3.55294742621481418610e-03) (26, 3.49221937358379364014e-03) (27, 3.68648581206798553467e-03) (28, 3.79174714908003807068e-03) (29, 3.53792076930403709412e-03) (30, 5.48884198069572448730e-02) (31, 5.77635467052459716797e-02) (32, -8.05250892881304025650e-04) (33, 3.53792076930403709412e-03) (34, 3.46750859171152114868e-03) (35, 3.82599490694701671600e-03) (36, 3.55294742621481418610e-03) (37, 3.49221937358379364014e-03) (38, 3.68648581206798553467e-03) (39, 3.79174714908003807068e-03) (40, 3.15349996089935302734e-02) (41, 6.40683695673942565918e-02) (42, 7.96350068412721157074e-04) (43, 3.79174714908003807068e-03) (44, 3.53792076930403709412e-03) (45, 3.46750859171152114868e-03) (46, 3.82599490694701671600e-03) (47, 3.55294742621481418610e-03) (48, 3.49221937358379364014e-03) (49, 3.68648581206798553467e-03) (50, 2.56046522408723831177e-02) (51, -1.65651105344295501709e-02) (52, -7.20258569344878196716e-04) (53, 3.68648581206798553467e-03) (54, 3.79174714908003807068e-03) (55, 3.53792076930403709412e-03) (56, 3.46750859171152114868e-03) (57, 3.82599490694701671600e-03) (58, 3.55294742621481418610e-03) (59, 3.49221937358379364014e-03) (60, -1.16077950224280357361e-02) (61, -2.63902246952056884766e-02) (62, 1.11778476275503635406e-03) (63, 3.49221937358379364014e-03) (64, 3.68648581206798553467e-03) (65, 3.79174714908003807068e-03) (66, 3.53792076930403709412e-03) (67, 3.46750859171152114868e-03) (68, 3.82599490694701671600e-03) (69, 3.55294742621481418610e-03) (70, 2.01120730489492416382e-02) (71, -1.36276939883828163147e-02) (72, -1.57110136933624744415e-03) (73, 3.55294742621481418610e-03) (74, 3.49221937358379364014e-03) (75, 3.68648581206798553467e-03) (76, 3.79174714908003807068e-03) (77, 3.53792076930403709412e-03) (78, 3.46750859171152114868e-03) (79, 3.82599490694701671600e-03) (80, 2.81506348401308059692e-02) (81, 5.85598312318325042725e-03) (82, 1.63208984304219484329e-04) (83, 3.82599490694701671600e-03) (84, 3.55294742621481418610e-03) (85, 3.49221937358379364014e-03) (86, 3.68648581206798553467e-03) (87, 3.79174714908003807068e-03) (88, 3.53792076930403709412e-03) (89, 3.46750859171152114868e-03) (90, 4.79338802397251129150e-02) (91, 3.94088551402091979980e-02) (92, -2.72936234250664710999e-03) (93, 3.46750859171152114868e-03) (94, 3.82599490694701671600e-03) (95, 3.55294742621481418610e-03) (96, 3.49221937358379364014e-03) (97, 3.68648581206798553467e-03) (98, 3.79174714908003807068e-03) (99, 3.53792076930403709412e-03) (100, -3.61593253910541534424e-02) (101, -1.41900554299354553223e-02) (102, -2.67742061987519264221e-03) (103, 3.53792076930403709412e-03) (104, 3.46750859171152114868e-03) (105, 3.82599490694701671600e-03) (106, 3.55294742621481418610e-03) (107, 3.49221937358379364014e-03) (108, 3.68648581206798553467e-03) (109, 3.79174714908003807068e-03) (110, 7.50620709732174873352e-03) (111, 1.61808058619499206543e-02) (112, 1.64236500859260559082e-03) (113, 3.79174714908003807068e-03) (114, 3.53792076930403709412e-03) (115, 3.46750859171152114868e-03) (116, 3.82599490694701671600e-03) (117, 3.55294742621481418610e-03) (118, 3.49221937358379364014e-03) (119, 3.68648581206798553467e-03) (120, -2.94974539428949356079e-02) (121, -5.93551732599735260010e-02) (122, 2.15801969170570373535e-03) (123, 3.68648581206798553467e-03) (124, 3.79174714908003807068e-03) (125, 3.53792076930403709412e-03) (126, 3.46750859171152114868e-03) (127, 3.82599490694701671600e-03) (128, 3.55294742621481418610e-03) (129, 3.49221937358379364014e-03) (130, 3.96637469530105590820e-02) (131, 2.31072008609771728516e-02) (132, -5.40895992890000343323e-03) (133, 3.49221937358379364014e-03) (134, 3.68648581206798553467e-03) (135, 3.79174714908003807068e-03) (136, 3.53792076930403709412e-03) (137, 3.46750859171152114868e-03) (138, 3.82599490694701671600e-03) (139, 3.55294742621481418610e-03) (140, -7.00249616056680679321e-03) (141, 2.96793375164270401001e-02) (142, 2.53628543578088283539e-03) (143, 3.55294742621481418610e-03) (144, 3.49221937358379364014e-03) (145, 3.68648581206798553467e-03) (146, 3.79174714908003807068e-03) (147, 3.53792076930403709412e-03) (148, 3.46750859171152114868e-03) (149, 3.82599490694701671600e-03) (150, -4.23965230584144592285e-02) (151, -6.39007985591888427734e-02) (152, 9.48731787502765655518e-04) (153, 3.82599490694701671600e-03) (154, 3.55294742621481418610e-03) (155, 3.49221937358379364014e-03) (156, 3.68648581206798553467e-03) (157, 3.79174714908003807068e-03) (158, 3.53792076930403709412e-03) (159, 3.46750859171152114868e-03) (160, 1.33940624073147773743e-02) (161, -1.23747466132044792175e-02) (162, -2.05313414335250854492e-03) (163, 3.46750859171152114868e-03) (164, 3.82599490694701671600e-03) (165, 3.55294742621481418610e-03) (166, 3.49221937358379364014e-03) (167, 3.68648581206798553467e-03) (168, 3.79174714908003807068e-03) (169, 3.53792076930403709412e-03) (170, -2.64639891684055328369e-02) (171, 2.80942767858505249023e-02) (172, -1.95719348266720771790e-03) (173, 3.53792076930403709412e-03) (174, 3.46750859171152114868e-03) (175, 3.82599490694701671600e-03) (176, 3.55294742621481418610e-03) (177, 3.49221937358379364014e-03) (178, 3.68648581206798553467e-03) (179, 3.79174714908003807068e-03) (180, -6.13479390740394592285e-02) (181, -3.85917685925960540771e-02) (182, -5.00831636600196361542e-04) (183, 3.79174714908003807068e-03) (184, 3.53792076930403709412e-03) (185, 3.46750859171152114868e-03) (186, 3.82599490694701671600e-03) (187, 3.55294742621481418610e-03) (188, 3.49221937358379364014e-03) (189, 3.68648581206798553467e-03) (190, 1.01520437747240066528e-02) (191, 1.58396793995052576065e-03) (192, -1.09571544453501701355e-03) (193, 3.68648581206798553467e-03) (194, 3.79174714908003807068e-03) (195, 3.53792076930403709412e-03) (196, 3.46750859171152114868e-03) (197, 3.82599490694701671600e-03) (198, 3.55294742621481418610e-03) (199, 3.49221937358379364014e-03) (200, 6.30866214632987976074e-02) (201, 4.01241332292556762695e-02) (202, -1.56264554243534803391e-03) (203, 3.49221937358379364014e-03) (204, 3.68648581206798553467e-03) (205, 3.79174714908003807068e-03) (206, 3.53792076930403709412e-03) (207, 3.46750859171152114868e-03) (208, 3.82599490694701671600e-03) (209, 3.55294742621481418610e-03) (210, 2.37853787839412689209e-02) (211, 1.86561625450849533081e-02) (212, -1.38798914849758148193e-03) (213, 3.55294742621481418610e-03) (214, 3.49221937358379364014e-03) (215, 3.68648581206798553467e-03) (216, 3.79174714908003807068e-03) (217, 3.53792076930403709412e-03) (218, 3.46750859171152114868e-03) (219, 3.82599490694701671600e-03) (220, 1.58711709082126617432e-02) (221, -3.97917162626981735229e-03) (222, 4.44870116189122200012e-03) (223, 3.82599490694701671600e-03) (224, 3.55294742621481418610e-03) (225, 3.49221937358379364014e-03) (226, 3.68648581206798553467e-03) (227, 3.79174714908003807068e-03) (228, 3.53792076930403709412e-03) (229, 3.46750859171152114868e-03) (230, 3.12396045774221420288e-02) (231, 1.54579505324363708496e-02) (232, -7.72423984017223119736e-04) (233, 3.46750859171152114868e-03) (234, 3.82599490694701671600e-03) (235, 3.55294742621481418610e-03) (236, 3.49221937358379364014e-03) (237, 3.68648581206798553467e-03) (238, 3.79174714908003807068e-03) (239, 3.53792076930403709412e-03) (240, 3.18185202777385711670e-02) (241, -8.19219462573528289795e-03) (242, -2.37595778889954090118e-03) (243, 3.53792076930403709412e-03) (244, 3.46750859171152114868e-03) (245, 3.82599490694701671600e-03) (246, 3.55294742621481418610e-03) (247, 3.49221937358379364014e-03) (248, 3.68648581206798553467e-03) (249, 3.79174714908003807068e-03) (250, -6.46737068891525268555e-02) (251, -3.84631007909774780273e-02) (252, 5.96795580349862575531e-04) (253, 3.79174714908003807068e-03) (254, 3.53792076930403709412e-03) (255, 3.46750859171152114868e-03) (256, 3.82599490694701671600e-03) (257, 3.55294742621481418610e-03) (258, 3.49221937358379364014e-03) (259, 3.68648581206798553467e-03) (260, 3.38664017617702484131e-02) (261, 5.93122467398643493652e-03) (262, 1.36295589618384838104e-03) (263, 3.68648581206798553467e-03) (264, 3.79174714908003807068e-03) (265, 3.53792076930403709412e-03) (266, 3.46750859171152114868e-03) (267, 3.82599490694701671600e-03) (268, 3.55294742621481418610e-03) (269, 3.49221937358379364014e-03) (270, 2.40862574428319931030e-02) (271, -1.33663453161716461182e-02) (272, -4.04721300583332777023e-04) (273, 3.49221937358379364014e-03) (274, 3.68648581206798553467e-03) (275, 3.79174714908003807068e-03) (276, 3.53792076930403709412e-03) (277, 3.46750859171152114868e-03) (278, 3.82599490694701671600e-03) (279, 3.55294742621481418610e-03) (280, -6.29458995535969734192e-03) (281, 3.70570681989192962646e-02) (282, -3.14515724312514066696e-04) (283, 3.55294742621481418610e-03) (284, 3.49221937358379364014e-03) (285, 3.68648581206798553467e-03) (286, 3.79174714908003807068e-03) (287, 3.53792076930403709412e-03) (288, 3.46750859171152114868e-03) (289, 3.82599490694701671600e-03) (290, -2.48509049415588378906e-02) (291, -6.62658438086509704590e-02) (292, -2.65642884187400341034e-03) (293, 3.82599490694701671600e-03) (294, 3.55294742621481418610e-03) (295, 3.49221937358379364014e-03) (296, 3.68648581206798553467e-03) (297, 3.79174714908003807068e-03) (298, 3.53792076930403709412e-03) (299, 3.46750859171152114868e-03) (300, -1.00764714181423187256e-01) (0, 1.50000000000000000000e+03) (1, 5.89708657935261726379e-03) (2, -3.87038942426443099976e-03) (3, 1.08355842530727386475e-02) (4, 1.04948179796338081360e-02) (5, 1.05460491031408309937e-02) (6, 1.05868466198444366455e-02) (7, 1.07462489977478981018e-02) (8, 1.08242295682430267334e-02) (9, 1.06510100886225700378e-02) (10, -1.11619681119918823242e-02) (11, -1.85330072417855262756e-03) (12, 3.67891322821378707886e-03) (13, 1.06510100886225700378e-02) (14, 1.08355842530727386475e-02) (15, 1.04948179796338081360e-02) (16, 1.05460491031408309937e-02) (17, 1.05868466198444366455e-02) (18, 1.07462489977478981018e-02) (19, 1.08242295682430267334e-02) (20, -2.29062363505363464355e-02) (21, 1.39085575938224792480e-03) (22, -2.82200053334236145020e-03) (23, 1.08242295682430267334e-02) (24, 1.06510100886225700378e-02) (25, 1.08355842530727386475e-02) (26, 1.04948179796338081360e-02) (27, 1.05460491031408309937e-02) (28, 1.05868466198444366455e-02) (29, 1.07462489977478981018e-02) (30, -5.79399392008781433105e-02) (31, -5.44350268319249153137e-03) (32, -1.70606968458741903305e-03) (33, 1.07462489977478981018e-02) (34, 1.08242295682430267334e-02) (35, 1.06510100886225700378e-02) (36, 1.08355842530727386475e-02) (37, 1.04948179796338081360e-02) (38, 1.05460491031408309937e-02) (39, 1.05868466198444366455e-02) (40, -4.64104153215885162354e-02) (41, -4.33414615690708160400e-02) (42, 1.48954382166266441345e-03) (43, 1.05868466198444366455e-02) (44, 1.07462489977478981018e-02) (45, 1.08242295682430267334e-02) (46, 1.06510100886225700378e-02) (47, 1.08355842530727386475e-02) (48, 1.04948179796338081360e-02) (49, 1.05460491031408309937e-02) (50, -3.11412643641233444214e-02) (51, -3.76978553831577301025e-02) (52, 1.73043401446193456650e-04) (53, 1.05460491031408309937e-02) (54, 1.05868466198444366455e-02) (55, 1.07462489977478981018e-02) (56, 1.08242295682430267334e-02) (57, 1.06510100886225700378e-02) (58, 1.08355842530727386475e-02) (59, 1.04948179796338081360e-02) (60, -6.42605274915695190430e-02) (61, -6.15174369886517524719e-03) (62, -5.83980930969119071960e-03) (63, 1.04948179796338081360e-02) (64, 1.05460491031408309937e-02) (65, 1.05868466198444366455e-02) (66, 1.07462489977478981018e-02) (67, 1.08242295682430267334e-02) (68, 1.06510100886225700378e-02) (69, 1.08355842530727386475e-02) (70, 1.53866074979305267334e-02) (71, 6.85707777738571166992e-02) (72, 4.10982361063361167908e-03) (73, 1.08355842530727386475e-02) (74, 1.04948179796338081360e-02) (75, 1.05460491031408309937e-02) (76, 1.05868466198444366455e-02) (77, 1.07462489977478981018e-02) (78, 1.08242295682430267334e-02) (79, 1.06510100886225700378e-02) (80, -8.01806226372718811035e-02) (81, 7.25203752517700195312e-02) (82, -2.41229822859168052673e-03) (83, 1.06510100886225700378e-02) (84, 1.08355842530727386475e-02) (85, 1.04948179796338081360e-02) (86, 1.05460491031408309937e-02) (87, 1.05868466198444366455e-02) (88, 1.07462489977478981018e-02) (89, 1.08242295682430267334e-02) (90, -2.50135287642478942871e-02) (91, -4.69218119978904724121e-02) (92, -3.74823284801095724106e-04) (93, 1.08242295682430267334e-02) (94, 1.06510100886225700378e-02) (95, 1.08355842530727386475e-02) (96, 1.04948179796338081360e-02) (97, 1.05460491031408309937e-02) (98, 1.05868466198444366455e-02) (99, 1.07462489977478981018e-02) (100, -4.24501523375511169434e-02) (101, 4.34036143124103546143e-02) (102, 1.57617463264614343643e-03) (103, 1.07462489977478981018e-02) (104, 1.08242295682430267334e-02) (105, 1.06510100886225700378e-02) (106, 1.08355842530727386475e-02) (107, 1.04948179796338081360e-02) (108, 1.05460491031408309937e-02) (109, 1.05868466198444366455e-02) (110, 9.78039018809795379639e-03) (111, 1.41250845044851303101e-02) (112, -1.91095110494643449783e-04) (113, 1.05868466198444366455e-02) (114, 1.07462489977478981018e-02) (115, 1.08242295682430267334e-02) (116, 1.06510100886225700378e-02) (117, 1.08355842530727386475e-02) (118, 1.04948179796338081360e-02) (119, 1.05460491031408309937e-02) (120, 6.33436143398284912109e-02) (121, 5.27755059301853179932e-02) (122, -2.79166339896619319916e-03) (123, 1.05460491031408309937e-02) (124, 1.05868466198444366455e-02) (125, 1.07462489977478981018e-02) (126, 1.08242295682430267334e-02) (127, 1.06510100886225700378e-02) (128, 1.08355842530727386475e-02) (129, 1.04948179796338081360e-02) (130, 4.00443300604820251465e-02) (131, -1.29432380199432373047e-02) (132, 2.00107833370566368103e-03) (133, 1.04948179796338081360e-02) (134, 1.05460491031408309937e-02) (135, 1.05868466198444366455e-02) (136, 1.07462489977478981018e-02) (137, 1.08242295682430267334e-02) (138, 1.06510100886225700378e-02) (139, 1.08355842530727386475e-02) (140, 3.27351987361907958984e-02) (141, -2.03105770051479339600e-02) (142, -1.93619541823863983154e-03) (143, 1.08355842530727386475e-02) (144, 1.04948179796338081360e-02) (145, 1.05460491031408309937e-02) (146, 1.05868466198444366455e-02) (147, 1.07462489977478981018e-02) (148, 1.08242295682430267334e-02) (149, 1.06510100886225700378e-02) (150, 6.63693808019161224365e-03) (151, 2.33435891568660736084e-02) (152, -7.87956014391966164112e-05) (153, 1.06510100886225700378e-02) (154, 1.08355842530727386475e-02) (155, 1.04948179796338081360e-02) (156, 1.05460491031408309937e-02) (157, 1.05868466198444366455e-02) (158, 1.07462489977478981018e-02) (159, 1.08242295682430267334e-02) (160, -1.06311544775962829590e-01) (161, -3.76863256096839904785e-02) (162, -2.97633046284317970276e-03) (163, 1.08242295682430267334e-02) (164, 1.06510100886225700378e-02) (165, 1.08355842530727386475e-02) (166, 1.04948179796338081360e-02) (167, 1.05460491031408309937e-02) (168, 1.05868466198444366455e-02) (169, 1.07462489977478981018e-02) (170, -1.29698105156421661377e-02) (171, 3.50253982469439506531e-03) (172, -1.23822200112044811249e-03) (173, 1.07462489977478981018e-02) (174, 1.08242295682430267334e-02) (175, 1.06510100886225700378e-02) (176, 1.08355842530727386475e-02) (177, 1.04948179796338081360e-02) (178, 1.05460491031408309937e-02) (179, 1.05868466198444366455e-02) (180, 2.67045143991708755493e-02) (181, 9.35640884563326835632e-04) (182, 1.91911449655890464783e-03) (183, 1.05868466198444366455e-02) (184, 1.07462489977478981018e-02) (185, 1.08242295682430267334e-02) (186, 1.06510100886225700378e-02) (187, 1.08355842530727386475e-02) (188, 1.04948179796338081360e-02) (189, 1.05460491031408309937e-02) (190, 1.26428650692105293274e-02) (191, 1.46494270302355289459e-03) (192, -1.04178092442452907562e-03) (193, 1.05460491031408309937e-02) (194, 1.05868466198444366455e-02) (195, 1.07462489977478981018e-02) (196, 1.08242295682430267334e-02) (197, 1.06510100886225700378e-02) (198, 1.08355842530727386475e-02) (199, 1.04948179796338081360e-02) (200, -8.60038492828607559204e-03) (201, 6.99221119284629821777e-02) (202, -2.55851284600794315338e-03) (203, 1.04948179796338081360e-02) (204, 1.05460491031408309937e-02) (205, 1.05868466198444366455e-02) (206, 1.07462489977478981018e-02) (207, 1.08242295682430267334e-02) (208, 1.06510100886225700378e-02) (209, 1.08355842530727386475e-02) (210, 2.47975699603557586670e-02) (211, 5.34563139081001281738e-03) (212, 5.95139898359775543213e-03) (213, 1.08355842530727386475e-02) (214, 1.04948179796338081360e-02) (215, 1.05460491031408309937e-02) (216, 1.05868466198444366455e-02) (217, 1.07462489977478981018e-02) (218, 1.08242295682430267334e-02) (219, 1.06510100886225700378e-02) (220, -1.01933233439922332764e-01) (221, 4.60001528263092041016e-02) (222, -9.55642946064472198486e-03) (223, 1.06510100886225700378e-02) (224, 1.08355842530727386475e-02) (225, 1.04948179796338081360e-02) (226, 1.05460491031408309937e-02) (227, 1.05868466198444366455e-02) (228, 1.07462489977478981018e-02) (229, 1.08242295682430267334e-02) (230, -1.66062228381633758545e-02) (231, 2.52198819071054458618e-02) (232, 5.25568053126335144043e-03) (233, 1.08242295682430267334e-02) (234, 1.06510100886225700378e-02) (235, 1.08355842530727386475e-02) (236, 1.04948179796338081360e-02) (237, 1.05460491031408309937e-02) (238, 1.05868466198444366455e-02) (239, 1.07462489977478981018e-02) (240, -6.25444874167442321777e-02) (241, -2.98507249681279063225e-04) (242, -3.29825654625892639160e-03) (243, 1.07462489977478981018e-02) (244, 1.08242295682430267334e-02) (245, 1.06510100886225700378e-02) (246, 1.08355842530727386475e-02) (247, 1.04948179796338081360e-02) (248, 1.05460491031408309937e-02) (249, 1.05868466198444366455e-02) (250, 6.33319690823554992676e-02) (251, 6.37204647064208984375e-02) (252, 2.81766708940267562866e-03) (253, 1.05868466198444366455e-02) (254, 1.07462489977478981018e-02) (255, 1.08242295682430267334e-02) (256, 1.06510100886225700378e-02) (257, 1.08355842530727386475e-02) (258, 1.04948179796338081360e-02) (259, 1.05460491031408309937e-02) (260, -2.23986562341451644897e-02) (261, 4.21523265540599822998e-02) (262, -1.24032259918749332428e-03) (263, 1.05460491031408309937e-02) (264, 1.05868466198444366455e-02) (265, 1.07462489977478981018e-02) (266, 1.08242295682430267334e-02) (267, 1.06510100886225700378e-02) (268, 1.08355842530727386475e-02) (269, 1.04948179796338081360e-02) (270, 6.81869313120841979980e-03) (271, 8.15802253782749176025e-04) (272, -1.10602215863764286041e-03) (273, 1.04948179796338081360e-02) (274, 1.05460491031408309937e-02) (275, 1.05868466198444366455e-02) (276, 1.07462489977478981018e-02) (277, 1.08242295682430267334e-02) (278, 1.06510100886225700378e-02) (279, 1.08355842530727386475e-02) (280, -2.87595242261886596680e-02) (281, 2.59443651884794235229e-02) (282, 1.85200222767889499664e-03) (283, 1.08355842530727386475e-02) (284, 1.04948179796338081360e-02) (285, 1.05460491031408309937e-02) (286, 1.05868466198444366455e-02) (287, 1.07462489977478981018e-02) (288, 1.08242295682430267334e-02) (289, 1.06510100886225700378e-02) (290, -1.44029095768928527832e-01) (291, 2.93420162051916122437e-02) (292, -5.48444877495057880878e-05) (293, 1.06510100886225700378e-02) (294, 1.08355842530727386475e-02) (295, 1.04948179796338081360e-02) (296, 1.05460491031408309937e-02) (297, 1.05868466198444366455e-02) (298, 1.07462489977478981018e-02) (299, 1.08242295682430267334e-02) (300, -3.15985441207885742188e-01) 
