FANN_FLO_2.1
num_layers=2
learning_rate=0.700000
connection_rate=1.000000
network_type=0
learning_momentum=0.000000
training_algorithm=2
train_error_function=0
train_stop_function=0
cascade_output_change_fraction=0.010000
quickprop_decay=-0.000100
quickprop_mu=1.750000
rprop_increase_factor=1.200000
rprop_decrease_factor=0.500000
rprop_delta_min=0.000000
rprop_delta_max=50.000000
rprop_delta_zero=0.100000
cascade_output_stagnation_epochs=12
cascade_candidate_change_fraction=0.010000
cascade_candidate_stagnation_epochs=12
cascade_max_out_epochs=150
cascade_min_out_epochs=50
cascade_max_cand_epochs=150
cascade_min_cand_epochs=50
cascade_num_candidate_groups=2
bit_fail_limit=3.49999994039535522461e-01
cascade_candidate_limit=1.00000000000000000000e+03
cascade_weight_multiplier=4.00000005960464477539e-01
cascade_activation_functions_count=10
cascade_activation_functions=3 5 7 8 10 11 14 15 16 17 
cascade_activation_steepnesses_count=4
cascade_activation_steepnesses=2.50000000000000000000e-01 5.00000000000000000000e-01 7.50000000000000000000e-01 1.00000000000000000000e+00 
layer_sizes=301 3 
scale_included=0
neurons (num_inputs, activation_function, activation_steepness)=(0, 0, 0.00000000000000000000e+00) (0, 0, 0.00000000000000000000e+00) (0, 0, 0.00000000000000000000e+00) (0, 0, 0.00000000000000000000e+00) (0, 0, 0.00000000000000000000e+00) (0, 0, 0.00000000000000000000e+00) (0, 0, 0.00000000000000000000e+00) (0, 0, 0.00000000000000000000e+00) (0, 0, 0.00000000000000000000e+00) (0, 0, 0.00000000000000000000e+00) (0, 0, 0.00000000000000000000e+00) (0, 0, 0.00000000000000000000e+00) (0, 0, 0.00000000000000000000e+00) (0, 0, 0.00000000000000000000e+00) (0, 0, 0.00000000000000000000e+00) (0, 0, 0.00000000000000000000e+00) (0, 0, 0.00000000000000000000e+00) (0, 0, 0.00000000000000000000e+00) (0, 0, 0.00000000000000000000e+00) (0, 0, 0.00000000000000000000e+00) (0, 0, 0.00000000000000000000e+00) (0, 0, 0.00000000000000000000e+00) (0, 0, 0.00000000000000000000e+00) (0, 0, 0.00000000000000000000e+00) (0, 0, 0.00000000000000000000e+00) (0, 0, 0.00000000000000000000e+00) (0, 0, 0.00000000000000000000e+00) (0, 0, 0.00000000000000000000e+00) (0, 0, 0.00000000000000000000e+00) (0, 0, 0.00000000000000000000e+00) (0, 0, 0.00000000000000000000e+00) (0, 0, 0.00000000000000000000e+00) (0, 0, 0.00000000000000000000e+00) (0, 0, 0.00000000000000000000e+00) (0, 0, 0.00000000000000000000e+00) (0, 0, 0.00000000000000000000e+00) (0, 0, 0.00000000000000000000e+00) (0, 0, 0.00000000000000000000e+00) (0, 0, 0.00000000000000000000e+00) (0, 0, 0.00000000000000000000e+00) (0, 0, 0.00000000000000000000e+00) (0, 0, 0.00000000000000000000e+00) (0, 0, 0.00000000000000000000e+00) (0, 0, 0.00000000000000000000e+00) (0, 0, 0.00000000000000000000e+00) (0, 0, 0.00000000000000000000e+00) (0, 0, 0.00000000000000000000e+00) (0, 0, 0.00000000000000000000e+00) (0, 0, 0.00000000000000000000e+00) (0, 0, 0.00000000000000000000e+00) (0, 0, 0.00000000000000000000e+00) (0, 0, 0.00000000000000000000e+00) (0, 0, 0.00000000000000000000e+00) (0, 0, 0.00000000000000000000e+00) (0, 0, 0.00000000000000000000e+00) (0, 0, 0.00000000000000000000e+00) (0, 0, 0.00000000000000000000e+00) (0, 0, 0.00000000000000000000e+00) (0, 0, 0.00000000000000000000e+00) (0, 0, 0.00000000000000000000e+00) (0, 0, 0.00000000000000000000e+00) (0, 0, 0.00000000000000000000e+00) (0, 0, 0.00000000000000000000e+00) (0, 0, 0.00000000000000000000e+00) (0, 0, 0.00000000000000000000e+00) (0, 0, 0.00000000000000000000e+00) (0, 0, 0.00000000000000000000e+00) (0, 0, 0.00000000000000000000e+00) (0, 0, 0.00000000000000000000e+00) (0, 0, 0.00000000000000000000e+00) (0, 0, 0.00000000000000000000e+00) (0, 0, 0.00000000000000000000e+00) (0, 0, 0.00000000000000000000e+00) (0, 0, 0.00000000000000000000e+00) (0, 0, 0.00000000000000000000e+00) (0, 0, 0.00000000000000000000e+00) (0, 0, 0.00000000000000000000e+00) (0, 0, 0.00000000000000000000e+00) (0, 0, 0.00000000000000000000e+00) (0, 0, 0.00000000000000000000e+00) (0, 0, 0.00000000000000000000e+00) (0, 0, 0.00000000000000000000e+00) (0, 0, 0.00000000000000000000e+00) (0, 0, 0.00000000000000000000e+00) (0, 0, 0.00000000000000000000e+00) (0, 0, 0.00000000000000000000e+00) (0, 0, 0.00000000000000000000e+00) (0, 0, 0.00000000000000000000e+00) (0, 0, 0.00000000000000000000e+00) (0, 0, 0.00000000000000000000e+00) (0, 0, 0.00000000000000000000e+00) (0, 0, 0.00000000000000000000e+00) (0, 0, 0.00000000000000000000e+00) (0, 0, 0.00000000000000000000e+00) (0, 0, 0.00000000000000000000e+00) (0, 0, 0.00000000000000000000e+00) (0, 0, 0.00000000000000000000e+00) (0, 0, 0.00000000000000000000e+00) (0, 0, 0.00000000000000000000e+00) (0, 0, 0.00000000000000000000e+00) (0, 0, 0.00000000000000000000e+00) (0, 0, 0.00000000000000000000e+00) (0, 0, 0.00000000000000000000e+00) (0, 0, 0.00000000000000000000e+00) (0, 0, 0.00000000000000000000e+00) (0, 0, 0.00000000000000000000e+00) (0, 0, 0.00000000000000000000e+00) (0, 0, 0.00000000000000000000e+00) (0, 0, 0.00000000000000000000e+00) (0, 0, 0.00000000000000000000e+00) (0, 0, 0.00000000000000000000e+00) (0, 0, 0.00000000000000000000e+00) (0, 0, 0.00000000000000000000e+00) (0, 0, 0.00000000000000000000e+00) (0, 0, 0.00000000000000000000e+00) (0, 0, 0.00000000000000000000e+00) (0, 0, 0.00000000000000000000e+00) (0, 0, 0.00000000000000000000e+00) (0, 0, 0.00000000000000000000e+00) (0, 0, 0.00000000000000000000e+00) (0, 0, 0.00000000000000000000e+00) (0, 0, 0.00000000000000000000e+00) (0, 0, 0.00000000000000000000e+00) (0, 0, 0.00000000000000000000e+00) (0, 0, 0.00000000000000000000e+00) (0, 0, 0.00000000000000000000e+00) (0, 0, 0.00000000000000000000e+00) (0, 0, 0.00000000000000000000e+00) (0, 0, 0.00000000000000000000e+00) (0, 0, 0.00000000000000000000e+00) (0, 0, 0.00000000000000000000e+00) (0, 0, 0.00000000000000000000e+00) (0, 0, 0.00000000000000000000e+00) (0, 0, 0.00000000000000000000e+00) (0, 0, 0.00000000000000000000e+00) (0, 0, 0.00000000000000000000e+00) (0, 0, 0.00000000000000000000e+00) (0, 0, 0.00000000000000000000e+00) (0, 0, 0.00000000000000000000e+00) (0, 0, 0.00000000000000000000e+00) (0, 0, 0.00000000000000000000e+00) (0, 0, 0.00000000000000000000e+00) (0, 0, 0.00000000000000000000e+00) (0, 0, 0.00000000000000000000e+00) (0, 0, 0.00000000000000000000e+00) (0, 0, 0.00000000000000000000e+00) (0, 0, 0.00000000000000000000e+00) (0, 0, 0.00000000000000000000e+00) (0, 0, 0.00000000000000000000e+00) (0, 0, 0.00000000000000000000e+00) (0, 0, 0.00000000000000000000e+00) (0, 0, 0.00000000000000000000e+00) (0, 0, 0.00000000000000000000e+00) (0, 0, 0.00000000000000000000e+00) (0, 0, 0.00000000000000000000e+00) (0, 0, 0.00000000000000000000e+00) (0, 0, 0.00000000000000000000e+00) (0, 0, 0.00000000000000000000e+00) (0, 0, 0.00000000000000000000e+00) (0, 0, 0.00000000000000000000e+00) (0, 0, 0.00000000000000000000e+00) (0, 0, 0.00000000000000000000e+00) (0, 0, 0.00000000000000000000e+00) (0, 0, 0.00000000000000000000e+00) (0, 0, 0.00000000000000000000e+00) (0, 0, 0.00000000000000000000e+00) (0, 0, 0.00000000000000000000e+00) (0, 0, 0.00000000000000000000e+00) (0, 0, 0.00000000000000000000e+00) (0, 0, 0.00000000000000000000e+00) (0, 0, 0.00000000000000000000e+00) (0, 0, 0.00000000000000000000e+00) (0, 0, 0.00000000000000000000e+00) (0, 0, 0.00000000000000000000e+00) (0, 0, 0.00000000000000000000e+00) (0, 0, 0.00000000000000000000e+00) (0, 0, 0.00000000000000000000e+00) (0, 0, 0.00000000000000000000e+00) (0, 0, 0.00000000000000000000e+00) (0, 0, 0.00000000000000000000e+00) (0, 0, 0.00000000000000000000e+00) (0, 0, 0.00000000000000000000e+00) (0, 0, 0.00000000000000000000e+00) (0, 0, 0.00000000000000000000e+00) (0, 0, 0.00000000000000000000e+00) (0, 0, 0.00000000000000000000e+00) (0, 0, 0.00000000000000000000e+00) (0, 0, 0.00000000000000000000e+00) (0, 0, 0.00000000000000000000e+00) (0, 0, 0.00000000000000000000e+00) (0, 0, 0.00000000000000000000e+00) (0, 0, 0.00000000000000000000e+00) (0, 0, 0.00000000000000000000e+00) (0, 0, 0.00000000000000000000e+00) (0, 0, 0.00000000000000000000e+00) (0, 0, 0.00000000000000000000e+00) (0, 0, 0.00000000000000000000e+00) (0, 0, 0.00000000000000000000e+00) (0, 0, 0.00000000000000000000e+00) (0, 0, 0.00000000000000000000e+00) (0, 0, 0.00000000000000000000e+00) (0, 0, 0.00000000000000000000e+00) (0, 0, 0.00000000000000000000e+00) (0, 0, 0.00000000000000000000e+00) (0, 0, 0.00000000000000000000e+00) (0, 0, 0.00000000000000000000e+00) (0, 0, 0.00000000000000000000e+00) (0, 0, 0.00000000000000000000e+00) (0, 0, 0.00000000000000000000e+00) (0, 0, 0.00000000000000000000e+00) (0, 0, 0.00000000000000000000e+00) (0, 0, 0.00000000000000000000e+00) (0, 0, 0.00000000000000000000e+00) (0, 0, 0.00000000000000000000e+00) (0, 0, 0.00000000000000000000e+00) (0, 0, 0.00000000000000000000e+00) (0, 0, 0.00000000000000000000e+00) (0, 0, 0.00000000000000000000e+00) (0, 0, 0.00000000000000000000e+00) (0, 0, 0.00000000000000000000e+00) (0, 0, 0.00000000000000000000e+00) (0, 0, 0.00000000000000000000e+00) (0, 0, 0.00000000000000000000e+00) (0, 0, 0.00000000000000000000e+00) (0, 0, 0.00000000000000000000e+00) (0, 0, 0.00000000000000000000e+00) (0, 0, 0.00000000000000000000e+00) (0, 0, 0.00000000000000000000e+00) (0, 0, 0.00000000000000000000e+00) (0, 0, 0.00000000000000000000e+00) (0, 0, 0.00000000000000000000e+00) (0, 0, 0.00000000000000000000e+00) (0, 0, 0.00000000000000000000e+00) (0, 0, 0.00000000000000000000e+00) (0, 0, 0.00000000000000000000e+00) (0, 0, 0.00000000000000000000e+00) (0, 0, 0.00000000000000000000e+00) (0, 0, 0.00000000000000000000e+00) (0, 0, 0.00000000000000000000e+00) (0, 0, 0.00000000000000000000e+00) (0, 0, 0.00000000000000000000e+00) (0, 0, 0.00000000000000000000e+00) (0, 0, 0.00000000000000000000e+00) (0, 0, 0.00000000000000000000e+00) (0, 0, 0.00000000000000000000e+00) (0, 0, 0.00000000000000000000e+00) (0, 0, 0.00000000000000000000e+00) (0, 0, 0.00000000000000000000e+00) (0, 0, 0.00000000000000000000e+00) (0, 0, 0.00000000000000000000e+00) (0, 0, 0.00000000000000000000e+00) (0, 0, 0.00000000000000000000e+00) (0, 0, 0.00000000000000000000e+00) (0, 0, 0.00000000000000000000e+00) (0, 0, 0.00000000000000000000e+00) (0, 0, 0.00000000000000000000e+00) (0, 0, 0.00000000000000000000e+00) (0, 0, 0.00000000000000000000e+00) (0, 0, 0.00000000000000000000e+00) (0, 0, 0.00000000000000000000e+00) (0, 0, 0.00000000000000000000e+00) (0, 0, 0.00000000000000000000e+00) (0, 0, 0.00000000000000000000e+00) (0, 0, 0.00000000000000000000e+00) (0, 0, 0.00000000000000000000e+00) (0, 0, 0.00000000000000000000e+00) (0, 0, 0.00000000000000000000e+00) (0, 0, 0.00000000000000000000e+00) (0, 0, 0.00000000000000000000e+00) (0, 0, 0.00000000000000000000e+00) (0, 0, 0.00000000000000000000e+00) (0, 0, 0.00000000000000000000e+00) (0, 0, 0.00000000000000000000e+00) (0, 0, 0.00000000000000000000e+00) (0, 0, 0.00000000000000000000e+00) (0, 0, 0.00000000000000000000e+00) (0, 0, 0.00000000000000000000e+00) (0, 0, 0.00000000000000000000e+00) (0, 0, 0.00000000000000000000e+00) (0, 0, 0.00000000000000000000e+00) (0, 0, 0.00000000000000000000e+00) (0, 0, 0.00000000000000000000e+00) (0, 0, 0.00000000000000000000e+00) (0, 0, 0.00000000000000000000e+00) (0, 0, 0.00000000000000000000e+00) (0, 0, 0.00000000000000000000e+00) (0, 0, 0.00000000000000000000e+00) (0, 0, 0.00000000000000000000e+00) (0, 0, 0.00000000000000000000e+00) (0, 0, 0.00000000000000000000e+00) (0, 0, 0.00000000000000000000e+00) (0, 0, 0.00000000000000000000e+00) (0, 0, 0.00000000000000000000e+00) (0, 0, 0.00000000000000000000e+00) (0, 0, 0.00000000000000000000e+00) (0, 0, 0.00000000000000000000e+00) (0, 0, 0.00000000000000000000e+00) (0, 0, 0.00000000000000000000e+00) (0, 0, 0.00000000000000000000e+00) (0, 0, 0.00000000000000000000e+00) (0, 0, 0.00000000000000000000e+00) (301, 5, 5.00000000000000000000e-01) (301, 5, 5.00000000000000000000e-01) (0, 5, 0.00000000000000000000e+00) 
connections (connected_to_neuron, weight)=(0, 1.50000000000000000000e+03) (1, -1.40749262645840644836e-02) (2, -9.68562846537679433823e-04) (3, 2.26339255459606647491e-03) (4, 2.50339345075190067291e-03) (5, 2.17773416079580783844e-03) (6, 1.93348433822393417358e-03) (7, 1.99187500402331352234e-03) (8, 2.59491312317550182343e-03) (9, 2.36419006250798702240e-03) (10, -6.19930252432823181152e-02) (11, -5.00760367140173912048e-03) (12, -2.18098307959735393524e-03) (13, 2.36419006250798702240e-03) (14, 2.26339255459606647491e-03) (15, 2.50339345075190067291e-03) (16, 2.17773416079580783844e-03) (17, 1.93348433822393417358e-03) (18, 1.99187500402331352234e-03) (19, 2.59491312317550182343e-03) (20, 5.71794155985116958618e-03) (21, -1.18254180997610092163e-02) (22, 1.03770394343882799149e-03) (23, 2.59491312317550182343e-03) (24, 2.36419006250798702240e-03) (25, 2.26339255459606647491e-03) (26, 2.50339345075190067291e-03) (27, 2.17773416079580783844e-03) (28, 1.93348433822393417358e-03) (29, 1.99187500402331352234e-03) (30, 4.62459661066532135010e-02) (31, 5.12694045901298522949e-02) (32, 1.20672141201794147491e-03) (33, 1.99187500402331352234e-03) (34, 2.59491312317550182343e-03) (35, 2.36419006250798702240e-03) (36, 2.26339255459606647491e-03) (37, 2.50339345075190067291e-03) (38, 2.17773416079580783844e-03) (39, 1.93348433822393417358e-03) (40, 3.57929542660713195801e-02) (41, 7.12135881185531616211e-02) (42, -7.63096730224788188934e-04) (43, 1.93348433822393417358e-03) (44, 1.99187500402331352234e-03) (45, 2.59491312317550182343e-03) (46, 2.36419006250798702240e-03) (47, 2.26339255459606647491e-03) (48, 2.50339345075190067291e-03) (49, 2.17773416079580783844e-03) (50, 9.94194764643907546997e-03) (51, -2.36281100660562515259e-02) (52, -3.14319087192416191101e-03) (53, 2.17773416079580783844e-03) (54, 1.93348433822393417358e-03) (55, 1.99187500402331352234e-03) (56, 2.59491312317550182343e-03) (57, 2.36419006250798702240e-03) (58, 2.26339255459606647491e-03) (59, 2.50339345075190067291e-03) (60, 3.65367089398205280304e-03) (61, -2.10406742990016937256e-02) (62, 3.61993489786982536316e-03) (63, 2.50339345075190067291e-03) (64, 2.17773416079580783844e-03) (65, 1.93348433822393417358e-03) (66, 1.99187500402331352234e-03) (67, 2.59491312317550182343e-03) (68, 2.36419006250798702240e-03) (69, 2.26339255459606647491e-03) (70, 3.05641777813434600830e-02) (71, -8.99951811879873275757e-03) (72, -2.71125580184161663055e-03) (73, 2.26339255459606647491e-03) (74, 2.50339345075190067291e-03) (75, 2.17773416079580783844e-03) (76, 1.93348433822393417358e-03) (77, 1.99187500402331352234e-03) (78, 2.59491312317550182343e-03) (79, 2.36419006250798702240e-03) (80, 3.33653539419174194336e-02) (81, 1.98416039347648620605e-03) (82, -6.84730359353125095367e-04) (83, 2.36419006250798702240e-03) (84, 2.26339255459606647491e-03) (85, 2.50339345075190067291e-03) (86, 2.17773416079580783844e-03) (87, 1.93348433822393417358e-03) (88, 1.99187500402331352234e-03) (89, 2.59491312317550182343e-03) (90, 5.51462806761264801025e-02) (91, 4.46047931909561157227e-02) (92, -7.23267381545156240463e-04) (93, 2.59491312317550182343e-03) (94, 2.36419006250798702240e-03) (95, 2.26339255459606647491e-03) (96, 2.50339345075190067291e-03) (97, 2.17773416079580783844e-03) (98, 1.93348433822393417358e-03) (99, 1.99187500402331352234e-03) (100, -3.97135987877845764160e-02) (101, -1.25128198415040969849e-02) (102, -6.83404854498803615570e-04) (103, 1.99187500402331352234e-03) (104, 2.59491312317550182343e-03) (105, 2.36419006250798702240e-03) (106, 2.26339255459606647491e-03) (107, 2.50339345075190067291e-03) (108, 2.17773416079580783844e-03) (109, 1.93348433822393417358e-03) (110, 1.14074852317571640015e-02) (111, 2.28178780525922775269e-02) (112, -2.91276199277490377426e-04) (113, 1.93348433822393417358e-03) (114, 1.99187500402331352234e-03) (115, 2.59491312317550182343e-03) (116, 2.36419006250798702240e-03) (117, 2.26339255459606647491e-03) (118, 2.50339345075190067291e-03) (119, 2.17773416079580783844e-03) (120, -3.22313271462917327881e-02) (121, -4.75187860429286956787e-02) (122, 3.58417222741991281509e-04) (123, 2.17773416079580783844e-03) (124, 1.93348433822393417358e-03) (125, 1.99187500402331352234e-03) (126, 2.59491312317550182343e-03) (127, 2.36419006250798702240e-03) (128, 2.26339255459606647491e-03) (129, 2.50339345075190067291e-03) (130, 5.03219291567802429199e-02) (131, 2.88550201803445816040e-02) (132, -3.39730037376284599304e-03) (133, 2.50339345075190067291e-03) (134, 2.17773416079580783844e-03) (135, 1.93348433822393417358e-03) (136, 1.99187500402331352234e-03) (137, 2.59491312317550182343e-03) (138, 2.36419006250798702240e-03) (139, 2.26339255459606647491e-03) (140, -2.54705268889665603638e-03) (141, 3.39399427175521850586e-02) (142, 1.69953866861760616302e-03) (143, 2.26339255459606647491e-03) (144, 2.50339345075190067291e-03) (145, 2.17773416079580783844e-03) (146, 1.93348433822393417358e-03) (147, 1.99187500402331352234e-03) (148, 2.59491312317550182343e-03) (149, 2.36419006250798702240e-03) (150, -3.00528537482023239136e-02) (151, -5.88218718767166137695e-02) (152, -1.99549540411680936813e-05) (153, 2.36419006250798702240e-03) (154, 2.26339255459606647491e-03) (155, 2.50339345075190067291e-03) (156, 2.17773416079580783844e-03) (157, 1.93348433822393417358e-03) (158, 1.99187500402331352234e-03) (159, 2.59491312317550182343e-03) (160, 1.35252168402075767517e-02) (161, -1.73452403396368026733e-02) (162, -2.14345782296732068062e-04) (163, 2.59491312317550182343e-03) (164, 2.36419006250798702240e-03) (165, 2.26339255459606647491e-03) (166, 2.50339345075190067291e-03) (167, 2.17773416079580783844e-03) (168, 1.93348433822393417358e-03) (169, 1.99187500402331352234e-03) (170, -3.24600897729396820068e-02) (171, 1.82471871376037597656e-02) (172, 1.57569098519161343575e-04) (173, 1.99187500402331352234e-03) (174, 2.59491312317550182343e-03) (175, 2.36419006250798702240e-03) (176, 2.26339255459606647491e-03) (177, 2.50339345075190067291e-03) (178, 2.17773416079580783844e-03) (179, 1.93348433822393417358e-03) (180, -4.50397022068500518799e-02) (181, -2.78676375746726989746e-02) (182, -1.72342872247099876404e-03) (183, 1.93348433822393417358e-03) (184, 1.99187500402331352234e-03) (185, 2.59491312317550182343e-03) (186, 2.36419006250798702240e-03) (187, 2.26339255459606647491e-03) (188, 2.50339345075190067291e-03) (189, 2.17773416079580783844e-03) (190, -1.95407052524387836456e-03) (191, -5.61935408040881156921e-03) (192, -3.54143348522484302521e-03) (193, 2.17773416079580783844e-03) (194, 1.93348433822393417358e-03) (195, 1.99187500402331352234e-03) (196, 2.59491312317550182343e-03) (197, 2.36419006250798702240e-03) (198, 2.26339255459606647491e-03) (199, 2.50339345075190067291e-03) (200, 6.36078268289566040039e-02) (201, 3.61580252647399902344e-02) (202, 2.50137411057949066162e-04) (203, 2.50339345075190067291e-03) (204, 2.17773416079580783844e-03) (205, 1.93348433822393417358e-03) (206, 1.99187500402331352234e-03) (207, 2.59491312317550182343e-03) (208, 2.36419006250798702240e-03) (209, 2.26339255459606647491e-03) (210, 3.10472957789897918701e-02) (211, 1.94970667362213134766e-02) (212, -2.31101247482001781464e-03) (213, 2.26339255459606647491e-03) (214, 2.50339345075190067291e-03) (215, 2.17773416079580783844e-03) (216, 1.93348433822393417358e-03) (217, 1.99187500402331352234e-03) (218, 2.59491312317550182343e-03) (219, 2.36419006250798702240e-03) (220, 1.41498381271958351135e-02) (221, -6.95557333528995513916e-03) (222, 3.13459662720561027527e-03) (223, 2.36419006250798702240e-03) (224, 2.26339255459606647491e-03) (225, 2.50339345075190067291e-03) (226, 2.17773416079580783844e-03) (227, 1.93348433822393417358e-03) (228, 1.99187500402331352234e-03) (229, 2.59491312317550182343e-03) (230, 3.42147052288055419922e-02) (231, 1.09564140439033508301e-02) (232, 1.40385422855615615845e-03) (233, 2.59491312317550182343e-03) (234, 2.36419006250798702240e-03) (235, 2.26339255459606647491e-03) (236, 2.50339345075190067291e-03) (237, 2.17773416079580783844e-03) (238, 1.93348433822393417358e-03) (239, 1.99187500402331352234e-03) (240, 2.13604886084794998169e-02) (241, -1.42744276672601699829e-02) (242, -8.47000279463827610016e-04) (243, 1.99187500402331352234e-03) (244, 2.59491312317550182343e-03) (245, 2.36419006250798702240e-03) (246, 2.26339255459606647491e-03) (247, 2.50339345075190067291e-03) (248, 2.17773416079580783844e-03) (249, 1.93348433822393417358e-03) (250, -4.01923730969429016113e-02) (251, -1.84853319078683853149e-02) (252, -8.61523090861737728119e-04) (253, 1.93348433822393417358e-03) (254, 1.99187500402331352234e-03) (255, 2.59491312317550182343e-03) (256, 2.36419006250798702240e-03) (257, 2.26339255459606647491e-03) (258, 2.50339345075190067291e-03) (259, 2.17773416079580783844e-03) (260, 2.95709334313869476318e-02) (261, 1.31948795169591903687e-02) (262, -4.54233319032937288284e-04) (263, 2.17773416079580783844e-03) (264, 1.93348433822393417358e-03) (265, 1.99187500402331352234e-03) (266, 2.59491312317550182343e-03) (267, 2.36419006250798702240e-03) (268, 2.26339255459606647491e-03) (269, 2.50339345075190067291e-03) (270, 3.66000644862651824951e-02) (271, -7.22868042066693305969e-03) (272, 1.07390002813190221786e-03) (273, 2.50339345075190067291e-03) (274, 2.17773416079580783844e-03) (275, 1.93348433822393417358e-03) (276, 1.99187500402331352234e-03) (277, 2.59491312317550182343e-03) (278, 2.36419006250798702240e-03) (279, 2.26339255459606647491e-03) (280, 1.09027139842510223389e-03) (281, 4.40243184566497802734e-02) (282, -6.48755114525556564331e-04) (283, 2.26339255459606647491e-03) (284, 2.50339345075190067291e-03) (285, 2.17773416079580783844e-03) (286, 1.93348433822393417358e-03) (287, 1.99187500402331352234e-03) (288, 2.59491312317550182343e-03) (289, 2.36419006250798702240e-03) (290, 7.06332037225365638733e-04) (291, -5.32660447061061859131e-02) (292, -3.31738218665122985840e-03) (293, 2.36419006250798702240e-03) (294, 2.26339255459606647491e-03) (295, 2.50339345075190067291e-03) (296, 2.17773416079580783844e-03) (297, 1.93348433822393417358e-03) (298, 1.99187500402331352234e-03) (299, 2.59491312317550182343e-03) (300, -5.99473491311073303223e-02) (0, 1.50000000000000000000e+03) (1, 9.57633182406425476074e-03) (2, -6.09513279050588607788e-03) (3, 1.03914048522710800171e-02) (4, 1.02485194802284240723e-02) (5, 9.96804703027009963989e-03) (6, 1.01839397102594375610e-02) (7, 1.00840758532285690308e-02) (8, 1.03343529626727104187e-02) (9, 1.05638038367033004761e-02) (10, -1.27644068561494350433e-03) (11, 2.67160893417894840240e-03) (12, 5.23475185036659240723e-03) (13, 1.05638038367033004761e-02) (14, 1.03914048522710800171e-02) (15, 1.02485194802284240723e-02) (16, 9.96804703027009963989e-03) (17, 1.01839397102594375610e-02) (18, 1.00840758532285690308e-02) (19, 1.03343529626727104187e-02) (20, -3.56319807469844818115e-02) (21, -8.22510663419961929321e-03) (22, -2.25243181921541690826e-03) (23, 1.03343529626727104187e-02) (24, 1.05638038367033004761e-02) (25, 1.03914048522710800171e-02) (26, 1.02485194802284240723e-02) (27, 9.96804703027009963989e-03) (28, 1.01839397102594375610e-02) (29, 1.00840758532285690308e-02) (30, -4.62133176624774932861e-02) (31, 7.73410685360431671143e-03) (32, -1.47859612479805946350e-03) (33, 1.00840758532285690308e-02) (34, 1.03343529626727104187e-02) (35, 1.05638038367033004761e-02) (36, 1.03914048522710800171e-02) (37, 1.02485194802284240723e-02) (38, 9.96804703027009963989e-03) (39, 1.01839397102594375610e-02) (40, -5.53201213479042053223e-02) (41, -4.24564704298973083496e-02) (42, 5.39699452929198741913e-04) (43, 1.01839397102594375610e-02) (44, 1.00840758532285690308e-02) (45, 1.03343529626727104187e-02) (46, 1.05638038367033004761e-02) (47, 1.03914048522710800171e-02) (48, 1.02485194802284240723e-02) (49, 9.96804703027009963989e-03) (50, -4.62945885956287384033e-02) (51, -4.84212823212146759033e-02) (52, -4.52215841505676507950e-04) (53, 9.96804703027009963989e-03) (54, 1.01839397102594375610e-02) (55, 1.00840758532285690308e-02) (56, 1.03343529626727104187e-02) (57, 1.05638038367033004761e-02) (58, 1.03914048522710800171e-02) (59, 1.02485194802284240723e-02) (60, -6.98742866516113281250e-02) (61, -1.50957414880394935608e-02) (62, -5.49676176160573959351e-03) (63, 1.02485194802284240723e-02) (64, 9.96804703027009963989e-03) (65, 1.01839397102594375610e-02) (66, 1.00840758532285690308e-02) (67, 1.03343529626727104187e-02) (68, 1.05638038367033004761e-02) (69, 1.03914048522710800171e-02) (70, 1.22123444452881813049e-02) (71, 6.30942508578300476074e-02) (72, 2.68828996922820806503e-04) (73, 1.03914048522710800171e-02) (74, 1.02485194802284240723e-02) (75, 9.96804703027009963989e-03) (76, 1.01839397102594375610e-02) (77, 1.00840758532285690308e-02) (78, 1.03343529626727104187e-02) (79, 1.05638038367033004761e-02) (80, -8.94136130809783935547e-02) (81, 4.81698103249073028564e-02) (82, 8.43510031700134277344e-04) (83, 1.05638038367033004761e-02) (84, 1.03914048522710800171e-02) (85, 1.02485194802284240723e-02) (86, 9.96804703027009963989e-03) (87, 1.01839397102594375610e-02) (88, 1.00840758532285690308e-02) (89, 1.03343529626727104187e-02) (90, -3.62360216677188873291e-02) (91, -5.01413941383361816406e-02) (92, -1.64737721206620335579e-05) (93, 1.03343529626727104187e-02) (94, 1.05638038367033004761e-02) (95, 1.03914048522710800171e-02) (96, 1.02485194802284240723e-02) (97, 9.96804703027009963989e-03) (98, 1.01839397102594375610e-02) (99, 1.00840758532285690308e-02) (100, -4.59506995975971221924e-02) (101, 5.28681948781013488770e-02) (102, 1.84445036575198173523e-03) (103, 1.00840758532285690308e-02) (104, 1.03343529626727104187e-02) (105, 1.05638038367033004761e-02) (106, 1.03914048522710800171e-02) (107, 1.02485194802284240723e-02) (108, 9.96804703027009963989e-03) (109, 1.01839397102594375610e-02) (110, 2.96651758253574371338e-03) (111, 1.37898540124297142029e-02) (112, -5.88822585996240377426e-04) (113, 1.01839397102594375610e-02) (114, 1.00840758532285690308e-02) (115, 1.03343529626727104187e-02) (116, 1.05638038367033004761e-02) (117, 1.03914048522710800171e-02) (118, 1.02485194802284240723e-02) (119, 9.96804703027009963989e-03) (120, 6.30221962928771972656e-02) (121, 5.54459616541862487793e-02) (122, -3.21811251342296600342e-03) (123, 9.96804703027009963989e-03) (124, 1.01839397102594375610e-02) (125, 1.00840758532285690308e-02) (126, 1.03343529626727104187e-02) (127, 1.05638038367033004761e-02) (128, 1.03914048522710800171e-02) (129, 1.02485194802284240723e-02) (130, 5.04230931401252746582e-02) (131, -1.25791248865425586700e-03) (132, 2.24047875963151454926e-03) (133, 1.02485194802284240723e-02) (134, 9.96804703027009963989e-03) (135, 1.01839397102594375610e-02) (136, 1.00840758532285690308e-02) (137, 1.03343529626727104187e-02) (138, 1.05638038367033004761e-02) (139, 1.03914048522710800171e-02) (140, 3.63774225115776062012e-02) (141, -1.49876959621906280518e-02) (142, -6.11859140917658805847e-03) (143, 1.03914048522710800171e-02) (144, 1.02485194802284240723e-02) (145, 9.96804703027009963989e-03) (146, 1.01839397102594375610e-02) (147, 1.00840758532285690308e-02) (148, 1.03343529626727104187e-02) (149, 1.05638038367033004761e-02) (150, 9.89125296473503112793e-03) (151, 2.28012558072805404663e-02) (152, 2.89221038110554218292e-03) (153, 1.05638038367033004761e-02) (154, 1.03914048522710800171e-02) (155, 1.02485194802284240723e-02) (156, 9.96804703027009963989e-03) (157, 1.01839397102594375610e-02) (158, 1.00840758532285690308e-02) (159, 1.03343529626727104187e-02) (160, -1.00146315991878509521e-01) (161, -1.90622564405202865601e-02) (162, -2.06520734354853630066e-03) (163, 1.03343529626727104187e-02) (164, 1.05638038367033004761e-02) (165, 1.03914048522710800171e-02) (166, 1.02485194802284240723e-02) (167, 9.96804703027009963989e-03) (168, 1.01839397102594375610e-02) (169, 1.00840758532285690308e-02) (170, -9.31130163371562957764e-03) (171, 9.75158065557479858398e-03) (172, -1.06477655936032533646e-03) (173, 1.00840758532285690308e-02) (174, 1.03343529626727104187e-02) (175, 1.05638038367033004761e-02) (176, 1.03914048522710800171e-02) (177, 1.02485194802284240723e-02) (178, 9.96804703027009963989e-03) (179, 1.01839397102594375610e-02) (180, 2.05528791993856430054e-02) (181, -8.23547039180994033813e-03) (182, 1.92218425218015909195e-03) (183, 1.01839397102594375610e-02) (184, 1.00840758532285690308e-02) (185, 1.03343529626727104187e-02) (186, 1.05638038367033004761e-02) (187, 1.03914048522710800171e-02) (188, 1.02485194802284240723e-02) (189, 9.96804703027009963989e-03) (190, 6.01371144875884056091e-03) (191, 3.33249289542436599731e-03) (192, -1.63523107767105102539e-03) (193, 9.96804703027009963989e-03) (194, 1.01839397102594375610e-02) (195, 1.00840758532285690308e-02) (196, 1.03343529626727104187e-02) (197, 1.05638038367033004761e-02) (198, 1.03914048522710800171e-02) (199, 1.02485194802284240723e-02) (200, -1.21768899261951446533e-02) (201, 7.18753263354301452637e-02) (202, -2.49757431447505950928e-03) (203, 1.02485194802284240723e-02) (204, 9.96804703027009963989e-03) (205, 1.01839397102594375610e-02) (206, 1.00840758532285690308e-02) (207, 1.03343529626727104187e-02) (208, 1.05638038367033004761e-02) (209, 1.03914048522710800171e-02) (210, 1.87911987304687500000e-02) (211, 1.05365028139203786850e-03) (212, 1.96772464551031589508e-03) (213, 1.03914048522710800171e-02) (214, 1.02485194802284240723e-02) (215, 9.96804703027009963989e-03) (216, 1.01839397102594375610e-02) (217, 1.00840758532285690308e-02) (218, 1.03343529626727104187e-02) (219, 1.05638038367033004761e-02) (220, -1.16570562124252319336e-01) (221, 1.54114039614796638489e-02) (222, -6.76205148920416831970e-03) (223, 1.05638038367033004761e-02) (224, 1.03914048522710800171e-02) (225, 1.02485194802284240723e-02) (226, 9.96804703027009963989e-03) (227, 1.01839397102594375610e-02) (228, 1.00840758532285690308e-02) (229, 1.03343529626727104187e-02) (230, -3.94740439951419830322e-02) (231, 7.47692538425326347351e-03) (232, 5.91356167569756507874e-03) (233, 1.03343529626727104187e-02) (234, 1.05638038367033004761e-02) (235, 1.03914048522710800171e-02) (236, 1.02485194802284240723e-02) (237, 9.96804703027009963989e-03) (238, 1.01839397102594375610e-02) (239, 1.00840758532285690308e-02) (240, -5.89736178517341613770e-02) (241, 1.19758127257227897644e-02) (242, -3.29609704203903675079e-03) (243, 1.00840758532285690308e-02) (244, 1.03343529626727104187e-02) (245, 1.05638038367033004761e-02) (246, 1.03914048522710800171e-02) (247, 1.02485194802284240723e-02) (248, 9.96804703027009963989e-03) (249, 1.01839397102594375610e-02) (250, 4.80897761881351470947e-02) (251, 5.49973398447036743164e-02) (252, 3.16112977452576160431e-03) (253, 1.01839397102594375610e-02) (254, 1.00840758532285690308e-02) (255, 1.03343529626727104187e-02) (256, 1.05638038367033004761e-02) (257, 1.03914048522710800171e-02) (258, 1.02485194802284240723e-02) (259, 9.96804703027009963989e-03) (260, -3.28490771353244781494e-02) (261, 4.61285188794136047363e-02) (262, -1.64453336037695407867e-03) (263, 9.96804703027009963989e-03) (264, 1.01839397102594375610e-02) (265, 1.00840758532285690308e-02) (266, 1.03343529626727104187e-02) (267, 1.05638038367033004761e-02) (268, 1.03914048522710800171e-02) (269, 1.02485194802284240723e-02) (270, 2.28700619190931320190e-02) (271, 2.62870378792285919189e-02) (272, -1.08132697641849517822e-03) (273, 1.02485194802284240723e-02) (274, 9.96804703027009963989e-03) (275, 1.01839397102594375610e-02) (276, 1.00840758532285690308e-02) (277, 1.03343529626727104187e-02) (278, 1.05638038367033004761e-02) (279, 1.03914048522710800171e-02) (280, -3.45882885158061981201e-02) (281, 1.63959432393312454224e-02) (282, -1.87905516941100358963e-03) (283, 1.03914048522710800171e-02) (284, 1.02485194802284240723e-02) (285, 9.96804703027009963989e-03) (286, 1.01839397102594375610e-02) (287, 1.00840758532285690308e-02) (288, 1.03343529626727104187e-02) (289, 1.05638038367033004761e-02) (290, -1.50407508015632629395e-01) (291, 2.18366384506225585938e-02) (292, 2.58083292283117771149e-03) (293, 1.05638038367033004761e-02) (294, 1.03914048522710800171e-02) (295, 1.02485194802284240723e-02) (296, 9.96804703027009963989e-03) (297, 1.01839397102594375610e-02) (298, 1.00840758532285690308e-02) (299, 1.03343529626727104187e-02) (300, -3.01877886056900024414e-01) 
